{"learner":{"attributes":{"scikit_learn":"{\"_estimator_type\": \"classifier\"}"},"feature_names":[],"feature_types":[],"gradient_booster":{"model":{"cats":{"enc":[],"feature_segments":[],"sorted_idx":[]},"gbtree_model_param":{"num_parallel_tree":"1","num_trees":"200"},"iteration_indptr":[0,1,2,3,4,5,6,7,8,9,10,11,12,13,14,15,16,17,18,19,20,21,22,23,24,25,26,27,28,29,30,31,32,33,34,35,36,37,38,39,40,41,42,43,44,45,46,47,48,49,50,51,52,53,54,55,56,57,58,59,60,61,62,63,64,65,66,67,68,69,70,71,72,73,74,75,76,77,78,79,80,81,82,83,84,85,86,87,88,89,90,91,92,93,94,95,96,97,98,99,100,101,102,103,104,105,106,107,108,109,110,111,112,113,114,115,116,117,118,119,120,121,122,123,124,125,126,127,128,129,130,131,132,133,134,135,136,137,138,139,140,141,142,143,144,145,146,147,148,149,150,151,152,153,154,155,156,157,158,159,160,161,162,163,164,165,166,167,168,169,170,171,172,173,174,175,176,177,178,179,180,181,182,183,184,185,186,187,188,189,190,191,192,193,194,195,196,197,198,199,200],"tree_info":[0,0,0,0,0,0,0,0,0,0,0,0,0,0,0,0,0,0,0,0,0,0,0,0,0,0,0,0,0,0,0,0,0,0,0,0,0,0,0,0,0,0,0,0,0,0,0,0,0,0,0,0,0,0,0,0,0,0,0,0,0,0,0,0,0,0,0,0,0,0,0,0,0,0,0,0,0,0,0,0,0,0,0,0,0,0,0,0,0,0,0,0,0,0,0,0,0,0,0,0,0,0,0,0,0,0,0,0,0,0,0,0,0,0,0,0,0,0,0,0,0,0,0,0,0,0,0,0,0,0,0,0,0,0,0,0,0,0,0,0,0,0,0,0,0,0,0,0,0,0,0,0,0,0,0,0,0,0,0,0,0,0,0,0,0,0,0,0,0,0,0,0,0,0,0,0,0,0,0,0,0,0,0,0,0,0,0,0,0,0,0,0,0,0,0,0,0,0,0,0],"trees":[{"base_weights":[-0E0,4.527956E-1,-1.3994334E0,-3.3290654E-2,1.6560509E0,-3.0088496E-1,-1.8852459E-1,-1.9139785E-1,2.1965317E-1,-1E-1,1.7032259E0,-1.7090909E-1,9.677419E-1,6.2836623E-1,-1.4244604E0,1.7508197E0,-6.666667E-2,1.4716982E0,-1.3846155E-1,1.2089552E-1,8.873721E-3,-1.764706E-1,-4.3902438E-2,-0E0,1.7979799E-1,-5E-2,1.6734694E-1],"categories":[],"categories_nodes":[],"categories_segments":[],"categories_sizes":[],"default_left":[0,0,0,0,0,0,0,0,0,0,0,0,0,0,0,0,0,0,0,0,0,0,0,0,0,0,0],"id":0,"left_children":[1,3,5,7,9,11,-1,-1,13,-1,15,-1,17,19,21,23,-1,25,-1,-1,-1,-1,-1,-1,-1,-1,-1],"loss_changes":[2.2875029E2,1.5958275E2,4.6530777E1,9.330247E1,1.1539185E1,5.2122242E1,0E0,0E0,1.1714601E2,0E0,9.908615E0,0E0,2.0412754E1,4.352012E1,1.0876587E1,6.295883E0,0E0,6.1080093E0,0E0,0E0,0E0,0E0,0E0,0E0,0E0,0E0,0E0],"parents":[2147483647,0,0,1,1,2,2,3,3,4,4,5,5,8,8,10,10,12,12,13,13,14,14,15,15,17,17],"right_children":[2,4,6,8,10,12,-1,-1,14,-1,16,-1,18,20,22,24,-1,26,-1,-1,-1,-1,-1,-1,-1,-1,-1],"split_conditions":[5.1367598E0,2.5178135E1,3.164446E1,-2.289799E0,3.1287534E0,2.0549355E1,-1.8852459E-1,-1.9139785E-1,4.5780597E0,-1E-1,4.24359E1,-1.7090909E-1,6.2292733E0,-5.672117E-1,3.3616197E0,3.931401E1,-6.666667E-2,5.238738E0,-1.3846155E-1,1.2089552E-1,8.873721E-3,-1.764706E-1,-4.3902438E-2,-0E0,1.7979799E-1,-5E-2,1.6734694E-1],"split_indices":[7,2,6,5,1,2,0,0,1,0,0,0,7,5,7,3,0,7,0,0,0,0,0,0,0,0,0],"split_type":[0,0,0,0,0,0,0,0,0,0,0,0,0,0,0,0,0,0,0,0,0,0,0,0,0,0,0],"sum_hessian":[3.59E2,2.7175E2,8.725E1,1.9425E2,7.75E1,2.725E1,6E1,2.225E1,1.72E2,1E0,7.65E1,1.275E1,1.45E1,1.3825E2,3.375E1,7.525E1,1.25E0,1.225E1,2.25E0,6.6E1,7.225E1,2.45E1,9.25E0,2E0,7.325E1,1E0,1.125E1],"tree_param":{"num_deleted":"0","num_feature":"8","num_nodes":"27","size_leaf_vector":"1"}},{"base_weights":[-1.852985E-3,4.0845048E-1,-1.2744851E0,-3.1583488E-2,1.502406E0,-2.794485E-1,-1.7152618E-1,-1.7465846E-1,1.9765358E-1,1.5453576E0,-6.30032E-2,-1.5615188E0,8.7492275E-1,5.6751746E-1,-1.2959226E0,-3.6039304E-2,1.5881226E0,-1.6779934E-1,-7.391983E-1,1.3417164E0,-1.2931876E-1,1.0939369E-1,7.998619E-3,-1.706759E-1,-5.680676E-2,-4.0000003E-2,1.634038E-1,-1.2802011E-2,-1.0205122E-1,-2.4308784E-2,1.5276991E-1],"categories":[],"categories_nodes":[],"categories_segments":[],"categories_sizes":[],"default_left":[0,0,0,0,0,0,0,0,0,0,0,0,0,0,0,0,0,0,0,0,0,0,0,0,0,0,0,0,0,0,0],"id":1,"left_children":[1,3,5,7,9,11,-1,-1,13,15,-1,17,19,21,23,-1,25,-1,27,29,-1,-1,-1,-1,-1,-1,-1,-1,-1,-1,-1],"loss_changes":[1.8748508E2,1.3075038E2,3.7913696E1,7.685504E1,8.109299E0,4.2905796E1,0E0,0E0,9.606313E1,6.819977E0,0E0,6.7718506E-2,1.733117E1,3.5588345E1,9.363647E0,0E0,7.51474E0,0E0,4.6799552E-1,4.253458E0,0E0,0E0,0E0,0E0,0E0,0E0,0E0,0E0,0E0,0E0,0E0],"parents":[2147483647,0,0,1,1,2,2,3,3,4,4,5,5,8,8,9,9,11,11,12,12,13,13,14,14,16,16,18,18,19,19],"right_children":[2,4,6,8,10,12,-1,-1,14,16,-1,18,20,22,24,-1,26,-1,28,30,-1,-1,-1,-1,-1,-1,-1,-1,-1,-1,-1],"split_conditions":[5.1367598E0,2.5178135E1,3.164446E1,-2.289799E0,4.24359E1,2.0549355E1,-1.7152618E-1,-1.7465846E-1,4.5780597E0,3.2055314E0,-6.30032E-2,2.047415E1,6.2292733E0,-5.672117E-1,3.1380181E0,-3.6039304E-2,3.931401E1,-1.6779934E-1,-9.1404505E-2,3.05632E1,-1.2931876E-1,1.0939369E-1,7.998619E-3,-1.706759E-1,-5.680676E-2,-4.0000003E-2,1.634038E-1,-1.2802011E-2,-1.0205122E-1,-2.4308784E-2,1.5276991E-1],"split_indices":[7,2,6,5,0,2,0,0,1,1,0,2,7,5,7,0,3,0,5,6,0,0,0,0,0,0,0,0,0,0,0],"split_type":[0,0,0,0,0,0,0,0,0,0,0,0,0,0,0,0,0,0,0,0,0,0,0,0,0,0,0,0,0,0,0],"sum_hessian":[3.5705615E2,2.7051855E2,8.653759E1,1.9361125E2,7.69073E1,2.7067572E1,5.947002E1,2.2047466E1,1.7156378E2,7.565868E1,1.2486122E0,1.2657344E1,1.4410227E1,1.3800801E2,3.3555786E1,1.4975042E0,7.416119E1,1.0175512E1,2.4818323E0,1.2170977E1,2.2392502E0,6.575942E1,7.224858E1,2.0589285E1,1.2966498E1,1.5E0,7.266119E1,1.2409161E0,1.2409161E0,1.2460471E0,1.092493E1],"tree_param":{"num_deleted":"0","num_feature":"8","num_nodes":"31","size_leaf_vector":"1"}},{"base_weights":[-3.8455508E-3,2.6367006E-1,-1.6692476E-1,-1.6405858E-1,4.6447796E-1,1.3036229E-1,1.2879001E0,4.533189E-1,-7.557151E-1,1.4314765E0,-1.19379096E-1,-1.646559E-1,6.506681E-2,2.4260473E-2,-1.3291366E-1,-3.3910867E-2,1.4716396E-1],"categories":[],"categories_nodes":[],"categories_segments":[],"categories_sizes":[],"default_left":[0,0,0,0,0,0,0,0,0,0,0,0,0,0,0,0,0],"id":2,"left_children":[1,3,-1,-1,5,7,9,11,13,15,-1,-1,-1,-1,-1,-1,-1],"loss_changes":[1.577294E2,1.1740911E2,0E0,0E0,7.5964966E1,5.699307E1,3.0129425E1,6.1454727E1,3.0808819E1,5.8932953E0,0E0,0E0,0E0,0E0,0E0,0E0,0E0],"parents":[2147483647,0,0,1,1,4,4,5,5,6,6,7,7,8,8,9,9],"right_children":[2,4,-1,-1,6,8,10,12,14,16,-1,-1,-1,-1,-1,-1,-1],"split_conditions":[6.2292733E0,-2.289799E0,-1.6692476E-1,-1.6405858E-1,2.5178135E1,3.2587807E1,4.24359E1,2.028301E1,3.5502534E0,3.2055314E0,-1.19379096E-1,-1.646559E-1,6.506681E-2,2.4260473E-2,-1.3291366E-1,-3.3910867E-2,1.4716396E-1],"split_indices":[7,5,0,0,2,6,0,2,1,1,0,0,0,0,0,0,0],"split_type":[0,0,0,0,0,0,0,0,0,0,0,0,0,0,0,0,0],"sum_hessian":[3.5204565E2,3.0404776E2,4.7997894E1,2.8320004E1,2.7572775E2,1.9696472E2,7.876302E1,1.4470953E2,5.225519E1,7.48555E1,3.9075258E0,1.1800791E1,1.3290874E2,1.9274843E1,3.2980347E1,1.4952252E0,7.3360275E1],"tree_param":{"num_deleted":"0","num_feature":"8","num_nodes":"17","size_leaf_vector":"1"}},{"base_weights":[-5.3803828E-3,2.3968305E-1,-1.5620892E-1,-1.5366434E-1,4.2297032E-1,1.16875626E-1,1.193549E0,2.8039655E-1,-1.5087104E0,1.3158146E0,-1.3385874E-1,6.798517E-2,-3.0744309E-2,-2.1416198E-3,-1.6136982E-1,1.3541605E-1,-5.3356618E-2],"categories":[],"categories_nodes":[],"categories_segments":[],"categories_sizes":[],"default_left":[0,0,0,0,0,0,0,0,0,0,0,0,0,0,0,0,0],"id":3,"left_children":[1,3,-1,-1,5,7,9,11,13,15,-1,-1,-1,-1,-1,-1,-1],"loss_changes":[1.3271188E2,9.8511925E1,0E0,0E0,6.4311874E1,5.270242E1,2.5778137E1,4.23682E1,2.7967682E0,6.006241E0,0E0,0E0,0E0,0E0,0E0,0E0,0E0],"parents":[2147483647,0,0,1,1,4,4,5,5,6,6,7,7,8,8,9,9],"right_children":[2,4,-1,-1,6,8,10,12,14,16,-1,-1,-1,-1,-1,-1,-1],"split_conditions":[6.2292733E0,-2.289799E0,-1.5620892E-1,-1.5366434E-1,2.5178135E1,4.476934E1,3.4796246E1,3.217363E1,3.159982E1,4.24359E1,-1.3385874E-1,6.798517E-2,-3.0744309E-2,-2.1416198E-3,-1.6136982E-1,1.3541605E-1,-5.3356618E-2],"split_indices":[7,5,0,0,2,3,6,6,0,0,0,0,0,0,0,0,0],"split_type":[0,0,0,0,0,0,0,0,0,0,0,0,0,0,0,0,0],"sum_hessian":[3.458941E2,2.9957916E2,4.6314938E1,2.7329721E1,2.7224945E2,1.9567407E2,7.657537E1,1.7854172E2,1.7132357E1,7.3506424E1,3.068946E0,1.0621133E2,7.233039E1,1.2090142E0,1.5923343E1,7.227561E1,1.2308158E0],"tree_param":{"num_deleted":"0","num_feature":"8","num_nodes":"17","size_leaf_vector":"1"}},{"base_weights":[-6.6921534E-3,2.1835376E-1,-1.4763205E-1,-1.4528629E-1,3.8579944E-1,7.0263267E-1,-3.0726993E-1,1.8829145E-1,1.2010826E0,-1.6995764E-1,6.441141E-2,9.596235E-2,-3.3977512E-2,1.2935223E-1,-1.1875683E-1,1.1960707E-1,-5.9148926E-2],"categories":[],"categories_nodes":[],"categories_segments":[],"categories_sizes":[],"default_left":[0,0,0,0,0,0,0,0,0,0,0,0,0,0,0,0,0],"id":4,"left_children":[1,3,-1,-1,5,7,9,11,13,-1,15,-1,-1,-1,-1,-1,-1],"loss_changes":[1.1274291E2,8.3293106E1,0E0,0E0,5.9397038E1,4.727014E1,4.4225014E1,3.79471E1,2.2269531E1,0E0,5.136613E1,0E0,0E0,0E0,0E0,0E0,0E0],"parents":[2147483647,0,0,1,1,4,4,5,5,6,6,7,7,8,8,10,10],"right_children":[2,4,-1,-1,6,8,10,12,14,-1,16,-1,-1,-1,-1,-1,-1],"split_conditions":[6.2292733E0,-2.289799E0,-1.4763205E-1,-1.4528629E-1,4.1599016E0,3.9540306E1,2.0546791E1,3.4528725E1,4.8828387E0,-1.6995764E-1,3.164446E1,9.596235E-2,-3.3977512E-2,1.2935223E-1,-1.1875683E-1,1.1960707E-1,-5.9148926E-2],"split_indices":[7,5,0,0,1,3,2,3,7,0,6,0,0,0,0,0,0],"split_type":[0,0,0,0,0,0,0,0,0,0,0,0,0,0,0,0,0],"sum_hessian":[3.389124E2,2.9464456E2,4.4267845E1,2.6133968E1,2.685106E2,1.8426224E2,8.424837E1,9.136359E1,9.289864E1,1.6998787E1,6.724958E1,3.6797405E1,5.456618E1,8.9878845E1,3.019796E0,2.4373379E1,4.28762E1],"tree_param":{"num_deleted":"0","num_feature":"8","num_nodes":"17","size_leaf_vector":"1"}},{"base_weights":[-7.426628E-3,1.9993232E-1,-1.4062457E-1,-1.3839447E-1,3.5329375E-1,8.368088E-2,1.062456E0,7.097746E-1,-2.5805163E-1,1.190506E0,-1.0569548E-1,9.257829E-2,-7.174071E-2,-1.5241574E-1,1.0738684E-3,-4.4461716E-2,1.2331849E-1],"categories":[],"categories_nodes":[],"categories_segments":[],"categories_sizes":[],"default_left":[0,0,0,0,0,0,0,0,0,0,0,0,0,0,0,0,0],"id":5,"left_children":[1,3,-1,-1,5,7,9,11,13,15,-1,-1,-1,-1,-1,-1,-1],"loss_changes":[9.6596306E1,7.094667E1,0E0,0E0,5.062716E1,4.1534893E1,2.1064629E1,2.178447E1,4.281536E1,5.383911E0,0E0,0E0,0E0,0E0,0E0,0E0,0E0],"parents":[2147483647,0,0,1,1,4,4,5,5,6,6,7,7,8,8,9,9],"right_children":[2,4,-1,-1,6,8,10,12,14,16,-1,-1,-1,-1,-1,-1,-1],"split_conditions":[6.2292733E0,-2.289799E0,-1.4062457E-1,-1.3839447E-1,2.5178135E1,-6.1522615E-1,4.24359E1,3.8760157E0,2.052079E1,3.2055314E0,-1.0569548E-1,9.257829E-2,-7.174071E-2,-1.5241574E-1,1.0738684E-3,-4.4461716E-2,1.2331849E-1],"split_indices":[7,5,0,0,2,5,0,1,2,1,0,0,0,0,0,0,0],"split_type":[0,0,0,0,0,0,0,0,0,0,0,0,0,0,0,0,0],"sum_hessian":[3.310552E2,2.8906213E2,4.199309E1,2.4809717E1,2.642524E2,1.922716E2,7.19808E1,6.750945E1,1.2476216E2,6.829297E1,3.6878242E0,5.894002E1,8.569431E0,2.1030409E1,1.0373175E2,1.4976318E0,6.679534E1],"tree_param":{"num_deleted":"0","num_feature":"8","num_nodes":"17","size_leaf_vector":"1"}},{"base_weights":[-8.468851E-3,1.8303274E-1,-1.3480128E-1,-1.3262746E-1,3.2374638E-1,7.5332776E-2,9.9912846E-1,4.7716853E-1,-4.508376E-1,1.1112388E0,-1.23732924E-1,-1.4043649E-1,7.01247E-2,-4.279395E-3,-1.23863354E-1,1.1492667E-1,-5.153386E-2],"categories":[],"categories_nodes":[],"categories_segments":[],"categories_sizes":[],"default_left":[0,0,0,0,0,0,0,0,0,0,0,0,0,0,0,0,0],"id":6,"left_children":[1,3,-1,-1,5,7,9,11,13,15,-1,-1,-1,-1,-1,-1,-1],"loss_changes":[8.325416E1,6.0743484E1,0E0,0E0,4.3642693E1,4.0723244E1,1.8923271E1,4.6988503E1,2.6779966E1,4.7473755E0,0E0,0E0,0E0,0E0,0E0,0E0,0E0],"parents":[2147483647,0,0,1,1,4,4,5,5,6,6,7,7,8,8,9,9],"right_children":[2,4,-1,-1,6,8,10,12,14,16,-1,-1,-1,-1,-1,-1,-1],"split_conditions":[6.2292733E0,-2.289799E0,-1.3480128E-1,-1.3262746E-1,2.5178135E1,3.217363E1,3.4796246E1,2.028301E1,4.1070123E0,4.24359E1,-1.23732924E-1,-1.4043649E-1,7.01247E-2,-4.279395E-3,-1.23863354E-1,1.1492667E-1,-5.153386E-2],"split_indices":[7,5,0,0,2,6,6,2,1,0,0,0,0,0,0,0,0],"split_type":[0,0,0,0,0,0,0,0,0,0,0,0,0,0,0,0,0],"sum_hessian":[3.225844E2,2.8299127E2,3.959315E1,2.3414963E1,2.5957632E2,1.905875E2,6.898882E1,1.08114044E2,8.247345E1,6.6174706E1,2.8141165E0,1.0944915E1,9.716913E1,5.502647E1,2.7446974E1,6.4949684E1,1.2250203E0],"tree_param":{"num_deleted":"0","num_feature":"8","num_nodes":"17","size_leaf_vector":"1"}},{"base_weights":[-9.962287E-3,1.6746253E-1,-1.2989184E-1,-1.2772958E-1,2.9698932E-1,5.5721456E-1,-2.6927486E-1,9.631623E-2,1.033112E0,-1.489476E-1,4.7181517E-2,7.9247795E-2,-3.6158923E-2,1.3888487E-1,3.1910654E-2,1.0745821E-1,-5.3293265E-2],"categories":[],"categories_nodes":[],"categories_segments":[],"categories_sizes":[],"default_left":[0,0,0,0,0,0,0,0,0,0,0,0,0,0,0,0,0],"id":7,"left_children":[1,3,-1,-1,5,7,9,11,13,-1,15,-1,-1,-1,-1,-1,-1],"loss_changes":[7.209868E1,5.224726E1,0E0,0E0,3.775174E1,3.831966E1,3.1354504E1,2.9003168E1,2.1419373E1,0E0,3.949354E1,0E0,0E0,0E0,0E0,0E0,0E0],"parents":[2147483647,0,0,1,1,4,4,5,5,6,6,7,7,8,8,10,10],"right_children":[2,4,-1,-1,6,8,10,12,14,-1,16,-1,-1,-1,-1,-1,-1],"split_conditions":[6.2292733E0,-2.289799E0,-1.2989184E-1,-1.2772958E-1,4.1599016E0,3.9540306E1,2.0546791E1,3.4528725E1,2.4358728E0,-1.489476E-1,3.1389877E1,7.9247795E-2,-3.6158923E-2,1.3888487E-1,3.1910654E-2,1.0745821E-1,-5.3293265E-2],"split_indices":[7,5,0,0,1,3,2,3,7,0,6,0,0,0,0,0,0],"split_type":[0,0,0,0,0,0,0,0,0,0,0,0,0,0,0,0,0],"sum_hessian":[3.1331317E2,2.7616864E2,3.7144535E1,2.1993137E1,2.5417549E2,1.7415775E2,8.0017746E1,8.908392E1,8.5073814E1,1.5715349E1,6.43024E1,3.5056404E1,5.4027523E1,5.6152157E1,2.8921658E1,2.2897621E1,4.1404778E1],"tree_param":{"num_deleted":"0","num_feature":"8","num_nodes":"17","size_leaf_vector":"1"}},{"base_weights":[-9.877601E-3,1.5457489E-1,-1.2570038E-1,-1.2351455E-1,2.7378115E-1,4.9614012E-2,9.1138345E-1,4.1665164E-1,-4.1376412E-1,1.0199418E0,-1.1746278E-1,-1.2809207E-1,6.11384E-2,3.521966E-2,-7.788599E-2,1.0932493E-1,-7.825416E-3],"categories":[],"categories_nodes":[],"categories_segments":[],"categories_sizes":[],"default_left":[0,0,0,0,0,0,0,0,0,0,0,0,0,0,0,0,0],"id":8,"left_children":[1,3,-1,-1,5,7,9,11,13,15,-1,-1,-1,-1,-1,-1,-1],"loss_changes":[6.2855076E1,4.52031E1,0E0,0E0,3.5721962E1,3.184191E1,1.5925896E1,3.5295853E1,2.3430288E1,5.1054916E0,0E0,0E0,0E0,0E0,0E0,0E0,0E0],"parents":[2147483647,0,0,1,1,4,4,5,5,6,6,7,7,8,8,9,9],"right_children":[2,4,-1,-1,6,8,10,12,14,16,-1,-1,-1,-1,-1,-1,-1],"split_conditions":[6.2292733E0,-2.289799E0,-1.2570038E-1,-1.2351455E-1,2.5178135E1,3.2138752E1,3.4796246E1,2.028301E1,-6.1522615E-1,3.5735886E1,-1.1746278E-1,-1.2809207E-1,6.11384E-2,3.521966E-2,-7.788599E-2,1.0932493E-1,-7.825416E-3],"split_indices":[7,5,0,0,2,6,6,2,5,2,0,0,0,0,0,0,0],"split_type":[0,0,0,0,0,0,0,0,0,0,0,0,0,0,0,0,0],"sum_hessian":[3.0452368E2,2.6981992E2,3.4703785E1,2.0576405E1,2.492435E2,1.8520667E2,6.4036835E1,1.0340296E2,8.180371E1,6.135491E1,2.6819205E0,1.00669365E1,9.333602E1,2.6416973E1,5.5386738E1,5.7519817E1,3.8350952E0],"tree_param":{"num_deleted":"0","num_feature":"8","num_nodes":"17","size_leaf_vector":"1"}},{"base_weights":[-1.077909E-2,1.418808E-1,-1.2208132E-1,-1.1359086E0,2.5730726E-1,-3.4535757E-1,-1.2709165E-1,4.9862212E-1,-2.6173052E-1,-8.9403994E-2,6.999769E-2,-1.745738E0,5.8316535E-1,-1.5612821E-1,2.6761962E-2,-1.989234E-1,-4.0297724E-2,7.2675854E-2,-5.311982E-2,-1.398451E-1,3.469515E-2],"categories":[],"categories_nodes":[],"categories_segments":[],"categories_sizes":[],"default_left":[0,0,0,0,0,0,0,0,0,0,0,0,0,0,0,0,0,0,0,0,0],"id":9,"left_children":[1,3,-1,5,7,9,-1,11,13,-1,-1,15,17,-1,19,-1,-1,-1,-1,-1,-1],"loss_changes":[5.492992E1,3.9246494E1,0E0,1.9162178E0,3.0572487E1,3.259489E0,0E0,3.2564117E1,2.9206888E1,0E0,0E0,1.2535477E0,2.6143513E1,0E0,2.9984327E1,0E0,0E0,0E0,0E0,0E0,0E0],"parents":[2147483647,0,0,1,1,3,3,4,4,5,5,7,7,8,8,11,11,12,12,14,14],"right_children":[2,4,-1,6,8,10,-1,12,14,-1,-1,16,18,-1,20,-1,-1,-1,-1,-1,-1],"split_conditions":[6.2292733E0,-2.2245746E0,-1.2208132E-1,2.958049E0,4.1599016E0,2.7374685E0,-1.2709165E-1,2.6573946E0,1.9852085E0,-8.9403994E-2,6.999769E-2,3.0388546E1,4.2839622E0,-1.5612821E-1,2.052079E1,-1.989234E-1,-4.0297724E-2,7.2675854E-2,-5.311982E-2,-1.398451E-1,3.469515E-2],"split_indices":[7,5,0,1,1,1,0,1,7,0,0,0,7,0,2,0,0,0,0,0,0],"split_type":[0,0,0,0,0,0,0,0,0,0,0,0,0,0,0,0,0,0,0,0,0],"sum_hessian":[2.95425E2,2.6311298E2,3.231202E1,2.106617E1,2.4204681E2,3.591843E0,1.7474325E1,1.6525471E2,7.67921E1,2.4503956E0,1.1414473E0,5.2857366E0,1.5996898E2,1.3148974E1,6.3643124E1,4.0668116E0,1.218925E0,1.4201697E2,1.7952013E1,1.1057392E1,5.258573E1],"tree_param":{"num_deleted":"0","num_feature":"8","num_nodes":"21","size_leaf_vector":"1"}},{"base_weights":[-1.3160548E-2,1.2772942E-1,-1.1892382E-1,-7.740146E-2,7.7624553E-1,1.666397E-1,-6.754977E-1,9.377767E-1,-1.1527317E-1,-1.2064365E0,3.0930611E-1,-3.4679067E-1,-1.482666E-1,1.0525913E0,1.3745758E-1,-2.4108218E-2,-1.2649E-1,-1.4080812E-1,4.162642E-2,-1.1103367E-1,-9.814766E-4,-3.4419578E-2,1.1131966E-1,-7.9909384E-2,6.077766E-2],"categories":[],"categories_nodes":[],"categories_segments":[],"categories_sizes":[],"default_left":[0,0,0,0,0,0,0,0,0,0,0,0,0,0,0,0,0,0,0,0,0,0,0,0,0],"id":10,"left_children":[1,3,-1,5,7,9,11,13,-1,15,17,19,-1,21,23,-1,-1,-1,-1,-1,-1,-1,-1,-1,-1],"loss_changes":[4.801383E1,3.449543E1,0E0,2.8948425E1,2.0490826E1,2.801576E1,1.4728121E1,5.1876755E0,0E0,4.5617294E-1,2.4213173E1,1.0828712E1,0E0,4.666584E0,4.1992903E0,0E0,0E0,0E0,0E0,0E0,0E0,0E0,0E0,0E0,0E0],"parents":[2147483647,0,0,1,1,3,3,4,4,5,5,6,6,7,7,9,9,10,10,11,11,13,13,14,14],"right_children":[2,4,-1,6,8,10,12,14,-1,16,18,20,-1,22,24,-1,-1,-1,-1,-1,-1,-1,-1,-1,-1],"split_conditions":[6.2292733E0,2.5178135E1,-1.1892382E-1,3.2587807E1,3.4796246E1,2.028301E1,9.868223E-1,4.2372654E1,-1.1527317E-1,1.4708954E0,2.766055E0,3.90911E1,-1.482666E-1,3.931401E1,4.7852684E1,-2.4108218E-2,-1.2649E-1,-1.4080812E-1,4.162642E-2,-1.1103367E-1,-9.814766E-4,-3.4419578E-2,1.1131966E-1,-7.9909384E-2,6.077766E-2],"split_indices":[7,2,0,6,6,2,5,0,0,7,1,3,0,3,3,0,0,0,0,0,0,0,0,0,0],"split_type":[0,0,0,0,0,0,0,0,0,0,0,0,0,0,0,0,0,0,0,0,0,0,0,0,0],"sum_hessian":[2.8785117E2,2.578527E2,2.9998453E1,1.9655988E2,6.1292824E1,1.4011156E2,5.6448322E1,5.703094E1,4.2618823E0,1.2485921E1,1.2762564E2,4.1128857E1,1.5319467E1,4.9600056E1,7.430887E0,1.0055654E0,1.1480355E1,6.76926E0,1.2085638E2,1.1890788E1,2.9238068E1,1.8680177E0,4.7732037E1,2.250465E0,5.1804223E0],"tree_param":{"num_deleted":"0","num_feature":"8","num_nodes":"25","size_leaf_vector":"1"}},{"base_weights":[-1.4891211E-2,1.15461126E-1,-1.1614193E-1,-1.15389444E-1,2.1313265E-1,1.6787825E-2,7.6089144E-1,5.43842E-1,-2.7504542E-1,8.7136745E-1,-9.5736206E-2,7.3221795E-2,-6.490635E-2,-1.3289256E-1,-6.0926527E-3,-5.2215792E-2,9.5212296E-2],"categories":[],"categories_nodes":[],"categories_segments":[],"categories_sizes":[],"default_left":[0,0,0,0,0,0,0,0,0,0,0,0,0,0,0,0,0],"id":11,"left_children":[1,3,-1,-1,5,7,9,11,13,15,-1,-1,-1,-1,-1,-1,-1],"loss_changes":[4.2139576E1,3.1647448E1,0E0,0E0,2.5371822E1,2.703123E1,1.2652252E1,1.4546856E1,2.5451908E1,7.1389313E0,0E0,0E0,0E0,0E0,0E0,0E0,0E0],"parents":[2147483647,0,0,1,1,4,4,5,5,6,6,7,7,8,8,9,9],"right_children":[2,4,-1,-1,6,8,10,12,14,16,-1,-1,-1,-1,-1,-1,-1],"split_conditions":[6.2292733E0,-2.289799E0,-1.1614193E-1,-1.15389444E-1,2.5122898E1,-6.1522615E-1,4.24359E1,3.8760157E0,2.052079E1,3.931401E1,-9.5736206E-2,7.3221795E-2,-6.490635E-2,-1.3289256E-1,-6.0926527E-3,-5.2215792E-2,9.5212296E-2],"split_indices":[7,5,0,0,2,5,0,1,2,3,0,0,0,0,0,0,0],"split_type":[0,0,0,0,0,0,0,0,0,0,0,0,0,0,0,0,0],"sum_hessian":[2.800622E2,2.522791E2,2.7783098E1,1.7252228E1,2.3502687E2,1.7376959E2,6.125728E1,6.1619865E1,1.1214972E2,5.8019745E1,3.2375343E0,5.3549816E1,8.070049E0,1.805882E1,9.40909E1,2.8786993E0,5.5141045E1],"tree_param":{"num_deleted":"0","num_feature":"8","num_nodes":"17","size_leaf_vector":"1"}},{"base_weights":[-1.5606226E-2,1.054417E-1,-1.1366772E-1,-1.0674279E0,2.0138615E-1,-2.4756E-1,-1.2146955E-1,4.1055274E-1,-2.4765375E-1,-7.9798065E-2,6.6256575E-2,1.5464388E-2,8.547679E-1,-1.501155E-1,3.005487E-2,7.109178E-2,-4.1500248E-2,1.2278628E-1,1.5406598E-2,-1.2804918E-1,3.0373309E-2],"categories":[],"categories_nodes":[],"categories_segments":[],"categories_sizes":[],"default_left":[0,0,0,0,0,0,0,0,0,0,0,0,0,0,0,0,0,0,0,0,0],"id":12,"left_children":[1,3,-1,5,7,9,-1,11,13,-1,-1,15,17,-1,19,-1,-1,-1,-1,-1,-1],"loss_changes":[3.7152126E1,2.8033873E1,0E0,1.9755135E0,2.1644142E1,2.595967E0,0E0,2.7514585E1,2.5634697E1,0E0,0E0,2.5452187E1,1.9108437E1,0E0,2.2324549E1,0E0,0E0,0E0,0E0,0E0,0E0],"parents":[2147483647,0,0,1,1,3,3,4,4,5,5,7,7,8,8,11,11,12,12,14,14],"right_children":[2,4,-1,6,8,10,-1,12,14,-1,-1,16,18,-1,20,-1,-1,-1,-1,-1,-1],"split_conditions":[6.2292733E0,-2.2245746E0,-1.1366772E-1,2.958049E0,4.1599016E0,2.7374685E0,-1.2146955E-1,3.9540306E1,1.9852085E0,-7.9798065E-2,6.6256575E-2,3.4528725E1,2.4358728E0,-1.501155E-1,2.052079E1,7.109178E-2,-4.1500248E-2,1.2278628E-1,1.5406598E-2,-1.2804918E-1,3.0373309E-2],"split_indices":[7,5,0,1,1,1,0,3,7,0,0,3,7,0,2,0,0,0,0,0,0],"split_type":[0,0,0,0,0,0,0,0,0,0,0,0,0,0,0,0,0,0,0,0,0],"sum_hessian":[2.7189145E2,2.4621254E2,2.5678919E1,1.7852295E1,2.2836024E2,3.1266477E0,1.4725648E1,1.558498E2,7.251045E1,2.025124E0,1.1015236E0,8.303376E1,7.281604E1,1.2351887E1,6.015856E1,3.1496752E1,5.1537006E1,4.702489E1,2.579115E1,9.756996E0,5.0401566E1],"tree_param":{"num_deleted":"0","num_feature":"8","num_nodes":"21","size_leaf_vector":"1"}},{"base_weights":[-1.5932493E-2,9.650667E-2,-1.1144664E-1,-1.0373832E0,1.8515776E-1,-2.3365727E-1,-1.1866329E-1,1.1040999E-2,6.9074506E-1,-7.736814E-2,6.303594E-2,3.7551314E-1,-4.4716728E-1,8.013471E-1,-9.2102036E-2,-1.4822023E-1,4.933614E-2,2.6789902E-2,-7.8134544E-2,-4.4755515E-2,8.8084124E-2],"categories":[],"categories_nodes":[],"categories_segments":[],"categories_sizes":[],"default_left":[0,0,0,0,0,0,0,0,0,0,0,0,0,0,0,0,0,0,0,0,0],"id":13,"left_children":[1,3,-1,5,7,9,-1,11,13,-1,-1,15,17,19,-1,-1,-1,-1,-1,-1,-1],"loss_changes":[3.2851154E1,2.4457521E1,0E0,1.8406887E0,1.9776648E1,2.358904E0,0E0,2.8255808E1,1.0998039E1,0E0,0E0,2.1358387E1,1.81237E1,5.7944527E0,0E0,0E0,0E0,0E0,0E0,0E0,0E0],"parents":[2147483647,0,0,1,1,3,3,4,4,5,5,7,7,8,8,11,11,12,12,13,13],"right_children":[2,4,-1,6,8,10,-1,12,14,-1,-1,16,18,20,-1,-1,-1,-1,-1,-1,-1],"split_conditions":[6.2292733E0,-2.2245746E0,-1.1144664E-1,2.958049E0,2.5122898E1,2.7374685E0,-1.1866329E-1,3.2138752E1,4.24359E1,-7.736814E-2,6.303594E-2,2.8517273E1,-6.1522615E-1,3.931401E1,-9.2102036E-2,-1.4822023E-1,4.933614E-2,2.6789902E-2,-7.8134544E-2,-4.4755515E-2,8.8084124E-2],"split_indices":[7,5,0,1,2,1,0,6,0,0,0,6,5,3,0,0,0,0,0,0,0],"split_type":[0,0,0,0,0,0,0,0,0,0,0,0,0,0,0,0,0,0,0,0,0],"sum_hessian":[2.640912E2,2.4039772E2,2.3693478E1,1.6656118E1,2.237416E2,3.0103881E0,1.3645731E1,1.6718678E2,5.6554813E1,1.916868E0,1.0935202E0,9.321854E1,7.396825E1,5.3393665E1,3.161148E0,4.8701487E0,8.834839E1,2.3621618E1,5.034663E1,2.9181232E0,5.047554E1],"tree_param":{"num_deleted":"0","num_feature":"8","num_nodes":"21","size_leaf_vector":"1"}},{"base_weights":[-1.6780652E-2,2.0791343E-1,-5.208407E-1,-1.6154364E-1,2.7493796E-1,-7.155781E-1,3.6322606E-1,4.9330732E-1,-3.8681588E-1,-2.6424748E-1,-1.1521671E0,9.562108E-1,-1.0899597E-1,1.5949324E-1,8.999942E-1,-9.9809617E-1,4.928537E-1,-9.570389E-1,6.280406E-1,-1.3326912E-1,-4.9309617E-1,-2.5085742E-2,1.139076E-1,5.7087608E-2,-1.0310922E-1,1.0747464E-1,-3.628629E-2,-1.2797908E-1,-5.2851513E-3,7.1655504E-2,-8.236166E-2,-1.3585265E-2,-1.1647775E-1,-4.8251912E-2,1.20189466E-1,1.7905734E-1,-1.2473362E-1],"categories":[],"categories_nodes":[],"categories_segments":[],"categories_sizes":[],"default_left":[0,0,0,0,0,0,0,0,0,0,0,0,0,0,0,0,0,0,0,0,0,0,0,0,0,0,0,0,0,0,0,0,0,0,0,0,0],"id":14,"left_children":[1,3,5,-1,7,9,11,13,15,17,19,21,-1,23,25,27,29,31,33,-1,35,-1,-1,-1,-1,-1,-1,-1,-1,-1,-1,-1,-1,-1,-1,-1,-1],"loss_changes":[2.9281933E1,2.2304659E1,1.3981968E1,0E0,2.5246878E1,1.2632362E1,1.4011938E1,1.7614862E1,2.3926355E1,2.1358889E1,3.277977E0,2.7627583E0,0E0,3.6370758E1,1.3355984E1,6.8669662E0,6.0493207E0,3.1340427E0,1.0318118E1,0E0,1.721642E1,0E0,0E0,0E0,0E0,0E0,0E0,0E0,0E0,0E0,0E0,0E0,0E0,0E0,0E0,0E0,0E0],"parents":[2147483647,0,0,1,1,2,2,4,4,5,5,6,6,7,7,8,8,9,9,10,10,11,11,13,13,14,14,15,15,16,16,17,17,18,18,20,20],"right_children":[2,4,6,-1,8,10,12,14,16,18,20,22,-1,24,26,28,30,32,34,-1,36,-1,-1,-1,-1,-1,-1,-1,-1,-1,-1,-1,-1,-1,-1,-1,-1],"split_conditions":[3.7946482E0,2.6207945E0,2.5249342E1,-1.6154364E-1,4.1599016E0,2.345166E1,3.4796246E1,3.9540306E1,2.538963E0,2.0549355E1,1.23E2,3.390944E1,-1.0899597E-1,3.444137E0,3.0431032E0,3.1058438E0,5.919475E0,3.4528725E1,4.53379E0,-1.3326912E-1,1.27E2,-2.5085742E-2,1.139076E-1,5.7087608E-2,-1.0310922E-1,1.0747464E-1,-3.628629E-2,-1.2797908E-1,-5.2851513E-3,7.1655504E-2,-8.236166E-2,-1.3585265E-2,-1.1647775E-1,-4.8251912E-2,1.20189466E-1,1.7905734E-1,-1.2473362E-1],"split_indices":[7,1,2,0,1,2,6,3,5,2,4,6,0,1,7,7,5,3,1,0,4,0,0,0,0,0,0,0,0,0,0,0,0,0,0,0,0],"split_type":[0,0,0,0,0,0,0,0,0,0,0,0,0,0,0,0,0,0,0,0,0,0,0,0,0,0,0,0,0,0,0,0,0,0,0,0,0],"sum_hessian":[2.5658273E2,1.778779E2,7.8704834E1,5.4876804E0,1.7239021E2,6.4653824E1,1.4051006E1,1.2980948E2,4.258074E1,3.257951E1,3.2074318E1,1.0221874E1,3.8291323E0,7.205662E1,5.7752865E1,2.5043468E1,1.7537271E1,1.829912E1,1.4280391E1,2.43756E1,7.6987166E0,1.2959132E0,8.9259615E0,5.3939438E1,1.8117178E1,5.086342E1,6.889444E0,1.9021034E1,6.022433E0,1.5379594E1,2.1576786E0,4.0285025E0,1.42706175E1,4.919335E0,9.361056E0,1.5702728E0,6.1284437E0],"tree_param":{"num_deleted":"0","num_feature":"8","num_nodes":"37","size_leaf_vector":"1"}},{"base_weights":[-1.7588783E-2,7.991023E-2,-1.07597865E-1,-9.9987614E-1,1.5909114E-1,-1.998261E-1,-1.15433864E-1,-1.4179251E0,2.067879E-1,-7.224932E-2,5.7321995E-2,-1.5975216E-1,-3.6494978E-2,4.1800967E-1,-2.2999991E-1,5.4125804E-2,-4.8374347E-2,-1.3752621E-1,1.8093738E-3],"categories":[],"categories_nodes":[],"categories_segments":[],"categories_sizes":[],"default_left":[0,0,0,0,0,0,0,0,0,0,0,0,0,0,0,0,0,0,0],"id":15,"left_children":[1,3,-1,5,7,9,-1,11,13,-1,-1,-1,-1,15,17,-1,-1,-1,-1],"loss_changes":[2.5769793E1,1.9723707E1,0E0,1.718276E0,1.6394442E1,1.9339517E0,0E0,6.294527E-1,1.93458E1,0E0,0E0,0E0,0E0,1.5931734E1,1.953193E1,0E0,0E0,0E0,0E0],"parents":[2147483647,0,0,1,1,3,3,4,4,5,5,7,7,8,8,13,13,14,14],"right_children":[2,4,-1,6,8,10,-1,12,14,-1,-1,-1,-1,16,18,-1,-1,-1,-1],"split_conditions":[6.2292733E0,-2.2245746E0,-1.07597865E-1,2.958049E0,2.6573946E0,2.7374685E0,-1.15433864E-1,3.0388546E1,4.1599016E0,-7.224932E-2,5.7321995E-2,-1.5975216E-1,-3.6494978E-2,4.2839622E0,1.9852085E0,5.4125804E-2,-4.8374347E-2,-1.3752621E-1,1.8093738E-3],"split_indices":[7,5,0,1,1,1,0,0,1,0,0,0,0,7,7,0,0,0,0],"split_type":[0,0,0,0,0,0,0,0,0,0,0,0,0,0,0,0,0,0,0],"sum_hessian":[2.4789351E2,2.2783025E2,2.0063255E1,1.4771005E1,2.1305925E2,2.761466E0,1.2009539E1,5.4114223E0,2.0764783E2,1.6865563E0,1.0749097E0,4.181134E0,1.2302879E0,1.3999303E2,6.765481E1,1.23511665E2,1.6481356E1,1.12373E1,5.6417503E1],"tree_param":{"num_deleted":"0","num_feature":"8","num_nodes":"19","size_leaf_vector":"1"}},{"base_weights":[-1.9009352E-2,7.1009636E-2,-1.0589838E-1,-6.439511E-2,6.545807E-1,4.1457485E-2,-1.0067215E0,9.193238E-1,-3.47725E-1,-1.0761393E0,1.16575584E-1,-1.3639899E-1,-1.370246E-1,9.690159E-1,-3.2874744E-2,7.7301934E-2,-1.00497246E-1,-1.2892114E-1,3.720013E-2,-1.147774E-1,1.9940643E-2,1.4090307E-1,-1.0542194E-1,2.5478026E-2,1.06873535E-1,-1.0494038E-1,7.682668E-2],"categories":[],"categories_nodes":[],"categories_segments":[],"categories_sizes":[],"default_left":[0,0,0,0,0,0,0,0,0,0,0,0,0,0,0,0,0,0,0,0,0,0,0,0,0,0,0],"id":16,"left_children":[1,3,-1,5,7,9,11,13,15,17,19,-1,21,23,-1,25,-1,-1,-1,-1,-1,-1,-1,-1,-1,-1,-1],"loss_changes":[2.2853264E1,1.7810549E1,0E0,1.8338062E1,1.1580818E1,1.4049927E1,5.5809727E0,2.4176292E0,2.7574186E0,3.7329988E0,1.659971E1,0E0,1.0726648E1,2.0640297E0,0E0,6.064409E0,0E0,0E0,0E0,0E0,0E0,0E0,0E0,0E0,0E0,0E0,0E0],"parents":[2147483647,0,0,1,1,3,3,4,4,5,5,6,6,7,7,8,8,9,9,10,10,12,12,13,13,15,15],"right_children":[2,4,-1,6,8,10,12,14,16,18,20,-1,22,24,-1,26,-1,-1,-1,-1,-1,-1,-1,-1,-1,-1,-1],"split_conditions":[6.2292733E0,2.5249342E1,-1.0589838E-1,3.3426037E1,4.2372654E1,2.766055E0,4.3322754E1,3.4754173E1,3.3544693E0,3.0689032E1,2.028301E1,-1.3639899E-1,4.4038784E1,1.4708954E0,-3.2874744E-2,4.7852684E1,-1.00497246E-1,-1.2892114E-1,3.720013E-2,-1.147774E-1,1.9940643E-2,1.4090307E-1,-1.0542194E-1,2.5478026E-2,1.06873535E-1,-1.0494038E-1,7.682668E-2],"split_indices":[7,2,0,6,0,1,3,6,1,0,2,0,3,7,0,3,0,0,0,0,0,0,0,0,0,0,0],"split_type":[0,0,0,0,0,0,0,0,0,0,0,0,0,0,0,0,0,0,0,0,0,0,0,0,0,0,0],"sum_hessian":[2.4231006E2,2.2386433E2,1.8445719E1,1.8242606E2,4.1438274E1,1.6486284E2,1.7563225E1,3.284546E1,8.592814E0,9.543907E0,1.5531892E2,1.2046299E1,5.5169263E0,3.1802816E1,1.0426431E0,5.754133E0,2.8386815E0,8.415448E0,1.1284595E0,8.759225E0,1.4655971E2,1.854566E0,3.6623602E0,4.3317604E0,2.7471056E1,1.9901651E0,3.763968E0],"tree_param":{"num_deleted":"0","num_feature":"8","num_nodes":"27","size_leaf_vector":"1"}},{"base_weights":[-1.9582186E-2,6.3703574E-2,-1.043146E-1,-9.6668744E-1,1.3439696E-1,-1.640468E-1,-1.1276319E-1,-6.7064106E-3,5.836999E-1,-6.7682706E-2,5.3721953E-2,3.2413164E-1,-4.1953146E-1,6.869974E-1,-8.2942806E-2,-6.30016E-2,5.2307356E-2,2.1148756E-2,-7.153696E-2,-4.3299455E-2,7.713859E-2],"categories":[],"categories_nodes":[],"categories_segments":[],"categories_sizes":[],"default_left":[0,0,0,0,0,0,0,0,0,0,0,0,0,0,0,0,0,0,0,0,0],"id":17,"left_children":[1,3,-1,5,7,9,-1,11,13,-1,-1,15,17,19,-1,-1,-1,-1,-1,-1,-1],"loss_changes":[2.0332054E1,1.6211876E1,0E0,1.6618881E0,1.3157911E1,1.6431177E0,0E0,2.1836079E1,7.8098087E0,0E0,0E0,1.7178806E1,1.34278555E1,4.7541294E0,0E0,0E0,0E0,0E0,0E0,0E0,0E0],"parents":[2147483647,0,0,1,1,3,3,4,4,5,5,7,7,8,8,11,11,12,12,13,13],"right_children":[2,4,-1,6,8,10,-1,12,14,-1,-1,16,18,20,-1,-1,-1,-1,-1,-1,-1],"split_conditions":[6.2292733E0,-2.2245746E0,-1.043146E-1,2.958049E0,2.5122898E1,2.7374685E0,-1.1276319E-1,3.2138752E1,4.24359E1,-6.7682706E-2,5.3721953E-2,2.036549E1,-6.1522615E-1,3.931401E1,-8.2942806E-2,-6.30016E-2,5.2307356E-2,2.1148756E-2,-7.153696E-2,-4.3299455E-2,7.713859E-2],"split_indices":[7,5,0,1,2,1,0,6,0,0,0,2,5,3,0,0,0,0,0,0,0],"split_type":[0,0,0,0,0,0,0,0,0,0,0,0,0,0,0,0,0,0,0,0,0],"sum_hessian":[2.3672446E2,2.1977914E2,1.6945316E1,1.3296834E1,2.064823E2,2.5582004E0,1.0738634E1,1.5788399E2,4.8598312E1,1.4978163E0,1.0603839E0,8.776442E1,7.0119576E1,4.5766685E1,2.8316286E0,1.47681055E1,7.2996315E1,2.2472063E1,4.764751E1,2.9173286E0,4.2849358E1],"tree_param":{"num_deleted":"0","num_feature":"8","num_nodes":"21","size_leaf_vector":"1"}},{"base_weights":[-1.979655E-2,1.6528508E-1,-4.570773E-1,2.8885657E-1,-5.739762E-1,-2.2810213E-1,-1.1689122E0,-1.486673E-1,5.912468E-1,-1.0266819E0,7.931759E-1,-7.015506E-1,5.751573E-1,-3.001662E-2,-1.2062881E-1,2.5898644E-1,-1.0417432E0,9.332471E-1,-2.3558135E-3,-1.1086595E0,-3.8008017E-3,-8.324892E-3,1.0091721E-1,-1.5285568E-1,-1.2717994E0,-6.276989E-1,9.164621E-1,4.694275E-2,-1.3451488E-1,4.080016E-2,-1.1692114E-1,2.8932322E-2,1.1679584E-1,9.2328295E-2,-7.68927E-2,-1.21361725E-1,-3.8932055E-2,-8.696765E-2,7.5261764E-2,-1.4361681E-1,1.0997327E-3,2.4215473E-2,-9.486095E-2,1.13977514E-1,4.4872537E-2],"categories":[],"categories_nodes":[],"categories_segments":[],"categories_sizes":[],"default_left":[0,0,0,0,0,0,0,0,0,0,0,0,0,0,0,0,0,0,0,0,0,0,0,0,0,0,0,0,0,0,0,0,0,0,0,0,0,0,0,0,0,0,0,0,0],"id":18,"left_children":[1,3,5,7,9,11,13,15,17,19,21,23,25,-1,-1,27,29,31,33,35,-1,-1,-1,37,39,41,43,-1,-1,-1,-1,-1,-1,-1,-1,-1,-1,-1,-1,-1,-1,-1,-1,-1,-1],"loss_changes":[1.879048E1,1.507507E1,1.0985278E1,1.8676311E1,1.5488079E1,2.0739902E1,1.755867E-1,2.1465178E1,1.6909119E1,1.4367485E0,1.3072801E0,1.047357E1,8.941952E0,0E0,0E0,1.4395613E1,3.8856144E0,7.648205E0,2.3018589E1,7.969856E-1,0E0,0E0,0E0,1.267018E1,3.512207E0,1.6527956E0,1.1892023E0,0E0,0E0,0E0,0E0,0E0,0E0,0E0,0E0,0E0,0E0,0E0,0E0,0E0,0E0,0E0,0E0,0E0,0E0],"parents":[2147483647,0,0,1,1,2,2,3,3,4,4,5,5,6,6,7,7,8,8,9,9,10,10,11,11,12,12,15,15,16,16,17,17,18,18,19,19,23,23,24,24,25,25,26,26],"right_children":[2,4,6,8,10,12,14,16,18,20,22,24,26,-1,-1,28,30,32,34,36,-1,-1,-1,38,40,42,44,-1,-1,-1,-1,-1,-1,-1,-1,-1,-1,-1,-1,-1,-1,-1,-1,-1,-1],"split_conditions":[3.7428224E0,4.5780597E0,1.9073496E0,3.9138348E1,2.5122898E1,4.1673523E1,4.135447E0,3.2138752E1,3.2587807E1,3.335629E1,3.2816635E1,2.060111E1,-1.19458206E-1,-3.001662E-2,-1.2062881E-1,3.7614975E0,2.460128E1,3.2231636E1,3.444137E0,1.6E2,-3.8008017E-3,-8.324892E-3,1.0091721E-1,2.047415E1,4.754645E0,4.491115E0,4.9983854E0,4.694275E-2,-1.3451488E-1,4.080016E-2,-1.1692114E-1,2.8932322E-2,1.1679584E-1,9.2328295E-2,-7.68927E-2,-1.21361725E-1,-3.8932055E-2,-8.696765E-2,7.5261764E-2,-1.4361681E-1,1.0997327E-3,2.4215473E-2,-9.486095E-2,1.13977514E-1,4.4872537E-2],"split_indices":[7,1,5,3,2,3,7,6,6,6,6,2,5,0,0,1,2,0,1,4,0,0,0,2,1,7,1,0,0,0,0,0,0,0,0,0,0,0,0,0,0,0,0,0,0],"split_type":[0,0,0,0,0,0,0,0,0,0,0,0,0,0,0,0,0,0,0,0,0,0,0,0,0,0,0,0,0,0,0,0,0,0,0,0,0,0,0,0,0,0,0,0,0],"sum_hessian":[2.3024084E2,1.6220757E2,6.803329E1,1.3949886E2,2.2708714E1,5.2474358E1,1.5558928E1,5.721855E1,8.22803E1,1.7246807E1,5.461907E0,3.3094673E1,1.9379684E1,1.0142919E0,1.4544636E1,3.977352E1,1.744503E1,5.1840534E1,3.0439764E1,1.5814187E1,1.4326198E0,1.2014586E0,4.2604485E0,1.7512321E1,1.5582352E1,4.0980096E0,1.5281675E1,3.5786213E1,3.9873087E0,1.2320176E0,1.6213013E1,1.4444669E1,3.7395866E1,1.3696607E1,1.6743158E1,1.3200931E1,2.6132567E0,9.796458E0,7.7158628E0,1.37065325E1,1.8758196E0,1.1705512E0,2.9274583E0,9.370907E0,5.9107685E0],"tree_param":{"num_deleted":"0","num_feature":"8","num_nodes":"45","size_leaf_vector":"1"}},{"base_weights":[-1.9865012E-2,-9.736874E-1,5.8010813E-2,-4.0386543E-1,-1.1005241E-1,2.146924E-1,-3.4692785E-1,-7.9829775E-2,5.0680634E-2,3.9034158E-1,-3.3017635E-1,-5.9438556E-2,-1.1327893E0,-9.3402636E-1,4.974542E-1,-9.0012395E-1,4.2107388E-1,-5.6455684E-1,6.869171E-1,-2.8521448E-2,-1.17220454E-1,-1.2016767E-1,1.08362185E-2,-1.4450318E-1,5.443699E-2,-1.17138915E-1,-1.9332068E-3,6.313338E-2,-7.9477474E-2,5.5348636E-3,-1.23430885E-1,8.338228E-2,-8.745145E-2],"categories":[],"categories_nodes":[],"categories_segments":[],"categories_sizes":[],"default_left":[0,0,0,0,0,0,0,0,0,0,0,0,0,0,0,0,0,0,0,0,0,0,0,0,0,0,0,0,0,0,0,0,0],"id":19,"left_children":[1,3,5,7,-1,9,11,-1,-1,13,15,17,19,21,23,25,27,29,31,-1,-1,-1,-1,-1,-1,-1,-1,-1,-1,-1,-1,-1,-1],"loss_changes":[1.6665476E1,7.794533E-1,1.3250173E1,2.079471E0,0E0,1.4518149E1,1.31081085E1,0E0,0E0,1.6658258E1,1.6304544E1,1.6882524E1,1.8564034E-1,2.6102982E0,1.0470945E1,5.1066093E0,4.7777653E0,1.11297245E1,4.8834496E0,0E0,0E0,0E0,0E0,0E0,0E0,0E0,0E0,0E0,0E0,0E0,0E0,0E0,0E0],"parents":[2147483647,0,0,1,1,2,2,3,3,5,5,6,6,9,9,10,10,11,11,12,12,13,13,14,14,15,15,16,16,17,17,18,18],"right_children":[2,4,6,8,-1,10,12,-1,-1,14,16,18,20,22,24,26,28,30,32,-1,-1,-1,-1,-1,-1,-1,-1,-1,-1,-1,-1,-1,-1],"split_conditions":[-2.2245746E0,2.958049E0,3.7428224E0,2.7374685E0,-1.1005241E-1,4.1599016E0,1.9073496E0,-7.9829775E-2,5.0680634E-2,2.766055E0,2.538963E0,4.1673523E1,4.135447E0,3.0388546E1,2.8517273E1,3.1058438E0,5.919475E0,2.0552797E1,3.4796246E1,-2.8521448E-2,-1.17220454E-1,-1.2016767E-1,1.08362185E-2,-1.4450318E-1,5.443699E-2,-1.17138915E-1,-1.9332068E-3,6.313338E-2,-7.9477474E-2,5.5348636E-3,-1.23430885E-1,8.338228E-2,-8.745145E-2],"split_indices":[5,1,7,1,0,1,5,0,0,1,5,3,7,0,6,7,5,2,6,0,0,0,0,0,0,0,0,0,0,0,0,0,0],"split_type":[0,0,0,0,0,0,0,0,0,0,0,0,0,0,0,0,0,0,0,0,0,0,0,0,0,0,0,0,0,0,0,0,0],"sum_hessian":[2.2260068E2,1.5934311E1,2.0666637E2,3.6628523E0,1.2271459E1,1.4934904E2,5.7317318E1,2.641958E0,1.0208942E0,1.1315493E2,3.619412E1,4.275282E1,1.45645E1,7.889319E0,1.0526561E2,2.0467764E1,1.5726353E1,2.564225E1,1.7110569E1,1.0131954E0,1.3551305E1,6.1558843E0,1.7334348E0,1.7796777E0,1.0348593E2,1.539615E1,5.0716143E0,1.3817587E1,1.9087662E0,1.3793082E1,1.1849167E1,1.606509E1,1.0454793E0],"tree_param":{"num_deleted":"0","num_feature":"8","num_nodes":"33","size_leaf_vector":"1"}},{"base_weights":[-2.2250695E-2,-1.0155212E-1,4.582514E-2,1.0003655E-1,-9.751949E-2,-1.3232646E0,1.3665637E-1,-1.4957622E-1,-3.6097523E-2,-1.2979357E-1,1.7157938E-1,3.4762397E-2,-1.5481496E-2],"categories":[],"categories_nodes":[],"categories_segments":[],"categories_sizes":[],"default_left":[0,0,0,0,0,0,0,0,0,0,0,0,0],"id":20,"left_children":[1,-1,3,5,-1,7,9,-1,-1,-1,11,-1,-1],"loss_changes":[1.4752697E1,0E0,1.1416631E1,1.0349292E1,0E0,2.8790665E-1,9.797154E0,0E0,0E0,0E0,1.0824547E1,0E0,0E0],"parents":[2147483647,0,0,2,2,3,3,5,5,6,6,10,10],"right_children":[2,-1,4,6,-1,8,10,-1,-1,-1,12,-1,-1],"split_conditions":[-2.289799E0,-1.0155212E-1,6.2292733E0,2.8517273E1,-9.751949E-2,2.1432781E0,2.586178E0,-1.4957622E-1,-3.6097523E-2,-1.2979357E-1,3.2587807E1,3.4762397E-2,-1.5481496E-2],"split_indices":[5,0,7,6,0,7,1,0,0,0,6,0,0],"split_type":[0,0,0,0,0,0,0,0,0,0,0,0,0],"sum_hessian":[2.1648976E2,1.299319E1,2.0349657E2,1.9409314E2,9.403419E0,3.9872108E0,1.9010594E2,2.911012E0,1.0761988E0,3.6583889E0,1.8644754E2,1.2107778E2,6.536977E1],"tree_param":{"num_deleted":"0","num_feature":"8","num_nodes":"13","size_leaf_vector":"1"}},{"base_weights":[-2.3023695E-2,-9.38643E-1,4.423982E-2,-3.4683654E-1,-1.07735746E-1,-6.3125856E-2,5.553664E-1,-7.442186E-2,4.3215256E-2,4.5889616E-2,-9.0113044E-1,8.166666E-1,-4.0724096E-1,4.2216423E-1,-1.5201458E-1,-1.1856388E-1,-1.0350668E-1,1.5824766E-1,9.1527444E-1,-1.15702786E-1,6.664791E-3,-8.7792054E-2,5.4982644E-2,-1.2096117E-1,7.035013E-3,1.4282286E-1,-1.02097444E-1,8.248734E-2,-1.1562357E-1,9.809159E-2,-1.7927533E-2,8.270047E-2,-7.775249E-2],"categories":[],"categories_nodes":[],"categories_segments":[],"categories_sizes":[],"default_left":[0,0,0,0,0,0,0,0,0,0,0,0,0,0,0,0,0,0,0,0,0,0,0,0,0,0,0,0,0,0,0,0,0],"id":21,"left_children":[1,3,5,7,-1,9,11,-1,-1,13,15,17,19,21,23,-1,25,27,29,-1,31,-1,-1,-1,-1,-1,-1,-1,-1,-1,-1,-1,-1],"loss_changes":[1.3236458E1,8.336544E-1,1.1040132E1,1.6426141E0,0E0,1.5263448E1,9.114518E0,0E0,0E0,1.1114646E1,4.241007E0,1.6596203E0,2.52809E0,9.015769E0,2.3127932E1,0E0,1.0102755E1,5.1854615E0,1.8975849E0,0E0,4.6488433E0,0E0,0E0,0E0,0E0,0E0,0E0,0E0,0E0,0E0,0E0,0E0,0E0],"parents":[2147483647,0,0,1,1,2,2,3,3,5,5,6,6,9,9,10,10,11,11,12,12,13,13,14,14,16,16,17,17,18,18,20,20],"right_children":[2,4,6,8,-1,10,12,-1,-1,14,16,18,20,22,24,-1,26,28,30,-1,32,-1,-1,-1,-1,-1,-1,-1,-1,-1,-1,-1,-1],"split_conditions":[-2.2245746E0,2.958049E0,2.5249342E1,2.7034326E0,-1.07735746E-1,3.3426037E1,4.2372654E1,-7.442186E-2,4.3215256E-2,-6.1522615E-1,1.23E2,1.4708954E0,4.7852684E1,2.6457323E1,2.052079E1,-1.1856388E-1,1.27E2,3.1629242E1,3.4737797E1,-1.15702786E-1,4.24359E1,-8.7792054E-2,5.4982644E-2,-1.2096117E-1,7.035013E-3,1.4282286E-1,-1.02097444E-1,8.248734E-2,-1.1562357E-1,9.809159E-2,-1.7927533E-2,8.270047E-2,-7.775249E-2],"split_indices":[5,1,2,1,0,6,0,0,0,5,4,7,3,0,2,0,4,0,6,0,0,0,0,0,0,0,0,0,0,0,0,0,0],"split_type":[0,0,0,0,0,0,0,0,0,0,0,0,0,0,0,0,0,0,0,0,0,0,0,0,0,0,0,0,0,0,0,0,0],"sum_hessian":[2.1324599E2,1.3706919E1,1.9953906E2,3.2673924E0,1.0439527E1,1.6562491E2,3.3914158E1,2.193214E0,1.0741787E0,1.4739555E2,1.8229351E1,2.6792841E1,7.121318E0,5.0412758E1,9.698279E1,1.3078024E1,5.151328E0,3.829244E0,2.2963596E1,1.8943424E0,5.2269754E0,3.9821815E0,4.6430576E1,1.6077278E1,8.090551E1,1.7211379E0,3.43019E0,2.7878764E0,1.0413674E0,2.1762304E1,1.2012923E0,2.5279222E0,2.6990535E0],"tree_param":{"num_deleted":"0","num_feature":"8","num_nodes":"33","size_leaf_vector":"1"}},{"base_weights":[-2.3549039E-2,-9.8751955E-2,3.495172E-2,-7.353696E-2,4.8794997E-1,2.1792422E-1,-4.0745848E-1,6.947063E-1,-3.8627437E-1,-6.519264E-1,3.7355292E-1,-1.4947018E-1,-9.8050696E-1,1.6410005E-1,9.7215647E-1,6.2273573E-2,-6.421504E-1,1.892587E-2,-1.1957338E-1,-1.2922834E-1,4.6280976E-2,1.7327344E-2,-1.0656226E-1,-1.2710986E-1,-2.0650981E-2,6.869359E-2,-1.516441E-1,1.0529313E-1,-1.688586E-2,-1.7355946E-1,-7.6731504E-3],"categories":[],"categories_nodes":[],"categories_segments":[],"categories_sizes":[],"default_left":[0,0,0,0,0,0,0,0,0,0,0,0,0,0,0,0,0,0,0,0,0,0,0,0,0,0,0,0,0,0,0],"id":22,"left_children":[1,-1,3,5,7,9,11,13,15,17,19,21,23,25,27,-1,29,-1,-1,-1,-1,-1,-1,-1,-1,-1,-1,-1,-1,-1,-1],"loss_changes":[1.1798148E1,0E0,9.748525E0,1.569147E1,7.194148E0,1.1919683E1,1.0950836E1,4.455023E0,2.4579582E0,6.380704E0,1.157081E1,1.5838255E1,4.938263E0,1.1555276E1,2.0560951E0,0E0,4.1025925E0,0E0,0E0,0E0,0E0,0E0,0E0,0E0,0E0,0E0,0E0,0E0,0E0,0E0,0E0],"parents":[2147483647,0,0,2,2,3,3,4,4,5,5,6,6,7,7,8,8,9,9,10,10,11,11,12,12,13,13,14,14,16,16],"right_children":[2,-1,4,6,8,10,12,14,16,18,20,22,24,26,28,-1,30,-1,-1,-1,-1,-1,-1,-1,-1,-1,-1,-1,-1,-1,-1],"split_conditions":[-2.289799E0,-9.8751955E-2,2.5178135E1,3.217363E1,4.2372654E1,2.0352928E1,3.25641E0,4.540995E1,2.5660808E0,2.8966784E1,2.8517273E1,4.1070123E0,1.23E2,3.4589066E1,3.4737797E1,6.2273573E-2,4.7852684E1,1.892587E-2,-1.1957338E-1,-1.2922834E-1,4.6280976E-2,1.7327344E-2,-1.0656226E-1,-1.2710986E-1,-2.0650981E-2,6.869359E-2,-1.516441E-1,1.0529313E-1,-1.688586E-2,-1.7355946E-1,-7.6731504E-3],"split_indices":[5,0,2,6,0,2,7,3,7,6,6,1,4,0,6,0,3,0,0,0,0,0,0,0,0,0,0,0,0,0,0],"split_type":[0,0,0,0,0,0,0,0,0,0,0,0,0,0,0,0,0,0,0,0,0,0,0,0,0,0,0,0,0,0,0],"sum_hessian":[2.0760092E2,1.0969299E1,1.9663162E2,1.5931491E2,3.7316708E1,8.5251274E1,7.406364E1,3.0345308E1,6.9714007E0,1.2453929E1,7.279735E1,5.1940628E1,2.2123007E1,1.0965645E1,1.9379663E1,1.120223E0,5.8511777E0,5.1459394E0,7.307989E0,3.016726E0,6.9780624E1,3.9009254E1,1.2931374E1,1.561734E1,6.5056667E0,8.81457E0,2.1510744E0,1.8170532E1,1.2091326E0,1.2889496E0,4.562228E0],"tree_param":{"num_deleted":"0","num_feature":"8","num_nodes":"31","size_leaf_vector":"1"}},{"base_weights":[-2.5159532E-2,3.0721024E-2,-9.6745804E-2,-2.7234888E-1,1.9724849E-1,3.8172528E-1,-7.3460627E-1,4.6986502E-1,-1.7268015E-1,-9.1108996E-1,7.018659E-1,-8.9495313E-1,9.2805475E-2,6.879825E-1,-6.067361E-1,4.4121605E-1,-4.213112E-1,1.6592162E-2,-1.3237579E-1,8.844601E-2,-9.927988E-2,-4.885881E-2,-1.24333315E-1,-5.1549483E-2,8.1369445E-2,-1.0388817E-1,6.360191E-2,-1.0725137E-1,6.496536E-2,-9.46901E-2,4.601055E-2],"categories":[],"categories_nodes":[],"categories_segments":[],"categories_sizes":[],"default_left":[0,0,0,0,0,0,0,0,0,0,0,0,0,0,0,0,0,0,0,0,0,0,0,0,0,0,0,0,0,0,0],"id":23,"left_children":[1,3,-1,5,7,9,11,13,15,17,19,21,-1,23,25,27,29,-1,-1,-1,-1,-1,-1,-1,-1,-1,-1,-1,-1,-1,-1],"loss_changes":[1.0704317E1,9.761164E0,0E0,2.1030197E1,1.2658446E1,1.26735325E1,1.1641876E1,1.73413E1,8.3738785E0,2.977963E0,8.264283E0,4.7005806E0,0E0,9.557035E0,7.4666886E0,5.7299137E0,1.8360594E1,0E0,0E0,0E0,0E0,0E0,0E0,0E0,0E0,0E0,0E0,0E0,0E0,0E0,0E0],"parents":[2147483647,0,0,1,1,3,3,4,4,5,5,6,6,7,7,8,8,9,9,10,10,11,11,13,13,14,14,15,15,16,16],"right_children":[2,4,-1,6,8,10,12,14,16,18,20,22,-1,24,26,28,30,-1,-1,-1,-1,-1,-1,-1,-1,-1,-1,-1,-1,-1,-1],"split_conditions":[6.2292733E0,3.9138348E1,-9.6745804E-2,3.4528725E1,3.0431032E0,-1.5041552E0,5.6302547E0,4.6239357E0,3.1493605E1,1.8174676E0,2.0715918E-1,-6.025715E-1,9.2805475E-2,1.4708954E0,2.5122898E1,2.8652025E1,3.379601E1,1.6592162E-2,-1.3237579E-1,8.844601E-2,-9.927988E-2,-4.885881E-2,-1.24333315E-1,-5.1549483E-2,8.1369445E-2,-1.0388817E-1,6.360191E-2,-1.0725137E-1,6.496536E-2,-9.46901E-2,4.601055E-2],"split_indices":[7,3,0,3,7,5,7,1,0,7,5,5,0,7,2,0,6,0,0,0,0,0,0,0,0,0,0,0,0,0,0],"split_type":[0,0,0,0,0,0,0,0,0,0,0,0,0,0,0,0,0,0,0,0,0,0,0,0,0,0,0,0,0,0,0],"sum_hessian":[2.0172261E2,1.9134291E2,1.0379695E1,6.762821E1,1.2371471E2,2.807604E1,3.955217E1,7.106999E1,5.2644722E1,5.2061753E0,2.2869864E1,3.649439E1,3.0577817E0,5.939719E1,1.1672797E1,1.4952023E1,3.76927E1,1.6078413E0,3.5983343E0,2.1076984E1,1.79288E0,1.7954252E1,1.8540136E1,5.324413E0,5.4072777E1,8.782791E0,2.8900065E0,1.3079371E0,1.3644086E1,2.356598E1,1.4126717E1],"tree_param":{"num_deleted":"0","num_feature":"8","num_nodes":"31","size_leaf_vector":"1"}},{"base_weights":[-2.532388E-2,-9.65988E-2,2.7893094E-2,-1.2453162E-1,6.181548E-2,1.9859123E-1,-3.0513793E-1,5.1084834E-1,-4.8599236E-2,-5.276822E-2,-1.0520785E0,-1.8447351E-3,9.892013E-2,-4.87356E-2,3.7336465E-2,-5.067687E-2,6.130156E-2,-5.07282E-2,-1.15916446E-1],"categories":[],"categories_nodes":[],"categories_segments":[],"categories_sizes":[],"default_left":[0,0,0,0,0,0,0,0,0,0,0,0,0,0,0,0,0,0,0],"id":24,"left_children":[1,-1,3,-1,5,7,9,11,13,15,17,-1,-1,-1,-1,-1,-1,-1,-1],"loss_changes":[9.881151E0,0E0,8.165759E0,0E0,9.264236E0,1.03825035E1,9.404676E0,1.5052202E1,1.4217627E1,1.1967288E1,1.4829636E-1,0E0,0E0,0E0,0E0,0E0,0E0,0E0,0E0],"parents":[2147483647,0,0,2,2,4,4,5,5,6,6,7,7,8,8,9,9,10,10],"right_children":[2,-1,4,-1,6,8,10,12,14,16,18,-1,-1,-1,-1,-1,-1,-1,-1],"split_conditions":[-2.289799E0,-9.65988E-2,2.586178E0,-1.2453162E-1,3.7428224E0,3.2061012E1,1.9073496E0,2.0934395E1,2.4983355E1,4.1673523E1,2.538963E0,-1.8447351E-3,9.892013E-2,-4.87356E-2,3.7336465E-2,-5.067687E-2,6.130156E-2,-5.07282E-2,-1.15916446E-1],"split_indices":[5,0,1,0,7,6,5,2,2,3,5,0,0,0,0,0,0,0,0],"split_type":[0,0,0,0,0,0,0,0,0,0,0,0,0,0,0,0,0,0,0],"sum_hessian":[1.958507E2,9.568359E0,1.8628233E2,3.9075997E0,1.8237473E2,1.331894E2,4.9185314E1,5.8378117E1,7.48113E1,3.7564125E1,1.1621191E1,2.8169788E1,3.0208326E1,3.6599884E1,3.821142E1,2.2476294E1,1.5087831E1,2.8514855E0,8.769706E0],"tree_param":{"num_deleted":"0","num_feature":"8","num_nodes":"19","size_leaf_vector":"1"}},{"base_weights":[-2.4747076E-2,-9.524836E-2,2.477031E-2,-1.0499867E0,6.0666464E-2,-1.18508294E-1,-2.9562399E-2,6.035867E-1,-2.4778198E-2,-1.1863291E-1,7.6351047E-1,-1.2141241E0,9.881113E-2,3.887891E-3,9.90185E-2,-3.07433E-2,-1.2638907E-1,3.3769276E-2,-1.940857E-2],"categories":[],"categories_nodes":[],"categories_segments":[],"categories_sizes":[],"default_left":[0,0,0,0,0,0,0,0,0,0,0,0,0,0,0,0,0,0,0],"id":25,"left_children":[1,-1,3,5,7,-1,-1,9,11,-1,13,15,17,-1,-1,-1,-1,-1,-1],"loss_changes":[8.874617E0,0E0,7.1577554E0,2.6088905E-1,8.313283E0,0E0,0E0,7.8799305E0,2.297983E1,0E0,3.7351074E0,2.7540588E-1,9.987288E0,0E0,0E0,0E0,0E0,0E0,0E0],"parents":[2147483647,0,0,2,2,3,3,4,4,7,7,8,8,10,10,11,11,12,12],"right_children":[2,-1,4,6,8,-1,-1,10,12,-1,14,16,18,-1,-1,-1,-1,-1,-1],"split_conditions":[-2.289799E0,-9.524836E-2,2.6573946E0,3.0388546E1,3.446121E1,-1.18508294E-1,-2.9562399E-2,3.1471272E1,2.052079E1,-1.1863291E-1,1.9314806E0,2.8602243E1,3.2587807E1,3.887891E-3,9.90185E-2,-3.07433E-2,-1.2638907E-1,3.3769276E-2,-1.940857E-2],"split_indices":[5,0,1,0,3,0,0,3,2,0,7,6,6,0,0,0,0,0,0],"split_type":[0,0,0,0,0,0,0,0,0,0,0,0,0,0,0,0,0,0,0],"sum_hessian":[1.9166869E2,8.787856E0,1.8288083E2,4.997625E0,1.7788321E2,3.7543063E0,1.2433186E0,2.3363857E1,1.5451935E2,1.3898737E0,2.1973984E1,1.371462E1,1.4080473E2,5.515045E0,1.6458939E1,1.0870625E0,1.2627558E1,7.7469215E1,6.333551E1],"tree_param":{"num_deleted":"0","num_feature":"8","num_nodes":"19","size_leaf_vector":"1"}},{"base_weights":[-2.4963047E-2,2.3681955E-2,-9.403997E-2,-2.4990845E-1,1.7317547E-1,3.5326588E-1,-6.601046E-1,4.144784E-1,-1.4702813E-1,-8.072669E-1,6.490408E-1,-8.1480104E-1,8.874386E-2,7.2126347E-1,-2.9092586E-1,-3.420414E-1,4.9928242E-1,1.7369008E-2,-1.1984493E-1,1.0530704E-1,-9.72493E-3,-4.3282982E-2,-1.143504E-1,-1.1161296E-2,8.55604E-2,-1.0431471E-1,5.422315E-2,3.3933178E-2,-8.447853E-2,1.00368634E-1,-9.783101E-2],"categories":[],"categories_nodes":[],"categories_segments":[],"categories_sizes":[],"default_left":[0,0,0,0,0,0,0,0,0,0,0,0,0,0,0,0,0,0,0,0,0,0,0,0,0,0,0,0,0,0,0],"id":26,"left_children":[1,3,-1,5,7,9,11,13,15,17,19,21,-1,23,25,27,29,-1,-1,-1,-1,-1,-1,-1,-1,-1,-1,-1,-1,-1,-1],"loss_changes":[8.448096E0,7.4314184E0,0E0,1.6126648E1,9.13216E0,9.672911E0,9.959925E0,1.4754904E1,6.6228294E0,2.4564369E0,6.6739483E0,3.9746113E0,0E0,5.368572E0,1.3779205E1,1.3961035E1,1.0128472E1,0E0,0E0,0E0,0E0,0E0,0E0,0E0,0E0,0E0,0E0,0E0,0E0,0E0,0E0],"parents":[2147483647,0,0,1,1,3,3,4,4,5,5,6,6,7,7,8,8,9,9,10,10,11,11,13,13,14,14,15,15,16,16],"right_children":[2,4,-1,6,8,10,12,14,16,18,20,22,-1,24,26,28,30,-1,-1,-1,-1,-1,-1,-1,-1,-1,-1,-1,-1,-1,-1],"split_conditions":[6.2292733E0,3.9138348E1,-9.403997E-2,3.4528725E1,3.0431032E0,-1.5041552E0,5.6302547E0,4.174642E0,3.390944E1,1.8174676E0,-6.3121605E-1,-6.025715E-1,8.874386E-2,3.931401E1,2.538963E0,3.160775E1,3.4796246E1,1.7369008E-2,-1.1984493E-1,1.0530704E-1,-9.72493E-3,-4.3282982E-2,-1.143504E-1,-1.1161296E-2,8.55604E-2,-1.0431471E-1,5.422315E-2,3.3933178E-2,-8.447853E-2,1.00368634E-1,-9.783101E-2],"split_indices":[7,3,0,3,7,5,7,1,6,7,5,5,0,3,5,0,6,0,0,0,0,0,0,0,0,0,0,0,0,0,0],"split_type":[0,0,0,0,0,0,0,0,0,0,0,0,0,0,0,0,0,0,0,0,0,0,0,0,0,0,0,0,0,0,0],"sum_hessian":[1.8821082E2,1.7963918E2,8.571641E0,6.323681E1,1.1640237E2,2.5653425E1,3.758338E1,6.621149E1,5.019088E1,4.8589654E0,2.079446E1,3.459833E1,2.9850523E0,4.612774E1,2.0083748E1,3.8918625E1,1.1272257E1,1.5437454E0,3.3152199E0,1.322408E1,7.570381E0,1.707408E1,1.752425E1,6.4303575E0,3.9697384E1,1.0422074E1,9.661674E0,1.6661793E1,2.225683E1,8.642653E0,2.6296034E0],"tree_param":{"num_deleted":"0","num_feature":"8","num_nodes":"31","size_leaf_vector":"1"}},{"base_weights":[-2.3990234E-2,2.184058E-2,-9.277455E-2,-1.21607184E-1,5.4138284E-2,-1.0937586E-1,8.641774E-2,5.5744046E-1,1.3197734E-2,-1.6866764E-2,9.934229E-2,-1.1811711E-1,1.233662E-2],"categories":[],"categories_nodes":[],"categories_segments":[],"categories_sizes":[],"default_left":[0,0,0,0,0,0,0,0,0,0,0,0,0],"id":27,"left_children":[1,3,-1,-1,5,-1,7,9,11,-1,-1,-1,-1],"loss_changes":[7.612172E0,7.079521E0,0E0,0E0,6.4647236E0,0E0,5.791631E0,7.321116E0,1.9428583E1,0E0,0E0,0E0,0E0],"parents":[2147483647,0,0,1,1,4,4,6,6,7,7,8,8],"right_children":[2,4,-1,-1,6,-1,8,10,12,-1,-1,-1,-1],"split_conditions":[6.2292733E0,2.8517273E1,-9.277455E-2,-1.21607184E-1,2.6207945E0,-1.0937586E-1,3.4528725E1,3.3262863E1,2.052079E1,-1.6866764E-2,9.934229E-2,-1.1811711E-1,1.233662E-2],"split_indices":[7,6,0,0,1,0,3,3,2,0,0,0,0],"split_type":[0,0,0,0,0,0,0,0,0,0,0,0,0],"sum_hessian":[1.8229163E2,1.7442224E2,7.869386E0,3.5030923E0,1.7091914E2,3.7754512E0,1.6714369E2,2.1597057E1,1.4554663E2,8.332613E0,1.3264443E1,1.1470464E1,1.3407617E2],"tree_param":{"num_deleted":"0","num_feature":"8","num_nodes":"13","size_leaf_vector":"1"}},{"base_weights":[-2.4093175E-2,-9.2606746E-2,1.9637212E-2,-1.1609721E-1,4.906919E-2,8.454145E-2,-9.9585965E-2,-5.645784E-3,5.807775E-1,2.4254179E-2,-2.6439235E-2,7.4279994E-2,-5.906863E-2],"categories":[],"categories_nodes":[],"categories_segments":[],"categories_sizes":[],"default_left":[0,0,0,0,0,0,0,0,0,0,0,0,0],"id":28,"left_children":[1,-1,3,-1,5,7,-1,9,11,-1,-1,-1,-1],"loss_changes":[7.141803E0,0E0,6.0763135E0,0E0,6.3845267E0,7.401911E0,0E0,9.111311E0,5.266238E0,0E0,0E0,0E0,0E0],"parents":[2147483647,0,0,2,2,4,4,5,5,7,7,8,8],"right_children":[2,-1,4,-1,6,8,-1,10,12,-1,-1,-1,-1],"split_conditions":[-2.289799E0,-9.2606746E-2,2.8517273E1,-1.1609721E-1,3.4796246E1,2.5314917E1,-9.9585965E-2,3.2138752E1,3.5735886E1,2.4254179E-2,-2.6439235E-2,7.4279994E-2,-5.906863E-2],"split_indices":[5,0,6,0,6,2,0,6,2,0,0,0,0],"split_type":[0,0,0,0,0,0,0,0,0,0,0,0,0],"sum_hessian":[1.7960223E2,7.3720036E0,1.7223022E2,3.2540507E0,1.6897618E2,1.6431718E2,4.658992E0,1.3988309E2,2.4434093E1,7.1430336E1,6.845276E1,2.1786741E1,2.6473508E0],"tree_param":{"num_deleted":"0","num_feature":"8","num_nodes":"13","size_leaf_vector":"1"}},{"base_weights":[-2.3690278E-2,-2.8346235E-1,1.2102114E-1,-1.73242E-2,-1.0640514E0,3.8647753E-1,-2.0489977E-1,-7.799995E-1,2.9342788E-1,-3.4727713E-1,-1.1805178E0,6.801679E-1,-2.8371644E-1,-6.4214826E-1,4.8588045E-2,-1.2182311E0,7.0588194E-2,5.776593E-1,-6.9430757E-1,-8.175928E-2,2.4637446E-2,-1.2973596E0,-3.9314318E-1,-9.4412E-2,8.1268734E-1,-1.0002426E0,4.9577644E-1,1.02408305E-1,-9.8616314E-1,2.7376089E-1,-7.3365515E-1,-1.5865328E-2,-1.4433771E-1,3.8432684E-2,-5.8180656E-2,-7.5469926E-2,7.571873E-2,-1.1028238E-1,1.0090099E-2,-1.4098243E-1,-2.4125036E-2,-1.4052012E-3,-5.6444626E-2,-1.07924715E-1,1.243391E-1,-4.8912983E-2,8.7244295E-2,-1.135783E-1,3.9038903E-4,-5.9586074E-2,8.802331E-2,4.2947836E-2,-1.2775837E-1,4.4220332E-2,-9.280916E-2,3.684891E-2,-1.2015896E-1],"categories":[],"categories_nodes":[],"categories_segments":[],"categories_sizes":[],"default_left":[0,0,0,0,0,0,0,0,0,0,0,0,0,0,0,0,0,0,0,0,0,0,0,0,0,0,0,0,0,0,0,0,0,0,0,0,0,0,0,0,0,0,0,0,0,0,0,0,0,0,0,0,0,0,0,0,0],"id":29,"left_children":[1,3,5,7,9,11,13,15,17,19,21,23,25,27,29,31,33,35,37,-1,-1,39,41,43,45,47,49,-1,51,53,55,-1,-1,-1,-1,-1,-1,-1,-1,-1,-1,-1,-1,-1,-1,-1,-1,-1,-1,-1,-1,-1,-1,-1,-1,-1,-1],"loss_changes":[6.721192E0,1.3264601E1,1.00236635E1,1.1770632E1,9.4579315E-1,1.2729671E1,5.8222437E0,5.4430046E0,1.0319074E1,1.2308011E0,7.368679E-1,4.6527863E0,1.172934E1,1.2041018E1,6.1902566E0,2.046754E0,1.4172821E0,7.263913E0,2.8232799E0,0E0,0E0,1.0100555E0,1.989775E-1,1.1103076E1,3.3961563E0,1.4758329E0,4.8479652E0,0E0,7.339464E0,5.9030094E0,4.502657E0,0E0,0E0,0E0,0E0,0E0,0E0,0E0,0E0,0E0,0E0,0E0,0E0,0E0,0E0,0E0,0E0,0E0,0E0,0E0,0E0,0E0,0E0,0E0,0E0,0E0,0E0],"parents":[2147483647,0,0,1,1,2,2,3,3,4,4,5,5,6,6,7,7,8,8,9,9,10,10,11,11,12,12,13,13,14,14,15,15,16,16,17,17,18,18,21,21,22,22,23,23,24,24,25,25,26,26,28,28,29,29,30,30],"right_children":[2,4,6,8,10,12,14,16,18,20,22,24,26,28,30,32,34,36,38,-1,-1,40,42,44,46,48,50,-1,52,54,56,-1,-1,-1,-1,-1,-1,-1,-1,-1,-1,-1,-1,-1,-1,-1,-1,-1,-1,-1,-1,-1,-1,-1,-1,-1,-1],"split_conditions":[3.9138348E1,2.0715918E-1,3.0431032E0,-1.5041552E0,1.6487103E0,4.174642E0,4.1349293E1,1.69E2,3.2029392E1,6.6E1,5.2795153E0,3.931401E1,2.538963E0,3.10663E0,4.063271E0,1.4984912E0,-1.9517328E0,2.8735973E1,2.5029757E1,-8.175928E-2,2.4637446E-2,2.8122168E0,1.6033387E0,2.4385784E0,2.8567238E1,2.4358728E0,2.155588E0,1.02408305E-1,2.9323792E1,3.4796246E1,5.0413704E0,-1.5865328E-2,-1.4433771E-1,3.8432684E-2,-5.8180656E-2,-7.5469926E-2,7.571873E-2,-1.1028238E-1,1.0090099E-2,-1.4098243E-1,-2.4125036E-2,-1.4052012E-3,-5.6444626E-2,-1.07924715E-1,1.243391E-1,-4.8912983E-2,8.7244295E-2,-1.135783E-1,3.9038903E-4,-5.9586074E-2,8.802331E-2,4.2947836E-2,-1.2775837E-1,4.4220332E-2,-9.280916E-2,3.684891E-2,-1.2015896E-1],"split_indices":[3,5,7,5,7,1,3,4,6,4,7,3,5,1,5,7,5,6,2,0,0,5,5,7,6,7,7,0,0,6,1,0,0,0,0,0,0,0,0,0,0,0,0,0,0,0,0,0,0,0,0,0,0,0,0,0,0],"split_type":[0,0,0,0,0,0,0,0,0,0,0,0,0,0,0,0,0,0,0,0,0,0,0,0,0,0,0,0,0,0,0,0,0,0,0,0,0,0,0,0,0,0,0,0,0,0,0,0,0,0,0,0,0,0,0,0,0],"sum_hessian":[1.7688066E2,6.2939285E1,1.1394138E2,4.76988E1,1.5240487E1,6.269318E1,5.1248203E1,1.3371425E1,3.4327374E1,2.686797E0,1.255369E1,4.358056E1,1.9112621E1,1.8244495E1,3.3003708E1,8.539541E0,4.8318825E0,2.6979034E1,7.3483386E0,1.2886486E0,1.3981483E0,1.0367508E1,2.186182E0,6.4087563E0,3.71718E1,9.810973E0,9.301648E0,2.7838933E0,1.5460603E1,2.6131617E1,6.8720927E0,1.7952836E0,6.744258E0,3.5402594E0,1.2916234E0,2.8231754E0,2.4155859E1,4.598931E0,2.749408E0,9.0670395E0,1.3004687E0,1.0171888E0,1.1689932E0,3.8026626E0,2.606094E0,1.3160144E0,3.5855785E1,8.528674E0,1.2822996E0,2.2794461E0,7.022202E0,2.558476E0,1.2902126E1,2.3473776E1,2.6578393E0,2.1114447E0,4.7606483E0],"tree_param":{"num_deleted":"0","num_feature":"8","num_nodes":"57","size_leaf_vector":"1"}},{"base_weights":[-2.6300974E-2,1.3177488E-2,-8.992301E-2,-2.3116034E-2,9.243794E-1,8.2502216E-2,-4.1506907E-1,2.3136938E-2,1.0160243E-1,-2.3192161E-1,2.51317E-1,-7.1970737E-1,3.7329096E-1,-1.2703682E-1,-5.2922143E-4,6.7673646E-2,-9.792103E-3,-8.803089E-2,3.3177666E-2,9.5014624E-2,-9.263595E-2],"categories":[],"categories_nodes":[],"categories_segments":[],"categories_sizes":[],"default_left":[0,0,0,0,0,0,0,0,0,0,0,0,0,0,0,0,0,0,0,0,0],"id":30,"left_children":[1,3,-1,5,7,9,11,-1,-1,13,15,17,19,-1,-1,-1,-1,-1,-1,-1,-1],"loss_changes":[5.9328837E0,5.49012E0,0E0,6.6581044E0,1.6876793E-1,6.792821E0,8.465488E0,0E0,0E0,1.0546792E1,1.2402767E1,4.506877E0,8.505575E0,0E0,0E0,0E0,0E0,0E0,0E0,0E0,0E0],"parents":[2147483647,0,0,1,1,3,3,4,4,5,5,6,6,9,9,10,10,11,11,12,12],"right_children":[2,4,-1,6,8,10,12,-1,-1,14,16,18,20,-1,-1,-1,-1,-1,-1,-1,-1],"split_conditions":[6.2292733E0,6.2054625E0,-8.992301E-2,3.7946482E0,3.860235E0,2.0982985E0,3.4006866E1,2.3136938E-2,1.0160243E-1,2.0645906E1,3.2429985E1,5.342173E0,3.4796246E1,-1.2703682E-1,-5.2922143E-4,6.7673646E-2,-9.792103E-3,-8.803089E-2,3.3177666E-2,9.5014624E-2,-9.263595E-2],"split_indices":[7,7,0,7,1,7,6,0,0,2,6,7,6,0,0,0,0,0,0,0,0],"split_type":[0,0,0,0,0,0,0,0,0,0,0,0,0,0,0,0,0,0,0,0,0],"sum_hessian":[1.7081392E2,1.6436536E2,6.4485645E0,1.590067E2,5.3586664E0,1.25876656E2,3.313004E1,1.0375371E0,4.3211293E0,4.3843212E1,8.203344E1,2.3958914E1,9.171127E0,7.02916E0,3.6814053E1,3.6560284E1,4.5473156E1,2.0925577E1,3.033336E0,6.53809E0,2.6330369E0],"tree_param":{"num_deleted":"0","num_feature":"8","num_nodes":"21","size_leaf_vector":"1"}},{"base_weights":[-2.4562083E-2,-2.688758E-1,1.1204974E-1,-1.9928284E-2,-1.0001869E0,3.5468504E-1,-1.862015E-1,-7.120762E-1,2.650775E-1,-1.1641492E0,-4.2421922E-1,6.343433E-1,-2.8067523E-1,3.082894E-1,-3.8850287E-1,-1.1441278E0,8.428587E-2,5.30989E-1,-6.424502E-1,-1.2858114E-1,-3.1260718E-2,2.369139E-2,-7.44847E-1,-9.45462E-2,7.647748E-1,-1.234945E-1,2.4553075E-1,-1.0237767E-1,5.0643116E-1,-7.909028E-1,3.2812434E-1,-1.3476132E-1,-4.358943E-3,-5.6395788E-2,3.6470372E-2,-7.084932E-2,7.071596E-2,-1.044577E-1,1.0389574E-2,-9.486088E-2,-1.8621838E-2,-1.0111966E-1,1.1736166E-1,-4.9481716E-2,8.267419E-2,-5.8379073E-2,7.1777225E-2,-2.4804758E-2,8.546613E-2,-9.929135E-2,-9.406789E-3,8.154466E-2,-5.027013E-2],"categories":[],"categories_nodes":[],"categories_segments":[],"categories_sizes":[],"default_left":[0,0,0,0,0,0,0,0,0,0,0,0,0,0,0,0,0,0,0,0,0,0,0,0,0,0,0,0,0,0,0,0,0,0,0,0,0,0,0,0,0,0,0,0,0,0,0,0,0,0,0,0,0],"id":31,"left_children":[1,3,5,7,9,11,13,15,17,19,21,23,25,27,29,31,33,35,37,-1,-1,-1,39,41,43,-1,45,-1,47,49,51,-1,-1,-1,-1,-1,-1,-1,-1,-1,-1,-1,-1,-1,-1,-1,-1,-1,-1,-1,-1,-1,-1],"loss_changes":[5.66277E0,1.105242E1,7.9499764E0,9.340463E0,9.6283245E-1,1.0913296E1,5.074275E0,4.845488E0,8.447163E0,7.825756E-1,1.2345235E0,4.0898666E0,9.923668E0,4.460883E0,1.0522696E1,1.9604731E0,1.2574457E0,6.293194E0,2.5288334E0,0E0,0E0,0E0,2.3342323E-1,9.677633E0,3.2154675E0,0E0,5.582152E0,0E0,3.804019E0,3.156269E0,5.8778086E0,0E0,0E0,0E0,0E0,0E0,0E0,0E0,0E0,0E0,0E0,0E0,0E0,0E0,0E0,0E0,0E0,0E0,0E0,0E0,0E0,0E0,0E0],"parents":[2147483647,0,0,1,1,2,2,3,3,4,4,5,5,6,6,7,7,8,8,9,9,10,10,11,11,12,12,13,13,14,14,15,15,16,16,17,17,18,18,22,22,23,23,24,24,26,26,28,28,29,29,30,30],"right_children":[2,4,6,8,10,12,14,16,18,20,22,24,26,28,30,32,34,36,38,-1,-1,-1,40,42,44,-1,46,-1,48,50,52,-1,-1,-1,-1,-1,-1,-1,-1,-1,-1,-1,-1,-1,-1,-1,-1,-1,-1,-1,-1,-1,-1],"split_conditions":[3.9138348E1,2.0715918E-1,3.0431032E0,-1.5041552E0,1.37E2,4.174642E0,3.1493605E1,1.69E2,3.2029392E1,5.2795153E0,1.6487103E0,3.931401E1,1.9045129E0,2.8652025E1,2.5249342E1,3.1459389E1,-2.289799E0,2.8735973E1,2.5029757E1,-1.2858114E-1,-3.1260718E-2,2.369139E-2,2.2223809E0,2.4385784E0,2.8567238E1,-1.234945E-1,2.2223809E0,-1.0237767E-1,-3.5805205E-1,3.379601E1,4.2372654E1,-1.3476132E-1,-4.358943E-3,-5.6395788E-2,3.6470372E-2,-7.084932E-2,7.071596E-2,-1.044577E-1,1.0389574E-2,-9.486088E-2,-1.8621838E-2,-1.0111966E-1,1.1736166E-1,-4.9481716E-2,8.267419E-2,-5.8379073E-2,7.1777225E-2,-2.4804758E-2,8.546613E-2,-9.929135E-2,-9.406789E-3,8.154466E-2,-5.027013E-2],"split_indices":[3,5,7,5,4,1,0,4,6,7,7,3,7,0,2,0,5,6,2,0,0,0,5,7,6,0,5,0,5,6,0,0,0,0,0,0,0,0,0,0,0,0,0,0,0,0,0,0,0,0,0,0,0],"split_type":[0,0,0,0,0,0,0,0,0,0,0,0,0,0,0,0,0,0,0,0,0,0,0,0,0,0,0,0,0,0,0,0,0,0,0,0,0,0,0,0,0,0,0,0,0,0,0,0,0,0,0,0,0],"sum_hessian":[1.6776253E2,5.9817677E1,1.0794485E2,4.5392685E1,1.4424991E1,5.9417732E1,4.8527115E1,1.2802599E1,3.2590084E1,1.043362E1,3.9913707E0,4.1258926E1,1.8158806E1,1.3936886E1,3.459023E1,8.01663E0,4.785969E0,2.5525774E1,7.0643115E0,8.683066E0,1.7505538E0,1.3887885E0,2.6025822E0,6.3042192E0,3.495471E1,5.9754667E0,1.2183339E1,1.2650858E0,1.26718E1,2.2085278E1,1.2504952E1,6.576211E0,1.4404193E0,1.139846E0,3.646123E0,2.8005216E0,2.2725252E1,4.3311343E0,2.7331772E0,1.395475E0,1.2071073E0,3.776864E0,2.5273554E0,1.3114753E0,3.3643234E1,4.334734E0,7.848605E0,4.0925446E0,8.579255E0,1.6792332E1,5.292945E0,7.893511E0,4.6114416E0],"tree_param":{"num_deleted":"0","num_feature":"8","num_nodes":"53","size_leaf_vector":"1"}},{"base_weights":[-2.7011529E-2,9.971747E-3,-8.8169605E-2,-1.06367685E-1,3.8096037E-2,-8.751504E-1,7.117214E-2,-9.9677294E-2,-2.5796002E-2,9.985618E-2,-9.543336E-1,-7.4632876E-2,1.3406763E-2,-3.2505896E-2,-1.2979792E-1],"categories":[],"categories_nodes":[],"categories_segments":[],"categories_sizes":[],"default_left":[0,0,0,0,0,0,0,0,0,0,0,0,0,0,0],"id":32,"left_children":[1,3,-1,-1,5,7,9,-1,-1,11,13,-1,-1,-1,-1],"loss_changes":[5.153432E0,4.7811313E0,0E0,0E0,4.712735E0,1.5244293E-1,4.4928856E0,0E0,0E0,4.3363624E0,4.7821116E-1,0E0,0E0,0E0,0E0],"parents":[2147483647,0,0,1,1,4,4,5,5,6,6,9,9,10,10],"right_children":[2,4,-1,-1,6,8,10,-1,-1,12,14,-1,-1,-1,-1],"split_conditions":[6.2292733E0,2.8517273E1,-8.8169605E-2,-1.06367685E-1,2.6573946E0,2.6207945E0,1.0570892E1,-9.9677294E-2,-2.5796002E-2,2.6457323E1,3.267998E1,-7.4632876E-2,1.3406763E-2,-3.2505896E-2,-1.2979792E-1],"split_indices":[7,6,0,0,1,1,5,0,0,0,6,0,0,0,0],"split_type":[0,0,0,0,0,0,0,0,0,0,0,0,0,0,0],"sum_hessian":[1.6175853E2,1.5599669E2,5.7618403E0,3.0421364E0,1.5295454E2,4.456268E0,1.4849829E2,3.2089086E0,1.2473593E0,1.4533578E2,3.162506E0,4.8387613E0,1.4049701E2,1.8043467E0,1.3581594E0],"tree_param":{"num_deleted":"0","num_feature":"8","num_nodes":"15","size_leaf_vector":"1"}},{"base_weights":[-2.8085472E-2,4.8260456E-3,-9.535902E-2,-7.185745E-2,4.855777E-1,-1.4892641E-2,-6.637562E-1,6.635811E-1,-6.109001E-1,1.1107649E-1,-2.9741168E-1,-1.07875586E-1,1.3484724E-1,7.571643E-1,-4.538796E-2,1.3406265E-2,-1.0096786E-1,-1.3289139E-2,9.041773E-2,1.1795979E-2,-1.3508572E-1,9.873854E-2,-7.739798E-2,2.117084E-3,9.604623E-2],"categories":[],"categories_nodes":[],"categories_segments":[],"categories_sizes":[],"default_left":[0,0,0,0,0,0,0,0,0,0,0,0,0,0,0,0,0,0,0,0,0,0,0,0,0],"id":33,"left_children":[1,3,-1,5,7,9,11,13,15,17,19,-1,21,23,-1,-1,-1,-1,-1,-1,-1,-1,-1,-1,-1],"loss_changes":[4.925081E0,5.8223686E0,0E0,4.584552E0,4.645587E0,4.4931254E0,4.1025615E0,2.3483763E0,1.1914423E0,1.7032112E1,1.7189169E1,0E0,4.6164036E0,2.6824255E0,0E0,0E0,0E0,0E0,0E0,0E0,0E0,0E0,0E0,0E0,0E0],"parents":[2147483647,0,0,1,1,3,3,4,4,5,5,6,6,7,7,8,8,9,9,10,10,12,12,13,13],"right_children":[2,4,-1,6,8,10,12,14,16,18,20,-1,22,24,-1,-1,-1,-1,-1,-1,-1,-1,-1,-1,-1],"split_conditions":[3.4796246E1,2.5314917E1,-9.535902E-2,3.3426037E1,3.5735886E1,3.25641E0,4.3365906E1,4.24359E1,2.7774894E0,2.5249856E0,2.45422E1,-1.07875586E-1,4.4038784E1,4.420294E1,-4.538796E-2,1.3406265E-2,-1.0096786E-1,-1.3289139E-2,9.041773E-2,1.1795979E-2,-1.3508572E-1,9.873854E-2,-7.739798E-2,2.117084E-3,9.604623E-2],"split_indices":[6,2,0,6,2,7,3,0,7,7,2,0,3,3,0,0,0,0,0,0,0,0,0,0,0],"split_type":[0,0,0,0,0,0,0,0,0,0,0,0,0,0,0,0,0,0,0,0,0,0,0,0,0],"sum_hessian":[1.6054028E2,1.5598804E2,4.552245E0,1.3526309E2,2.0724947E1,1.2432327E2,1.0939811E1,1.8170013E1,2.5549328E0,8.6404305E1,3.7918972E1,6.968026E0,3.9717848E0,1.7063438E1,1.1065762E0,1.1222539E0,1.432679E0,6.671451E1,1.968979E1,2.7832642E1,1.0086331E1,2.0047557E0,1.9670291E0,3.9321454E0,1.3131292E1],"tree_param":{"num_deleted":"0","num_feature":"8","num_nodes":"25","size_leaf_vector":"1"}},{"base_weights":[-2.7426826E-2,-8.733098E-2,7.2834482E-3,-1.00878015E-1,3.336679E-2,2.155177E-1,-1.1687096E-1,4.5724982E-1,-2.7391076E-1,-4.5422593E-1,2.1233097E-1,8.420221E-3,1.0294967E-1,-7.511078E-2,4.8366625E-2,3.021963E-2,-7.419446E-2,8.788525E-2,-2.8381199E-3],"categories":[],"categories_nodes":[],"categories_segments":[],"categories_sizes":[],"default_left":[0,0,0,0,0,0,0,0,0,0,0,0,0,0,0,0,0,0,0],"id":34,"left_children":[1,-1,3,-1,5,7,9,11,13,15,17,-1,-1,-1,-1,-1,-1,-1,-1],"loss_changes":[4.669448E0,0E0,4.1031327E0,0E0,4.1485887E0,8.224368E0,9.338675E0,9.775534E0,8.771384E0,9.238631E0,6.8918266E0,0E0,0E0,0E0,0E0,0E0,0E0,0E0,0E0],"parents":[2147483647,0,0,2,2,4,4,5,5,6,6,7,7,8,8,9,9,10,10],"right_children":[2,-1,4,-1,6,8,10,12,14,16,18,-1,-1,-1,-1,-1,-1,-1,-1],"split_conditions":[-2.289799E0,-8.733098E-2,2.8517273E1,-1.00878015E-1,3.2061012E1,3.7946482E0,2.4983355E1,2.45422E1,5.342173E0,-1.0562094E0,3.191717E1,8.420221E-3,1.0294967E-1,-7.511078E-2,4.8366625E-2,3.021963E-2,-7.419446E-2,8.788525E-2,-2.8381199E-3],"split_indices":[5,0,6,0,6,7,2,2,7,5,0,0,0,0,0,0,0,0,0],"split_type":[0,0,0,0,0,0,0,0,0,0,0,0,0,0,0,0,0,0,0],"sum_hessian":[1.5781999E2,5.268466E0,1.5255153E2,2.875177E0,1.4967636E2,6.745644E1,8.221991E1,4.5198395E1,2.2258055E1,4.0419548E1,4.1800358E1,2.80559E1,1.7142492E1,1.3661333E1,8.596721E0,1.11239605E1,2.9295588E1,1.0387306E1,3.1413052E1],"tree_param":{"num_deleted":"0","num_feature":"8","num_nodes":"19","size_leaf_vector":"1"}},{"base_weights":[-2.5385879E-2,-2.5013018E-1,1.0264835E-1,-1.7846324E-2,-9.3214256E-1,6.5887254E-1,-1.1872615E-2,-6.6653347E-1,2.4380869E-1,-2.4589226E-1,-1.0499609E0,9.279421E-1,-5.814777E-1,2.511157E-1,-3.7262183E-1,-1.0838168E0,8.49616E-2,7.03761E-1,-2.095537E-1,-6.970381E-2,2.562044E-2,-1.1431799E0,-3.3552002E-2,1.1021224E0,6.6992655E-2,1.290364E-2,-9.427201E-2,3.8149413E-1,-9.615617E-2,-1.1751065E0,1.2687863E-1,-6.298358E-3,-1.3225774E-1,3.9694842E-2,-5.3313892E-2,9.100115E-2,-1.5137932E-2,6.078878E-3,-1.0704851E-1,-1.253706E-1,-1.8185927E-2,1.473092E-2,1.18368566E-1,-7.479359E-2,7.0530355E-2,-4.371068E-3,7.272158E-2,-4.1957937E-2,-1.2881422E-1,5.5189587E-2,-3.360781E-2],"categories":[],"categories_nodes":[],"categories_segments":[],"categories_sizes":[],"default_left":[0,0,0,0,0,0,0,0,0,0,0,0,0,0,0,0,0,0,0,0,0,0,0,0,0,0,0,0,0,0,0,0,0,0,0,0,0,0,0,0,0,0,0,0,0,0,0,0,0,0,0],"id":35,"left_children":[1,3,5,7,9,11,13,15,17,19,21,23,25,27,29,31,33,35,37,-1,-1,39,-1,41,43,-1,-1,45,-1,47,49,-1,-1,-1,-1,-1,-1,-1,-1,-1,-1,-1,-1,-1,-1,-1,-1,-1,-1,-1,-1],"loss_changes":[4.5088525E0,8.987362E0,6.3755407E0,7.5315957E0,9.077301E-1,6.241686E0,8.051483E0,4.0892587E0,6.7513223E0,9.529969E-1,4.1572475E-1,2.0893488E0,1.0611584E0,8.131574E0,1.4486824E1,1.9320135E0,1.2680371E0,2.950882E0,3.9564688E0,0E0,0E0,8.558426E-1,0E0,7.5494957E-1,2.3439853E0,0E0,0E0,6.6555996E0,0E0,6.3978004E-1,4.701029E0,0E0,0E0,0E0,0E0,0E0,0E0,0E0,0E0,0E0,0E0,0E0,0E0,0E0,0E0,0E0,0E0,0E0,0E0,0E0,0E0],"parents":[2147483647,0,0,1,1,2,2,3,3,4,4,5,5,6,6,7,7,8,8,9,9,10,10,11,11,12,12,13,13,14,14,15,15,16,16,17,17,18,18,21,21,23,23,24,24,27,27,29,29,30,30],"right_children":[2,4,6,8,10,12,14,16,18,20,22,24,26,28,30,32,34,36,38,-1,-1,40,-1,42,44,-1,-1,46,-1,48,50,-1,-1,-1,-1,-1,-1,-1,-1,-1,-1,-1,-1,-1,-1,-1,-1,-1,-1,-1,-1],"split_conditions":[3.9138348E1,2.0715918E-1,3.444137E0,-1.5041552E0,1.6487103E0,3.5735886E1,3.2587807E1,1.69E2,3.4528725E1,6.6E1,5.2795153E0,3.6176968E0,2.7774894E0,4.7569084E1,4.3365906E1,1.4984912E0,-1.9517328E0,2.9410809E1,6.6E1,-6.970381E-2,2.562044E-2,2.8122168E0,-3.3552002E-2,3.2138752E1,3.390944E1,1.290364E-2,-9.427201E-2,3.2231636E1,-9.615617E-2,-1.251059E0,8.986953E-1,-6.298358E-3,-1.3225774E-1,3.9694842E-2,-5.3313892E-2,9.100115E-2,-1.5137932E-2,6.078878E-3,-1.0704851E-1,-1.253706E-1,-1.8185927E-2,1.473092E-2,1.18368566E-1,-7.479359E-2,7.0530355E-2,-4.371068E-3,7.272158E-2,-4.1957937E-2,-1.2881422E-1,5.5189587E-2,-3.360781E-2],"split_indices":[3,5,1,5,7,2,6,4,3,4,7,7,7,3,3,7,5,6,4,0,0,5,0,6,6,0,0,0,0,5,5,0,0,0,0,0,0,0,0,0,0,0,0,0,0,0,0,0,0,0,0],"split_type":[0,0,0,0,0,0,0,0,0,0,0,0,0,0,0,0,0,0,0,0,0,0,0,0,0,0,0,0,0,0,0,0,0,0,0,0,0,0,0,0,0,0,0,0,0,0,0,0,0,0,0],"sum_hessian":[1.5480132E2,5.5836082E1,9.896523E1,4.2415966E1,1.3420116E1,1.6085457E1,8.2879776E1,1.1746651E1,3.0669315E1,2.4187562E0,1.100136E1,1.3425032E1,2.6604247E0,4.8110695E1,3.476908E1,7.2684684E0,4.4781823E0,1.4949847E1,1.5719468E1,1.069516E0,1.3492403E0,9.200757E0,1.8006032E0,1.0933025E1,2.4920056E0,1.1133727E0,1.547052E0,4.4059177E1,4.0515165E0,1.2820089E1,2.1948992E1,1.6173222E0,5.651146E0,3.2138047E0,1.2643776E0,1.1993081E1,2.9567666E0,1.2670254E1,3.049215E0,7.9792123E0,1.2215445E0,1.0812737E0,9.851752E0,1.0191364E0,1.4728692E0,2.015007E1,2.390911E1,2.2816346E0,1.0538454E1,1.1343231E1,1.060576E1],"tree_param":{"num_deleted":"0","num_feature":"8","num_nodes":"51","size_leaf_vector":"1"}},{"base_weights":[-2.702881E-2,3.5443944E-3,-9.3158916E-2,-2.2594698E-1,1.355272E-1,-2.7806421E-3,-8.879835E-1,-9.025415E-2,1.9134417E-1,-6.1991745E-1,2.4464059E-1,-1.0541044E0,-3.550356E-1,-6.99935E-1,2.517161E-1,-1.0337829E-1,8.787801E-3,6.728987E-2,-1.7203659E-2,-1.1686899E-1,-2.0919496E-2,2.4175582E-2,-6.614241E-2,-1.335278E-1,3.9531875E-2,6.803819E-2,1.2000671E-2],"categories":[],"categories_nodes":[],"categories_segments":[],"categories_sizes":[],"default_left":[0,0,0,0,0,0,0,0,0,0,0,0,0,0,0,0,0,0,0,0,0,0,0,0,0,0,0],"id":36,"left_children":[1,3,-1,5,7,9,11,-1,13,15,17,19,21,23,25,-1,-1,-1,-1,-1,-1,-1,-1,-1,-1,-1,-1],"loss_changes":[4.195921E0,4.50255E0,0E0,8.017485E0,5.640074E0,6.503789E0,8.370695E-1,0E0,5.0388346E0,3.6612086E0,5.5427113E0,7.1618366E-1,1.0301105E0,4.7012916E0,4.7384224E0,0E0,0E0,0E0,0E0,0E0,0E0,0E0,0E0,0E0,0E0,0E0,0E0],"parents":[2147483647,0,0,1,1,3,3,4,4,5,5,6,6,8,8,9,9,10,10,11,11,12,12,13,13,14,14],"right_children":[2,4,-1,6,8,10,12,-1,14,16,18,20,22,24,26,-1,-1,-1,-1,-1,-1,-1,-1,-1,-1,-1,-1],"split_conditions":[3.4796246E1,3.9138348E1,-9.3158916E-2,2.0715918E-1,2.0506954E1,-1.5041552E0,1.37E2,-9.025415E-2,1.4708954E0,1.69E2,3.4528725E1,5.2795153E0,1.6487103E0,4.420294E1,3.0751263E1,-1.0337829E-1,8.787801E-3,6.728987E-2,-1.7203659E-2,-1.1686899E-1,-2.0919496E-2,2.4175582E-2,-6.614241E-2,-1.335278E-1,3.9531875E-2,6.803819E-2,1.2000671E-2],"split_indices":[6,3,0,5,2,5,4,0,7,4,3,7,7,3,6,0,0,0,0,0,0,0,0,0,0,0,0],"split_type":[0,0,0,0,0,0,0,0,0,0,0,0,0,0,0,0,0,0,0,0,0,0,0,0,0,0,0],"sum_hessian":[1.5060269E2,1.4664241E2,3.9602804E0,5.3282677E1,9.335973E1,4.0600746E1,1.2681932E1,3.989753E0,8.936998E1,1.1188364E1,2.941238E1,8.922801E0,3.7591314E0,4.997499E0,8.437248E1,6.769502E0,4.418862E0,1.420138E1,1.5211001E1,7.519768E0,1.4030328E0,1.3467829E0,2.4123483E0,3.024104E0,1.9733948E0,1.8851614E1,6.552087E1],"tree_param":{"num_deleted":"0","num_feature":"8","num_nodes":"27","size_leaf_vector":"1"}},{"base_weights":[-2.781447E-2,3.4740074E-3,-8.4266044E-2,-2.9434772E-2,8.285216E-1,5.1930945E-2,-3.4560058E-1,2.57215E-2,9.190149E-2,-2.1022004E-1,1.9782233E-1,-6.067362E-1,3.4787172E-1,1.9016173E-3,-1.05412185E-1,5.5337977E-2,-7.5519583E-3,-7.456062E-2,2.8161997E-2,8.786133E-2,-8.572844E-2],"categories":[],"categories_nodes":[],"categories_segments":[],"categories_sizes":[],"default_left":[0,0,0,0,0,0,0,0,0,0,0,0,0,0,0,0,0,0,0,0,0],"id":37,"left_children":[1,3,-1,5,7,9,11,-1,-1,13,15,17,19,-1,-1,-1,-1,-1,-1,-1,-1],"loss_changes":[3.7945573E0,3.9400244E0,0E0,3.6104357E0,5.1374435E-2,4.3226304E0,5.410841E0,0E0,0E0,7.8560987E0,7.0811152E0,2.828226E0,6.1838427E0,0E0,0E0,0E0,0E0,0E0,0E0,0E0,0E0],"parents":[2147483647,0,0,1,1,3,3,4,4,5,5,6,6,9,9,10,10,11,11,12,12],"right_children":[2,4,-1,6,8,10,12,-1,-1,14,16,18,20,-1,-1,-1,-1,-1,-1,-1,-1],"split_conditions":[6.2292733E0,6.2054625E0,-8.4266044E-2,3.819319E0,3.8886168E0,2.0982985E0,3.4006866E1,2.57215E-2,9.190149E-2,4.150906E0,3.2429985E1,5.342173E0,3.4796246E1,1.9016173E-3,-1.05412185E-1,5.5337977E-2,-7.5519583E-3,-7.456062E-2,2.8161997E-2,8.786133E-2,-8.572844E-2],"split_indices":[7,7,0,7,1,7,6,0,0,1,6,7,6,0,0,0,0,0,0,0,0],"split_type":[0,0,0,0,0,0,0,0,0,0,0,0,0,0,0,0,0,0,0,0,0],"sum_hessian":[1.4771884E2,1.432154E2,4.503452E0,1.386494E2,4.5660024E0,1.10935684E2,2.7713709E1,1.1497443E0,3.4162583E0,3.950627E1,7.142941E1,2.0223408E1,7.4903007E0,3.1835886E1,7.670385E0,3.0600468E1,4.0828945E1,1.7628386E1,2.5950227E0,5.3882923E0,2.1020083E0],"tree_param":{"num_deleted":"0","num_feature":"8","num_nodes":"21","size_leaf_vector":"1"}},{"base_weights":[-2.6002754E-2,-8.37826E-1,5.663899E-3,-9.412239E-2,-2.8263388E-2,-5.8415556E-1,5.135111E-2,4.5731824E-2,-9.591916E-2,8.195503E-2,-8.876284E-2,6.2202718E-2,-7.381155E-2,1.111624E-1,-8.9358795E-1,3.9701094E-3,5.360008E-2,-2.4410581E-2,-1.20411634E-1],"categories":[],"categories_nodes":[],"categories_segments":[],"categories_sizes":[],"default_left":[0,0,0,0,0,0,0,0,0,0,0,0,0,0,0,0,0,0,0],"id":38,"left_children":[1,3,5,-1,-1,7,9,11,-1,13,-1,-1,-1,15,17,-1,-1,-1,-1],"loss_changes":[3.7620976E0,4.9352646E-2,3.8474128E0,0E0,0E0,2.4687915E0,3.8773847E0,2.6208284E0,0E0,3.77876E0,0E0,0E0,0E0,3.8122048E0,4.8546553E-1,0E0,0E0,0E0,0E0],"parents":[2147483647,0,0,1,1,2,2,5,5,6,6,7,7,9,9,13,13,14,14],"right_children":[2,4,6,-1,-1,8,10,12,-1,14,-1,-1,-1,16,18,-1,-1,-1,-1],"split_conditions":[2.6573946E0,2.503873E1,2.0352928E1,-9.412239E-2,-2.8263388E-2,2.8966784E1,3.4796246E1,3.446121E1,-9.591916E-2,1.0570892E1,-8.876284E-2,6.2202718E-2,-7.381155E-2,2.5314917E1,3.267998E1,3.9701094E-3,5.360008E-2,-2.4410581E-2,-1.20411634E-1],"split_indices":[1,2,2,0,0,6,6,3,0,5,0,0,0,2,6,0,0,0,0],"split_type":[0,0,0,0,0,0,0,0,0,0,0,0,0,0,0,0,0,0,0],"sum_hessian":[1.4515656E2,4.4937854E0,1.4066277E2,3.2021174E0,1.2916678E0,9.265082E0,1.3139767E2,3.7854073E0,5.479675E0,1.2813416E2,3.2635243E0,2.3004951E0,1.4849123E0,1.25269684E2,2.8644748E0,1.0816833E2,1.7101355E1,1.5042907E0,1.3601841E0],"tree_param":{"num_deleted":"0","num_feature":"8","num_nodes":"19","size_leaf_vector":"1"}},{"base_weights":[-2.6605623E-2,-8.337675E-2,3.260067E-3,-9.836256E-2,2.927053E-2,5.4882612E-2,-8.6147374E-1,-7.737045E-1,8.407236E-2,-2.5615623E-2,-1.161162E-1,-2.9556995E-2,-9.845632E-2,3.1091794E-2,-3.4715962E-3],"categories":[],"categories_nodes":[],"categories_segments":[],"categories_sizes":[],"default_left":[0,0,0,0,0,0,0,0,0,0,0,0,0,0,0],"id":39,"left_children":[1,-1,3,-1,5,7,9,11,13,-1,-1,-1,-1,-1,-1],"loss_changes":[3.4883223E0,0E0,3.633517E0,0E0,3.19089E0,3.327359E0,4.120834E-1,1.8163276E-1,3.5460515E0,0E0,0E0,0E0,0E0,0E0,0E0],"parents":[2147483647,0,0,2,2,4,4,5,5,6,6,7,7,8,8],"right_children":[2,-1,4,-1,6,8,10,12,14,-1,-1,-1,-1,-1,-1],"split_conditions":[-2.289799E0,-8.337675E-2,2.8517273E1,-9.836256E-2,1.0570892E1,2.6573946E0,3.267998E1,3.249243E1,3.444137E0,-2.5615623E-2,-1.161162E-1,-2.9556995E-2,-9.845632E-2,3.1091794E-2,-3.4715962E-3],"split_indices":[5,0,6,0,5,1,6,6,1,0,0,0,0,0,0],"split_type":[0,0,0,0,0,0,0,0,0,0,0,0,0,0,0],"sum_hessian":[1.4359221E2,4.1630397E0,1.3942917E2,2.635021E0,1.3679416E2,1.3388292E2,2.9112267E0,3.6880147E0,1.3019492E2,1.5782278E0,1.3329991E0,1.863703E0,1.8243117E0,4.4189835E1,8.600507E1],"tree_param":{"num_deleted":"0","num_feature":"8","num_nodes":"15","size_leaf_vector":"1"}},{"base_weights":[-2.7180338E-2,-2.3222332E-1,8.705593E-2,-2.5563482E-2,-8.468477E-1,5.934473E-1,-1.7367821E-2,-5.8158153E-1,1.975314E-1,-1.9729288E-1,-9.637972E-1,8.5950804E-1,-5.427208E-1,-7.8181094E-1,8.9627236E-2,-9.792838E-1,8.726613E-2,4.1772732E-1,-6.5269345E-1,1.0412728E-2,-4.1735325E-2,-1.052966E0,-2.545827E-2,1.0346025E0,-8.865501E-3,1.2380599E-2,-8.778988E-2,5.2549805E-2,-1.0643238E0,4.161184E-1,-1.5921862E-1,3.0025037E-3,-1.2459184E-1,3.851216E-2,-4.9308095E-2,5.3583242E-2,-4.967347E-2,-9.745721E-2,-4.1364804E-3,-1.1627191E-1,-1.1533268E-2,1.710449E-2,1.1167254E-1,-5.1082253E-2,5.039524E-2,-1.375178E-1,4.2502444E-2,8.433492E-2,-4.9512252E-2,-1.1367247E-1,1.8437117E-3],"categories":[],"categories_nodes":[],"categories_segments":[],"categories_sizes":[],"default_left":[0,0,0,0,0,0,0,0,0,0,0,0,0,0,0,0,0,0,0,0,0,0,0,0,0,0,0,0,0,0,0,0,0,0,0,0,0,0,0,0,0,0,0,0,0,0,0,0,0,0,0],"id":40,"left_children":[1,3,5,7,9,11,13,15,17,19,21,23,25,27,29,31,33,35,37,-1,-1,39,-1,41,43,-1,-1,-1,45,47,49,-1,-1,-1,-1,-1,-1,-1,-1,-1,-1,-1,-1,-1,-1,-1,-1,-1,-1,-1,-1],"loss_changes":[3.3845773E0,6.540575E0,4.92645E0,5.0387945E0,7.950411E-1,5.279606E0,6.453655E0,3.1763747E0,5.71591E0,2.581131E-1,4.10676E-1,2.0296087E0,9.2055833E-1,4.1364384E0,5.7015934E0,2.0204778E0,1.0975953E0,2.826213E0,1.213372E0,0E0,0E0,8.14229E-1,0E0,5.9383106E-1,1.0866256E0,0E0,0E0,0E0,4.424759E0,1.2204739E1,6.9819927E0,0E0,0E0,0E0,0E0,0E0,0E0,0E0,0E0,0E0,0E0,0E0,0E0,0E0,0E0,0E0,0E0,0E0,0E0,0E0,0E0],"parents":[2147483647,0,0,1,1,2,2,3,3,4,4,5,5,6,6,7,7,8,8,9,9,10,10,11,11,12,12,13,13,14,14,15,15,16,16,17,17,18,18,21,21,23,23,24,24,28,28,29,29,30,30],"right_children":[2,4,6,8,10,12,14,16,18,20,22,24,26,28,30,32,34,36,38,-1,-1,40,-1,42,44,-1,-1,-1,46,48,50,-1,-1,-1,-1,-1,-1,-1,-1,-1,-1,-1,-1,-1,-1,-1,-1,-1,-1,-1,-1],"split_conditions":[3.9138348E1,2.0715918E-1,3.444137E0,-1.5041552E0,1.6487103E0,3.5735886E1,3.9540306E1,1.69E2,3.757532E1,3.1377748E1,2.8122168E0,3.6176968E0,2.7774894E0,3.072911E1,4.174642E0,1.4984912E0,-1.9517328E0,6.6E1,2.4135132E0,1.0412728E-2,-4.1735325E-2,4.174642E0,-2.545827E-2,3.2243084E1,3.835649E0,1.2380599E-2,-8.778988E-2,5.2549805E-2,1.5192116E0,2.4358728E0,1.9045129E0,3.0025037E-3,-1.2459184E-1,3.851216E-2,-4.9308095E-2,5.3583242E-2,-4.967347E-2,-9.745721E-2,-4.1364804E-3,-1.1627191E-1,-1.1533268E-2,1.710449E-2,1.1167254E-1,-5.1082253E-2,5.039524E-2,-1.375178E-1,4.2502444E-2,8.433492E-2,-4.9512252E-2,-1.1367247E-1,1.8437117E-3],"split_indices":[3,5,1,5,7,2,3,4,3,0,5,7,7,6,1,7,5,4,7,0,0,1,0,6,7,0,0,0,5,7,7,0,0,0,0,0,0,0,0,0,0,0,0,0,0,0,0,0,0,0,0],"split_type":[0,0,0,0,0,0,0,0,0,0,0,0,0,0,0,0,0,0,0,0,0,0,0,0,0,0,0,0,0,0,0,0,0,0,0,0,0,0,0,0,0,0,0,0,0,0,0,0,0,0,0],"sum_hessian":[1.4263281E2,5.0663654E1,9.1969154E1,3.869465E1,1.1969004E1,1.4922257E1,7.70469E1,1.0619887E1,2.8074762E1,2.2361405E0,9.732863E0,1.228819E1,2.634068E0,8.685437E0,6.8361465E1,6.3688073E0,4.2510805E0,2.2703556E1,5.371206E0,1.1659477E0,1.0701928E0,8.215273E0,1.5175903E0,1.0066919E1,2.22127E0,1.0923913E0,1.5416768E0,1.3905727E0,7.294864E0,2.927709E1,3.9084373E1,1.5163321E0,4.852475E0,3.0315645E0,1.2195159E0,2.047341E1,2.2301462E0,3.1293464E0,2.2418594E0,7.139511E0,1.0757619E0,1.1419207E0,8.924999E0,1.1244881E0,1.0967818E0,6.0986276E0,1.196237E0,1.9982773E1,9.294317E0,5.1806545E0,3.3903717E1],"tree_param":{"num_deleted":"0","num_feature":"8","num_nodes":"51","size_leaf_vector":"1"}},{"base_weights":[-2.8409483E-2,-9.635657E-2,-3.8318806E-3,2.4911586E-2,-8.10749E-2,-6.3815513E-3,7.8935117E-1,4.3019023E-2,-5.389591E-1,2.1992818E-2,8.876013E-2,-5.516856E-4,7.266188E-2,-9.3827E-2,6.1948074E-4],"categories":[],"categories_nodes":[],"categories_segments":[],"categories_sizes":[],"default_left":[0,0,0,0,0,0,0,0,0,0,0,0,0,0,0],"id":41,"left_children":[1,-1,3,5,-1,7,9,11,13,-1,-1,-1,-1,-1,-1],"loss_changes":[3.2183359E0,0E0,3.211643E0,3.2066617E0,0E0,3.4320266E0,9.9701405E-2,3.9687223E0,2.4160328E0,0E0,0E0,0E0,0E0,0E0,0E0],"parents":[2147483647,0,0,2,2,3,3,5,5,6,6,7,7,8,8],"right_children":[2,-1,4,6,-1,8,10,12,14,-1,-1,-1,-1,-1,-1],"split_conditions":[2.8517273E1,-9.635657E-2,6.2292733E0,6.2054625E0,-8.10749E-2,5.1367598E0,3.8886168E0,3.3707493E1,5.2795153E0,2.1992818E-2,8.876013E-2,-5.516856E-4,7.266188E-2,-9.3827E-2,6.1948074E-4],"split_indices":[6,0,7,7,0,7,1,6,7,0,0,0,0,0,0],"split_type":[0,0,0,0,0,0,0,0,0,0,0,0,0,0,0],"sum_hessian":[1.3918633E2,2.5860066E0,1.3660033E2,1.328376E2,3.7627254E0,1.2856625E2,4.2713428E0,1.1849425E2,1.0072008E1,1.1050897E0,3.166253E0,1.1156501E2,6.9292345E0,5.397425E0,4.6745825E0],"tree_param":{"num_deleted":"0","num_feature":"8","num_nodes":"15","size_leaf_vector":"1"}},{"base_weights":[-2.64649E-2,-5.682097E-1,1.2725752E-2,-2.5203409E-2,-9.608655E-2,2.119128E-1,-1.2922172E-1,-7.790853E-2,5.5899527E-2,3.2298544E-1,-9.636484E-1,-4.601593E-1,1.18793875E-1,1.3388401E-1,1.05933346E-1,-3.346858E-2,-1.0824571E-1,-8.841809E-1,1.0080152E-1,-4.3329403E-1,2.713647E-1,-4.1453753E-2,3.4595214E-2,-1.24025075E-2,-1.2628488E-1,7.128337E-2,-9.845546E-2,2.0206684E-2,-1.2520395E-1,6.751969E-2,-1.3083028E-2],"categories":[],"categories_nodes":[],"categories_segments":[],"categories_sizes":[],"default_left":[0,0,0,0,0,0,0,0,0,0,0,0,0,0,0,0,0,0,0,0,0,0,0,0,0,0,0,0,0,0,0],"id":42,"left_children":[1,3,5,7,-1,9,11,-1,-1,13,15,17,19,21,-1,-1,-1,23,25,27,29,-1,-1,-1,-1,-1,-1,-1,-1,-1,-1],"loss_changes":[2.9605467E0,1.9812553E0,3.7226918E0,2.6262124E0,0E0,7.46165E0,6.369228E0,0E0,0E0,6.929475E0,9.742737E-3,7.9771776E0,3.8887823E0,4.9759316E0,0E0,0E0,0E0,5.309272E0,1.07813225E1,5.4960127E0,5.88548E0,0E0,0E0,0E0,0E0,0E0,0E0,0E0,0E0,0E0,0E0],"parents":[2147483647,0,0,1,1,2,2,3,3,5,5,6,6,9,9,10,10,11,11,12,12,13,13,17,17,18,18,19,19,20,20],"right_children":[2,4,6,8,-1,10,12,-1,-1,14,16,18,20,22,-1,-1,-1,24,26,28,30,-1,-1,-1,-1,-1,-1,-1,-1,-1,-1],"split_conditions":[2.0352928E1,2.902053E1,3.2061012E1,2.0982985E0,-9.608655E-2,4.271909E1,2.4961302E1,-7.790853E-2,5.5899527E-2,3.228643E1,5.0413704E0,3.2834972E1,1.7979126E0,2.9046507E1,1.05933346E-1,-3.346858E-2,-1.0824571E-1,-1.1322699E0,3.3423523E1,3.249243E1,3.0961208E0,-4.1453753E-2,3.4595214E-2,-1.24025075E-2,-1.2628488E-1,7.128337E-2,-9.845546E-2,2.0206684E-2,-1.2520395E-1,6.751969E-2,-1.3083028E-2],"split_indices":[2,6,6,7,0,3,2,0,0,0,1,0,7,6,0,0,0,5,0,6,7,0,0,0,0,0,0,0,0,0,0],"split_type":[0,0,0,0,0,0,0,0,0,0,0,0,0,0,0,0,0,0,0,0,0,0,0,0,0,0,0,0,0,0,0],"sum_hessian":[1.3810176E2,8.405889E0,1.2969588E2,3.9741695E0,4.4317193E0,5.376189E1,7.593398E1,1.5894544E0,2.384715E0,4.978337E1,3.9785202E0,3.216265E1,4.3771336E1,4.0551235E1,9.232135E0,1.238584E0,2.7399364E0,1.7988918E1,1.4173734E1,9.07887E0,3.4692463E1,1.1041774E1,2.9509462E1,6.422872E0,1.1566046E1,9.282538E0,4.8911963E0,5.5360203E0,3.5428493E0,1.6972298E1,1.7720167E1],"tree_param":{"num_deleted":"0","num_feature":"8","num_nodes":"31","size_leaf_vector":"1"}},{"base_weights":[-2.7188372E-2,-8.040774E-2,-3.2112916E-4,-8.979003E-2,2.3375219E-2,4.7842115E-2,-8.3842194E-1,-1.07852675E-1,1.8543169E-1,-2.2784382E-2,-1.12590365E-1,1.2490444E-2,-5.4487396E-2,4.8586745E-2,-9.444795E-3],"categories":[],"categories_nodes":[],"categories_segments":[],"categories_sizes":[],"default_left":[0,0,0,0,0,0,0,0,0,0,0,0,0,0,0],"id":43,"left_children":[1,-1,3,-1,5,7,9,11,13,-1,-1,-1,-1,-1,-1],"loss_changes":[2.8377917E0,0E0,2.8375556E0,0E0,2.781064E0,2.7480805E0,3.8286424E-1,6.2095194E0,5.761489E0,0E0,0E0,0E0,0E0,0E0,0E0],"parents":[2147483647,0,0,2,2,4,4,5,5,6,6,7,7,8,8],"right_children":[2,-1,4,-1,6,8,10,12,14,-1,-1,-1,-1,-1,-1],"split_conditions":[-2.289799E0,-8.040774E-2,2.8517273E1,-8.979003E-2,1.0570892E1,3.9540306E1,3.267998E1,3.444137E0,4.174642E0,-2.2784382E-2,-1.12590365E-1,1.2490444E-2,-5.4487396E-2,4.8586745E-2,-9.444795E-3],"split_indices":[5,0,6,0,5,3,6,1,1,0,0,0,0,0,0],"split_type":[0,0,0,0,0,0,0,0,0,0,0,0,0,0,0],"sum_hessian":[1.3496838E2,3.5446298E0,1.3142375E2,2.4314759E0,1.2899228E2,1.2634963E2,2.64265E0,5.9376263E1,6.6973366E1,1.4197707E0,1.2228792E0,3.9208202E1,2.016806E1,3.194555E1,3.5027817E1],"tree_param":{"num_deleted":"0","num_feature":"8","num_nodes":"15","size_leaf_vector":"1"}},{"base_weights":[-2.7030544E-2,-2.3799716E-3,-8.6212516E-2,-4.0962692E-2,6.75153E-1,3.7035435E-3,-5.6428987E-1,9.654303E-2,-3.217652E-2,-4.8029372E-1,5.7391994E-2,-8.8914824E-1,4.927289E-2,-9.546454E-3,-1.1976638E-1,-5.681485E-2,1.1691029E-2,-1.0712504E-1,7.873744E-3],"categories":[],"categories_nodes":[],"categories_segments":[],"categories_sizes":[],"default_left":[0,0,0,0,0,0,0,0,0,0,0,0,0,0,0,0,0,0,0],"id":44,"left_children":[1,3,-1,5,7,9,11,-1,-1,13,15,17,-1,-1,-1,-1,-1,-1,-1],"loss_changes":[2.7671638E0,3.4695976E0,0E0,2.9360518E0,2.380069E0,3.0584579E0,3.8296852E0,0E0,0E0,3.1303504E0,4.0086927E0,1.4788032E0,0E0,0E0,0E0,0E0,0E0,0E0,0E0],"parents":[2147483647,0,0,1,1,3,3,4,4,5,5,6,6,9,9,10,10,11,11],"right_children":[2,4,-1,6,8,10,12,-1,-1,14,16,18,-1,-1,-1,-1,-1,-1,-1],"split_conditions":[3.4796246E1,3.390944E1,-8.6212516E-2,3.3426037E1,5.342173E0,2.7407965E1,4.706379E1,9.654303E-2,-3.217652E-2,-9.1461426E-1,1.4620706E0,3.379601E1,4.927289E-2,-9.546454E-3,-1.1976638E-1,-5.681485E-2,1.1691029E-2,-1.0712504E-1,7.873744E-3],"split_indices":[6,6,0,6,7,0,3,0,0,5,7,6,0,0,0,0,0,0,0],"split_type":[0,0,0,0,0,0,0,0,0,0,0,0,0,0,0,0,0,0,0],"sum_hessian":[1.3352223E2,1.3066798E2,2.8542466E0,1.2451681E2,6.1511793E0,1.1563982E2,8.876993E0,4.7884808E0,1.3626987E0,1.075334E1,1.04886475E2,6.9116263E0,1.9653667E0,7.7363133E0,3.0170267E0,8.370135E0,9.651634E1,5.727278E0,1.1843482E0],"tree_param":{"num_deleted":"0","num_feature":"8","num_nodes":"19","size_leaf_vector":"1"}},{"base_weights":[-2.659521E-2,-8.66515E-2,-2.8646823E-3,-5.279878E-1,3.44447E-2,-1.02132205E-2,-9.2641905E-2,2.3384233E-1,-1.1063131E-1,-7.34952E-2,5.5238564E-2,3.4531376E-1,-9.3152456E-2,-4.2751056E-1,1.2037749E-1,1.7500373E-2,1.0345606E-1,3.1099668E-2,-7.1927555E-2,2.1094278E-2,-7.003677E-2],"categories":[],"categories_nodes":[],"categories_segments":[],"categories_sizes":[],"default_left":[0,0,0,0,0,0,0,0,0,0,0,0,0,0,0,0,0,0,0,0,0],"id":45,"left_children":[1,-1,3,5,7,9,-1,11,13,-1,-1,15,-1,17,19,-1,-1,-1,-1,-1,-1],"loss_changes":[2.6511154E0,0E0,2.5745428E0,1.7887712E0,3.577129E0,2.3638432E0,0E0,7.079727E0,5.3029475E0,0E0,0E0,5.4782085E0,0E0,6.788583E0,3.2898607E0,0E0,0E0,0E0,0E0,0E0,0E0],"parents":[2147483647,0,0,2,2,3,3,4,4,5,5,7,7,8,8,11,11,13,13,14,14],"right_children":[2,-1,4,6,8,10,-1,12,14,-1,-1,16,-1,18,20,-1,-1,-1,-1,-1,-1],"split_conditions":[2.6207945E0,-8.66515E-2,2.0352928E1,2.902053E1,3.2061012E1,2.0982985E0,-9.2641905E-2,4.271909E1,2.4961302E1,-7.34952E-2,5.5238564E-2,3.228643E1,-9.3152456E-2,-1.0805095E0,5.1507554E0,1.7500373E-2,1.0345606E-1,3.1099668E-2,-7.1927555E-2,2.1094278E-2,-7.003677E-2],"split_indices":[1,0,2,6,6,7,0,3,2,0,0,0,0,5,7,0,0,0,0,0,0],"split_type":[0,0,0,0,0,0,0,0,0,0,0,0,0,0,0,0,0,0,0,0,0],"sum_hessian":[1.321343E2,2.6548152E0,1.2947948E2,7.7166967E0,1.2176277E2,3.8017852E0,3.9149115E0,5.1023037E1,7.073974E1,1.5275921E0,2.2741933E0,4.7210842E1,3.812196E0,2.9467697E1,4.1272038E1,3.8862087E1,8.348755E0,8.326352E0,2.1141346E1,3.7839607E1,3.4324322E0],"tree_param":{"num_deleted":"0","num_feature":"8","num_nodes":"21","size_leaf_vector":"1"}},{"base_weights":[-2.6399057E-2,-7.825231E-2,-1.4588311E-3,-8.595937E-2,2.1144731E-2,4.447587E-2,-8.083349E-1,-6.881408E-1,7.082137E-2,-1.9681906E-2,-1.097165E-1,-2.2955026E-2,-8.982848E-2,1.8724313E-2,-1.2804712E-2],"categories":[],"categories_nodes":[],"categories_segments":[],"categories_sizes":[],"default_left":[0,0,0,0,0,0,0,0,0,0,0,0,0,0,0],"id":46,"left_children":[1,-1,3,-1,5,7,9,11,13,-1,-1,-1,-1,-1,-1],"loss_changes":[2.4657047E0,0E0,2.4939435E0,0E0,2.4615705E0,2.4200048E0,3.9890838E-1,2.1377611E-1,2.790677E0,0E0,0E0,0E0,0E0,0E0,0E0],"parents":[2147483647,0,0,2,2,4,4,5,5,6,6,7,7,8,8],"right_children":[2,-1,4,-1,6,8,10,12,14,-1,-1,-1,-1,-1,-1],"split_conditions":[-2.289799E0,-7.825231E-2,2.8517273E1,-8.595937E-2,1.0570892E1,2.6573946E0,3.267998E1,3.249243E1,3.25641E0,-1.9681906E-2,-1.097165E-1,-2.2955026E-2,-8.982848E-2,1.8724313E-2,-1.2804712E-2],"split_indices":[5,0,6,0,5,1,6,6,7,0,0,0,0,0,0],"split_type":[0,0,0,0,0,0,0,0,0,0,0,0,0,0,0],"sum_hessian":[1.2981235E2,3.175112E0,1.2663723E2,2.299732E0,1.243375E2,1.2185637E2,2.4811268E0,3.3579698E0,1.18498405E2,1.335346E0,1.1457807E0,1.7127143E0,1.6452553E0,7.477943E1,4.3718975E1],"tree_param":{"num_deleted":"0","num_feature":"8","num_nodes":"15","size_leaf_vector":"1"}},{"base_weights":[-2.7084619E-2,-4.8517706E-3,-8.306974E-2,-4.3002952E-2,6.887919E-1,-2.1161572E-3,-5.3730905E-1,9.532903E-2,-2.6373982E-2,3.202478E-2,-6.7008525E-1,-8.5536283E-1,4.6629407E-2,-1.6313693E-2,1.7130774E-2,1.6237168E-2,-9.5011495E-2,-1.04580656E-1,9.950313E-3],"categories":[],"categories_nodes":[],"categories_segments":[],"categories_sizes":[],"default_left":[0,0,0,0,0,0,0,0,0,0,0,0,0,0,0,0,0,0,0],"id":47,"left_children":[1,3,-1,5,7,9,11,-1,-1,13,15,17,-1,-1,-1,-1,-1,-1,-1],"loss_changes":[2.3194005E0,3.4049695E0,0E0,2.4613187E0,1.9415367E0,2.6106513E0,3.3687391E0,0E0,0E0,2.9900258E0,1.4518752E0,1.4530025E0,0E0,0E0,0E0,0E0,0E0,0E0,0E0],"parents":[2147483647,0,0,1,1,3,3,4,4,5,5,6,6,9,9,10,10,11,11],"right_children":[2,4,-1,6,8,10,12,-1,-1,14,16,18,-1,-1,-1,-1,-1,-1,-1],"split_conditions":[3.4796246E1,3.390944E1,-8.306974E-2,3.3426037E1,5.342173E0,3.9670414E1,4.706379E1,9.532903E-2,-2.6373982E-2,3.9138348E1,2.5660808E0,3.379601E1,4.6629407E-2,-1.6313693E-2,1.7130774E-2,1.6237168E-2,-9.5011495E-2,-1.04580656E-1,9.950313E-3],"split_indices":[6,6,0,6,7,0,3,0,0,3,7,6,0,0,0,0,0,0,0],"split_type":[0,0,0,0,0,0,0,0,0,0,0,0,0,0,0,0,0,0,0],"sum_hessian":[1.2904326E2,1.26548195E2,2.4950602E0,1.20839874E2,5.708325E0,1.12535706E2,8.30417E0,4.4671054E0,1.2412194E0,1.07969284E2,4.566421E0,6.4179525E0,1.8862172E0,4.489361E1,6.3075676E1,1.2551986E0,3.3112223E0,5.2713637E0,1.1465887E0],"tree_param":{"num_deleted":"0","num_feature":"8","num_nodes":"19","size_leaf_vector":"1"}},{"base_weights":[-2.5790244E-2,-6.6090745E-1,1.0329771E-3,4.656605E-3,-1.0033667E-1,1.7312308E-1,-1.3130903E-1,2.6677254E-1,-8.726511E-1,-3.983131E-1,1.310877E-1,-7.4771964E-3,6.7044497E-1,-2.8538266E-2,-9.999835E-2,-7.247584E-1,4.1441057E-2,6.8910336E-1,-7.753699E-2,4.3786712E-2,-3.7087437E-2,8.770172E-2,-2.738837E-2,-2.214377E-2,-1.2844399E-1,5.2942812E-2,-9.5188774E-2,-4.289098E-2,8.7402456E-2,-5.2394368E-2,2.9827446E-2],"categories":[],"categories_nodes":[],"categories_segments":[],"categories_sizes":[],"default_left":[0,0,0,0,0,0,0,0,0,0,0,0,0,0,0,0,0,0,0,0,0,0,0,0,0,0,0,0,0,0,0],"id":48,"left_children":[1,3,5,-1,-1,7,9,11,13,15,17,19,21,-1,-1,23,25,27,29,-1,-1,-1,-1,-1,-1,-1,-1,-1,-1,-1,-1],"loss_changes":[2.1950147E0,1.3116877E0,2.8601322E0,0E0,0E0,5.5792127E0,5.026165E0,5.6366606E0,6.764698E-2,5.1170692E0,4.309432E0,5.224599E0,4.2567635E0,0E0,0E0,5.460066E0,8.280839E0,2.4526114E0,4.7712903E0,0E0,0E0,0E0,0E0,0E0,0E0,0E0,0E0,0E0,0E0,0E0,0E0],"parents":[2147483647,0,0,1,1,2,2,5,5,6,6,7,7,8,8,9,9,10,10,11,11,12,12,15,15,16,16,17,17,18,18],"right_children":[2,4,6,-1,-1,8,10,12,14,16,18,20,22,-1,-1,24,26,28,30,-1,-1,-1,-1,-1,-1,-1,-1,-1,-1,-1,-1],"split_conditions":[2.6457323E1,2.8765533E1,3.2061012E1,4.656605E-3,-1.0033667E-1,4.271909E1,2.4983355E1,3.0055933E1,5.0413704E0,3.273015E1,3.1855375E1,3.4528725E1,4.2729216E0,-2.8538266E-2,-9.999835E-2,-4.5880806E-1,3.3423523E1,3.0689032E1,4.420294E1,4.3786712E-2,-3.7087437E-2,8.770172E-2,-2.738837E-2,-2.214377E-2,-1.2844399E-1,5.2942812E-2,-9.5188774E-2,-4.289098E-2,8.7402456E-2,-5.2394368E-2,2.9827446E-2],"split_indices":[0,6,6,0,0,3,2,0,1,0,0,3,7,0,0,5,0,0,3,0,0,0,0,0,0,0,0,0,0,0,0],"split_type":[0,0,0,0,0,0,0,0,0,0,0,0,0,0,0,0,0,0,0,0,0,0,0,0,0,0,0,0,0,0,0],"sum_hessian":[1.2780642E2,4.2210684E0,1.2358535E2,1.6586177E0,2.5624504E0,5.3590775E1,6.9994576E1,4.9869816E1,3.720957E0,3.443597E1,3.55586E1,3.0279676E1,1.959014E1,1.2405714E0,2.4803855E0,1.9392284E1,1.5043688E1,9.049776E0,2.6508825E1,1.3513687E1,1.676599E1,1.613244E1,3.4576979E0,1.0945058E1,8.447227E0,1.0401042E1,4.6426454E0,1.0971435E0,7.9526324E0,1.19362335E1,1.4572593E1],"tree_param":{"num_deleted":"0","num_feature":"8","num_nodes":"31","size_leaf_vector":"1"}},{"base_weights":[-2.6362922E-2,-8.535909E-2,-4.5103445E-3,1.4607988E-1,-1.23836055E-1,-1.4754236E-1,4.3916526E-1,-5.009163E-1,4.0868994E-2,-1.052814E0,1.1672442E-1,7.17174E-1,-3.4396166E-1,-1.9000575E-1,-1.1268462E0,-4.8326722E-1,1.4322904E-1,-9.721878E-3,-1.2738612E-1,6.518127E-2,-2.7333472E-2,-1.5856333E-2,1.01502076E-1,4.2678844E-2,-1.07286155E-1,-5.7250615E-2,4.4726353E-2,-4.1645303E-2,-1.2333002E-1,2.1477466E-2,-7.346567E-2,5.6552906E-2,1.2945372E-4],"categories":[],"categories_nodes":[],"categories_segments":[],"categories_sizes":[],"default_left":[0,0,0,0,0,0,0,0,0,0,0,0,0,0,0,0,0,0,0,0,0,0,0,0,0,0,0,0,0,0,0,0,0],"id":49,"left_children":[1,-1,3,5,7,9,11,13,15,17,19,21,23,25,27,29,31,-1,-1,-1,-1,-1,-1,-1,-1,-1,-1,-1,-1,-1,-1,-1,-1],"loss_changes":[2.2695754E0,0E0,2.237864E0,4.8039393E0,4.33451E0,6.8832455E0,6.301752E0,3.910026E0,2.7125494E0,1.2460012E0,4.931339E0,5.599228E0,4.9311085E0,4.000584E0,2.916336E-3,1.6104983E0,2.5161567E0,0E0,0E0,0E0,0E0,0E0,0E0,0E0,0E0,0E0,0E0,0E0,0E0,0E0,0E0,0E0,0E0],"parents":[2147483647,0,0,2,2,3,3,4,4,5,5,6,6,7,7,8,8,9,9,10,10,11,11,12,12,13,13,14,14,15,15,16,16],"right_children":[2,-1,4,6,8,10,12,14,16,18,20,22,24,26,28,30,32,-1,-1,-1,-1,-1,-1,-1,-1,-1,-1,-1,-1,-1,-1,-1,-1],"split_conditions":[2.8517273E1,-8.535909E-2,3.2061012E1,2.0645906E1,2.4896706E1,2.0982985E0,3.835649E0,8.986953E-1,3.8861847E1,2.958049E0,3.446121E1,2.8844687E1,2.316312E1,4.343402E1,2.471487E1,1.4984912E0,3.217882E1,-9.721878E-3,-1.2738612E-1,6.518127E-2,-2.7333472E-2,-1.5856333E-2,1.01502076E-1,4.2678844E-2,-1.07286155E-1,-5.7250615E-2,4.4726353E-2,-4.1645303E-2,-1.2333002E-1,2.1477466E-2,-7.346567E-2,5.6552906E-2,1.2945372E-4],"split_indices":[6,0,6,2,2,7,7,5,3,1,3,6,2,3,2,7,0,0,0,0,0,0,0,0,0,0,0,0,0,0,0,0,0],"split_type":[0,0,0,0,0,0,0,0,0,0,0,0,0,0,0,0,0,0,0,0,0,0,0,0,0,0,0,0,0,0,0,0,0],"sum_hessian":[1.24762985E2,2.231419E0,1.2253156E2,5.4070213E1,6.846135E1,2.7258436E1,2.6811777E1,2.0191982E1,4.8269367E1,5.485029E0,2.1773407E1,1.9849466E1,6.9623094E0,1.4361785E1,5.830198E0,7.2784915E0,4.099088E1,1.3009192E0,4.18411E0,8.897137E0,1.2876271E1,5.1563263E0,1.4693141E1,3.585462E0,3.3768473E0,9.038401E0,5.323384E0,1.3999623E0,4.4302354E0,1.9657564E0,5.312735E0,9.560609E0,3.143027E1],"tree_param":{"num_deleted":"0","num_feature":"8","num_nodes":"33","size_leaf_vector":"1"}},{"base_weights":[-2.6740728E-2,-7.527458E-2,-3.8809136E-3,-8.103719E-2,1.7408326E-2,4.7028467E-2,-5.305205E-1,-8.3330115E-3,5.092973E-1,1.1751323E-2,-6.9208443E-1,1.9592045E-2,-1.4901961E-2,-2.26677E-2,7.2302796E-2,-1.0758944E-1,-3.969852E-3],"categories":[],"categories_nodes":[],"categories_segments":[],"categories_sizes":[],"default_left":[0,0,0,0,0,0,0,0,0,0,0,0,0,0,0,0,0],"id":50,"left_children":[1,-1,3,-1,5,7,9,11,13,-1,15,-1,-1,-1,-1,-1,-1],"loss_changes":[2.043533E0,0E0,2.0838773E0,0E0,1.9469924E0,2.9030938E0,7.257594E-1,2.9643042E0,2.0720658E0,0E0,1.2272575E0,0E0,0E0,0E0,0E0,0E0,0E0],"parents":[2147483647,0,0,2,2,4,4,5,5,6,6,7,7,8,8,10,10],"right_children":[2,-1,4,-1,6,8,10,12,14,-1,16,-1,-1,-1,-1,-1,-1],"split_conditions":[-2.289799E0,-7.527458E-2,2.8517273E1,-8.103719E-2,4.2372654E1,2.5314917E1,2.7774894E0,3.0751263E1,4.420294E1,1.1751323E-2,3.3707493E1,1.9592045E-2,-1.4901961E-2,-2.26677E-2,7.2302796E-2,-1.0758944E-1,-3.969852E-3],"split_indices":[5,0,6,0,0,2,7,6,3,0,6,0,0,0,0,0,0],"split_type":[0,0,0,0,0,0,0,0,0,0,0,0,0,0,0,0,0],"sum_hessian":[1.22307556E2,2.758898E0,1.1954865E2,2.1213567E0,1.174273E2,1.1227222E2,5.1550827E0,1.0114146E2,1.1130762E1,1.0831629E0,4.0719194E0,4.109124E1,6.0050217E1,2.4913404E0,8.639421E0,2.1549544E0,1.9169651E0],"tree_param":{"num_deleted":"0","num_feature":"8","num_nodes":"17","size_leaf_vector":"1"}},{"base_weights":[-2.5884941E-2,-4.549466E-1,1.5290085E-2,-8.788113E-2,-1.14619486E-1,-5.6801254E-1,6.303517E-2,-5.996245E-1,5.059647E-1,-7.777513E-1,4.0429052E-2,1.8881865E-1,-1.3030516E-1,3.315356E-2,-1.004154E-1,-1.3373203E-2,7.502106E-2,-2.4601701E-1,-1.14257745E-1,6.490732E-1,2.534239E-2,5.727997E-1,-3.0726025E-1,-9.460471E-2,7.5428784E-2,1.7548138E-2,1.0891018E-1,-7.152219E-2,2.109158E-2,-1.0484399E-2,7.165078E-2,-8.375531E-2,7.6339045E-3],"categories":[],"categories_nodes":[],"categories_segments":[],"categories_sizes":[],"default_left":[0,0,0,0,0,0,0,0,0,0,0,0,0,0,0,0,0,0,0,0,0,0,0,0,0,0,0,0,0,0,0,0,0],"id":51,"left_children":[1,3,5,7,-1,9,11,13,15,17,-1,19,21,-1,-1,-1,-1,23,-1,25,27,29,31,-1,-1,-1,-1,-1,-1,-1,-1,-1,-1],"loss_changes":[2.1662786E0,2.6230774E0,3.1686645E0,2.7633288E0,0E0,2.0704706E0,2.5751872E0,2.143068E0,7.704742E-1,1.1593037E0,0E0,4.7951717E0,5.392904E0,0E0,0E0,0E0,0E0,3.721697E0,0E0,3.2932749E0,6.778984E0,9.301591E-1,7.010792E0,0E0,0E0,0E0,0E0,0E0,0E0,0E0,0E0,0E0,0E0],"parents":[2147483647,0,0,1,1,2,2,3,3,5,5,6,6,7,7,8,8,9,9,11,11,12,12,17,17,19,19,20,20,21,21,22,22],"right_children":[2,4,6,8,-1,10,12,14,16,18,-1,20,22,-1,-1,-1,-1,24,-1,26,28,30,32,-1,-1,-1,-1,-1,-1,-1,-1,-1,-1],"split_conditions":[2.7407965E1,-9.1461426E-1,1.4620706E0,-1.3401546E0,-1.14619486E-1,4.420294E1,3.25641E0,1.8761315E0,2.603552E1,3.164446E1,4.0429052E-2,3.2957704E0,2.8641481E1,3.315356E-2,-1.004154E-1,-1.3373203E-2,7.502106E-2,2.8844687E1,-1.14257745E-1,2.4869468E0,3.9304214E1,2.7484266E1,4.1349293E1,-9.460471E-2,7.5428784E-2,1.7548138E-2,1.0891018E-1,-7.152219E-2,2.109158E-2,-1.0484399E-2,7.165078E-2,-8.375531E-2,7.6339045E-3],"split_indices":[0,5,7,5,0,3,7,7,0,6,0,1,0,0,0,0,0,6,0,7,3,0,3,0,0,0,0,0,0,0,0,0,0],"split_type":[0,0,0,0,0,0,0,0,0,0,0,0,0,0,0,0,0,0,0,0,0,0,0,0,0,0,0,0,0,0,0,0,0],"sum_hessian":[1.21226074E2,9.734917E0,1.1149116E2,7.094658E0,2.6402593E0,7.6109734E0,1.0388018E2,3.805531E0,3.2891266E0,6.4250894E0,1.1858844E0,6.2949707E1,4.0930477E1,1.207199E0,2.5983322E0,1.033856E0,2.2552705E0,3.295799E0,3.12929E0,1.572022E1,4.722949E1,7.7801647E0,3.315031E1,1.9708244E0,1.3249747E0,8.245061E0,7.475158E0,8.891646E0,3.833784E1,1.4085768E0,6.371588E0,1.3417866E1,1.9732445E1],"tree_param":{"num_deleted":"0","num_feature":"8","num_nodes":"33","size_leaf_vector":"1"}},{"base_weights":[-2.5065932E-2,-3.8398688E-3,-8.093758E-2,-3.9182585E-2,6.562827E-1,-1.1198397E-2,-6.861674E-1,9.0846054E-2,-2.2490589E-2,-5.1440913E-2,4.574734E-1,9.87797E-3,-9.416767E-2,-7.116953E-4,-7.276728E-2,-2.223741E-2,7.510578E-2],"categories":[],"categories_nodes":[],"categories_segments":[],"categories_sizes":[],"default_left":[0,0,0,0,0,0,0,0,0,0,0,0,0,0,0,0,0],"id":52,"left_children":[1,3,-1,5,7,9,11,-1,-1,13,15,-1,-1,-1,-1,-1,-1],"loss_changes":[1.9955853E0,2.7763526E0,0E0,2.0355194E0,1.548239E0,2.082889E0,1.0280757E0,0E0,0E0,3.035713E0,1.9104965E0,0E0,0E0,0E0,0E0,0E0,0E0],"parents":[2147483647,0,0,1,1,3,3,4,4,5,5,6,6,9,9,10,10],"right_children":[2,4,-1,6,8,10,12,-1,-1,14,16,-1,-1,-1,-1,-1,-1],"split_conditions":[3.4796246E1,3.390944E1,-8.093758E-2,4.2372654E1,5.342173E0,2.5314917E1,2.7774894E0,9.0846054E-2,-2.2490589E-2,3.3426037E1,4.420294E1,9.87797E-3,-9.416767E-2,-7.116953E-4,-7.276728E-2,-2.223741E-2,7.510578E-2],"split_indices":[6,6,0,0,7,2,7,0,0,6,3,0,0,0,0,0,0],"split_type":[0,0,0,0,0,0,0,0,0,0,0,0,0,0,0,0,0],"sum_hessian":[1.19057434E2,1.1689866E2,2.1587756E0,1.11850845E2,5.0478086E0,1.08188644E2,3.6622005E0,3.9005919E0,1.1472168E0,1.0045345E2,7.735197E0,1.0499775E0,2.612223E0,9.5222565E1,5.230887E0,2.4060678E0,5.329129E0],"tree_param":{"num_deleted":"0","num_feature":"8","num_nodes":"17","size_leaf_vector":"1"}},{"base_weights":[-2.367859E-2,-4.379733E-1,1.5478587E-2,-8.192046E-2,-1.110067E-1,-5.5284214E-1,6.1027877E-2,-5.705964E-1,4.8675445E-1,-1.1321129E-1,-1.389621E-1,2.872491E-1,-5.0992012E-2,3.1493228E-2,-9.677552E-2,-1.2630619E-2,7.314301E-2,5.195713E-1,-8.640158E-2,3.903011E-1,-8.255438E-2,9.561767E-2,-3.6272418E-1,7.838568E-2,-8.160692E-3,-6.576482E-2,4.8735064E-2,3.0598676E-2,-5.491302E-2,-7.525766E-2,2.9679403E-2],"categories":[],"categories_nodes":[],"categories_segments":[],"categories_sizes":[],"default_left":[0,0,0,0,0,0,0,0,0,0,0,0,0,0,0,0,0,0,0,0,0,0,0,0,0,0,0,0,0,0,0],"id":53,"left_children":[1,3,5,7,-1,9,11,13,15,-1,17,19,21,-1,-1,-1,-1,23,-1,25,-1,27,29,-1,-1,-1,-1,-1,-1,-1,-1],"loss_changes":[1.9380146E0,2.377253E0,2.8743212E0,2.4514549E0,0E0,1.8185754E0,2.6118798E0,1.9462302E0,7.155991E-1,0E0,3.288408E0,4.2319384E0,3.2063022E0,0E0,0E0,0E0,0E0,6.5833163E-1,0E0,3.5631108E0,0E0,6.677147E0,5.984381E0,0E0,0E0,0E0,0E0,0E0,0E0,0E0,0E0],"parents":[2147483647,0,0,1,1,2,2,3,3,5,5,6,6,7,7,8,8,10,10,11,11,12,12,17,17,19,19,21,21,22,22],"right_children":[2,4,6,8,-1,10,12,14,16,-1,18,20,22,-1,-1,-1,-1,24,-1,26,-1,28,30,-1,-1,-1,-1,-1,-1,-1,-1],"split_conditions":[2.7407965E1,-9.1461426E-1,1.4620706E0,-1.3401546E0,-1.110067E-1,-7.28543E-1,3.0751263E1,1.8761315E0,2.603552E1,-1.1321129E-1,3.6833405E0,4.271909E1,3.25641E0,3.1493228E-2,-9.677552E-2,-1.2630619E-2,7.314301E-2,3.231506E1,-8.640158E-2,2.038937E1,-8.255438E-2,4.1070123E0,1.23E2,7.838568E-2,-8.160692E-3,-6.576482E-2,4.8735064E-2,3.0598676E-2,-5.491302E-2,-7.525766E-2,2.9679403E-2],"split_indices":[0,5,7,5,0,5,6,7,0,0,1,3,7,0,0,0,0,6,0,2,0,1,4,0,0,0,0,0,0,0,0],"split_type":[0,0,0,0,0,0,0,0,0,0,0,0,0,0,0,0,0,0,0,0,0,0,0,0,0,0,0,0,0,0,0],"sum_hessian":[1.18045906E2,9.314171E0,1.08731735E2,6.8219943E0,2.4921765E0,7.2415338E0,1.01490204E2,3.6672554E0,3.154739E0,2.29461E0,4.9469237E0,3.3093826E1,6.839638E1,1.1995978E0,2.4676576E0,1.037915E0,2.116824E0,2.7408955E0,2.2060282E0,3.0883104E1,2.210721E0,4.698996E1,2.1406416E1,1.692836E0,1.0480596E0,2.1280293E0,2.8755075E1,3.582602E1,1.1163939E1,1.3365024E1,8.041393E0],"tree_param":{"num_deleted":"0","num_feature":"8","num_nodes":"31","size_leaf_vector":"1"}},{"base_weights":[-2.5375566E-2,-7.726449E-2,