{"learner":{"attributes":{"scikit_learn":"{\"_estimator_type\": \"classifier\"}"},"feature_names":[],"feature_types":[],"gradient_booster":{"model":{"cats":{"enc":[],"feature_segments":[],"sorted_idx":[]},"gbtree_model_param":{"num_parallel_tree":"1","num_trees":"200"},"iteration_indptr":[0,1,2,3,4,5,6,7,8,9,10,11,12,13,14,15,16,17,18,19,20,21,22,23,24,25,26,27,28,29,30,31,32,33,34,35,36,37,38,39,40,41,42,43,44,45,46,47,48,49,50,51,52,53,54,55,56,57,58,59,60,61,62,63,64,65,66,67,68,69,70,71,72,73,74,75,76,77,78,79,80,81,82,83,84,85,86,87,88,89,90,91,92,93,94,95,96,97,98,99,100,101,102,103,104,105,106,107,108,109,110,111,112,113,114,115,116,117,118,119,120,121,122,123,124,125,126,127,128,129,130,131,132,133,134,135,136,137,138,139,140,141,142,143,144,145,146,147,148,149,150,151,152,153,154,155,156,157,158,159,160,161,162,163,164,165,166,167,168,169,170,171,172,173,174,175,176,177,178,179,180,181,182,183,184,185,186,187,188,189,190,191,192,193,194,195,196,197,198,199,200],"tree_info":[0,0,0,0,0,0,0,0,0,0,0,0,0,0,0,0,0,0,0,0,0,0,0,0,0,0,0,0,0,0,0,0,0,0,0,0,0,0,0,0,0,0,0,0,0,0,0,0,0,0,0,0,0,0,0,0,0,0,0,0,0,0,0,0,0,0,0,0,0,0,0,0,0,0,0,0,0,0,0,0,0,0,0,0,0,0,0,0,0,0,0,0,0,0,0,0,0,0,0,0,0,0,0,0,0,0,0,0,0,0,0,0,0,0,0,0,0,0,0,0,0,0,0,0,0,0,0,0,0,0,0,0,0,0,0,0,0,0,0,0,0,0,0,0,0,0,0,0,0,0,0,0,0,0,0,0,0,0,0,0,0,0,0,0,0,0,0,0,0,0,0,0,0,0,0,0,0,0,0,0,0,0,0,0,0,0,0,0,0,0,0,0,0,0,0,0,0,0,0,0],"trees":[{"base_weights":[-0E0,4.527956E-1,-1.3994334E0,-3.3290654E-2,1.6560509E0,-3.0088496E-1,-9.4262294E-2,-9.569892E-2,2.1965317E-1,-5E-2,1.7032259E0,-8.5454546E-2,9.677419E-1,6.2836623E-1,-1.4244604E0,1.7508197E0,-3.3333335E-2,1.4716982E0,-6.923077E-2,1.2089552E0,8.8737205E-2,-1.7647059E0,-4.390244E-1,-0E0,1.7979798E0,-2.5E-2,8.367347E-2,-5.294118E-2,6.7058824E-2,-4.5454547E-2,3.3689838E-2,-1.1111111E-2,-9.175258E-2,2.8E-2,-8.0000006E-2,-5E-2,5E-2,9.109589E-2,1.1111111E-2],"categories":[],"categories_nodes":[],"categories_segments":[],"categories_sizes":[],"default_left":[0,0,0,0,0,0,0,0,0,0,0,0,0,0,0,0,0,0,0,0,0,0,0,0,0,0,0,0,0,0,0,0,0,0,0,0,0,0,0],"id":0,"left_children":[1,3,5,7,9,11,-1,-1,13,-1,15,-1,17,19,21,23,-1,25,-1,27,29,31,33,35,37,-1,-1,-1,-1,-1,-1,-1,-1,-1,-1,-1,-1,-1,-1],"loss_changes":[2.2875029E2,1.5958275E2,4.6530777E1,9.330247E1,1.1539185E1,5.2122242E1,0E0,0E0,1.1714601E2,0E0,9.908615E0,0E0,2.0412754E1,4.352012E1,1.0876587E1,6.295883E0,0E0,6.1080093E0,0E0,2.150991E1,4.337508E1,2.3591385E0,1.278439E1,4E0,2.395874E0,0E0,0E0,0E0,0E0,0E0,0E0,0E0,0E0,0E0,0E0,0E0,0E0,0E0,0E0],"parents":[2147483647,0,0,1,1,2,2,3,3,4,4,5,5,8,8,10,10,12,12,13,13,14,14,15,15,17,17,19,19,20,20,21,21,22,22,23,23,24,24],"right_children":[2,4,6,8,10,12,-1,-1,14,-1,16,-1,18,20,22,24,-1,26,-1,28,30,32,34,36,38,-1,-1,-1,-1,-1,-1,-1,-1,-1,-1,-1,-1,-1,-1],"split_conditions":[5.1367598E0,2.5178135E1,3.164446E1,-2.289799E0,3.1287534E0,2.0549355E1,-9.4262294E-2,-9.569892E-2,4.5780597E0,-5E-2,4.24359E1,-8.5454546E-2,6.2292733E0,-5.672117E-1,3.3616197E0,3.931401E1,-3.3333335E-2,5.238738E0,-6.923077E-2,2.6573946E0,3.90911E1,-1.7951407E0,5.268881E0,1.5750517E0,3.576163E1,-2.5E-2,8.367347E-2,-5.294118E-2,6.7058824E-2,-4.5454547E-2,3.3689838E-2,-1.1111111E-2,-9.175258E-2,2.8E-2,-8.0000006E-2,-5E-2,5E-2,9.109589E-2,1.1111111E-2],"split_indices":[7,2,6,5,1,2,0,0,1,0,0,0,7,5,7,3,0,7,0,1,3,5,1,5,2,0,0,0,0,0,0,0,0,0,0,0,0,0,0],"split_type":[0,0,0,0,0,0,0,0,0,0,0,0,0,0,0,0,0,0,0,0,0,0,0,0,0,0,0,0,0,0,0,0,0,0,0,0,0,0,0],"sum_hessian":[3.59E2,2.7175E2,8.725E1,1.9425E2,7.75E1,2.725E1,6E1,2.225E1,1.72E2,1E0,7.65E1,1.275E1,1.45E1,1.3825E2,3.375E1,7.525E1,1.25E0,1.225E1,2.25E0,6.6E1,7.225E1,2.45E1,9.25E0,2E0,7.325E1,1E0,1.125E1,3.25E0,6.275E1,2.65E1,4.575E1,1.25E0,2.325E1,5.25E0,4E0,1E0,1E0,7.2E1,1.25E0],"tree_param":{"num_deleted":"0","num_feature":"8","num_nodes":"39","size_leaf_vector":"1"}},{"base_weights":[-1.1718855E-3,4.2988932E-1,-1.3343716E0,-3.294147E-2,1.5765878E0,-2.89715E-1,-8.982585E-2,-9.132307E-2,2.0797515E-1,1.6210569E0,-3.2412495E-2,-8.1633E-2,9.2004174E-1,5.97402E-1,-1.3599459E0,-1.9507421E-2,1.6660976E0,1.4046844E0,-6.689073E-2,1.14999E0,8.41696E-2,-1.6837922E0,-4.2246792E-1,-1.9507421E-2,1.7129607E0,-1.1628749E-2,7.973883E-2,-2.4357473E-2,6.632409E-2,-3.30268E-2,4.0093213E-2,-1.0802662E-2,-8.75336E-2,2.7698496E-2,-7.7959076E-2,8.6849466E-2,8.592314E-3],"categories":[],"categories_nodes":[],"categories_segments":[],"categories_sizes":[],"default_left":[0,0,0,0,0,0,0,0,0,0,0,0,0,0,0,0,0,0,0,0,0,0,0,0,0,0,0,0,0,0,0,0,0,0,0,0,0],"id":1,"left_children":[1,3,5,7,9,11,-1,-1,13,15,-1,-1,17,19,21,-1,23,25,-1,27,29,31,33,-1,35,-1,-1,-1,-1,-1,-1,-1,-1,-1,-1,-1,-1],"loss_changes":[2.0715372E2,1.4461781E2,4.199878E1,8.4655914E1,8.802399E0,4.732375E1,0E0,0E0,1.0634948E2,7.6341095E0,0E0,0E0,1.8815498E1,3.9367157E1,9.821617E0,0E0,7.9532623E0,4.488535E0,0E0,1.9984253E1,3.9665424E1,2.1200867E0,1.22322855E1,0E0,2.4455261E0,0E0,0E0,0E0,0E0,0E0,0E0,0E0,0E0,0E0,0E0,0E0,0E0],"parents":[2147483647,0,0,1,1,2,2,3,3,4,4,5,5,8,8,9,9,12,12,13,13,14,14,16,16,17,17,19,19,20,20,21,21,22,22,24,24],"right_children":[2,4,6,8,10,12,-1,-1,14,16,-1,-1,18,20,22,-1,24,26,-1,28,30,32,34,-1,36,-1,-1,-1,-1,-1,-1,-1,-1,-1,-1,-1,-1],"split_conditions":[5.1367598E0,2.5178135E1,3.164446E1,-2.289799E0,4.24359E1,2.0549355E1,-8.982585E-2,-9.132307E-2,4.5780597E0,3.2055314E0,-3.2412495E-2,-8.1633E-2,6.2292733E0,-5.672117E-1,3.3616197E0,-1.9507421E-2,3.931401E1,3.05632E1,-6.689073E-2,2.766055E0,3.9540306E1,-1.7951407E0,4.4038784E1,-1.9507421E-2,3.4754173E1,-1.1628749E-2,7.973883E-2,-2.4357473E-2,6.632409E-2,-3.30268E-2,4.0093213E-2,-1.0802662E-2,-8.75336E-2,2.7698496E-2,-7.7959076E-2,8.6849466E-2,8.592314E-3],"split_indices":[7,2,6,5,0,2,0,0,1,1,0,0,7,5,7,0,3,6,0,1,3,5,3,0,6,0,0,0,0,0,0,0,0,0,0,0,0],"split_type":[0,0,0,0,0,0,0,0,0,0,0,0,0,0,0,0,0,0,0,0,0,0,0,0,0,0,0,0,0,0,0,0,0,0,0,0,0],"sum_hessian":[3.584631E2,2.7139197E2,8.707115E1,1.9404338E2,7.734857E1,2.7204233E1,5.9866917E1,2.2199135E1,1.7184424E2,7.609892E1,1.2496529E0,1.2726751E1,1.4477482E1,1.3815057E2,3.3693676E1,1.4990629E0,7.459986E1,1.2230176E1,2.2473059E0,6.592723E1,7.2223335E1,2.4451096E1,9.242578E0,1.4990629E0,7.31008E1,1.2490087E0,1.0981167E1,6.244354E0,5.968288E1,3.5483765E1,3.6739574E1,1.2499614E0,2.3201136E1,5.2475686E0,3.9950092E0,7.1853386E1,1.2474103E0],"tree_param":{"num_deleted":"0","num_feature":"8","num_nodes":"37","size_leaf_vector":"1"}},{"base_weights":[-2.0738626E-3,4.0928409E-1,-1.2769865E0,-3.2393705E-2,1.5062628E0,-2.7935177E-1,-8.594645E-2,-8.750403E-2,1.9747709E-1,1.5492787E0,-3.152663E-2,-1.5645937E0,8.7765026E-1,5.690021E-1,-1.3021383E0,-1.892533E-2,1.5927397E0,-8.404901E-2,-7.417523E-1,1.3450992E0,-6.473309E-2,1.0964556E0,8.0132365E-2,-8.53071E-2,-5.8388317E-1,-1.892533E-2,1.6379685E0,-6.5056696E-3,-5.1122315E-2,-1.1305374E-2,7.642932E-2,-5.0044216E-2,6.097166E-2,-4.173698E-2,3.0817688E-2,1.6431352E-2,-7.4046E-2,8.304896E-2,8.355804E-3],"categories":[],"categories_nodes":[],"categories_segments":[],"categories_sizes":[],"default_left":[0,0,0,0,0,0,0,0,0,0,0,0,0,0,0,0,0,0,0,0,0,0,0,0,0,0,0,0,0,0,0,0,0,0,0,0,0,0,0],"id":2,"left_children":[1,3,5,7,9,11,-1,-1,13,15,-1,17,19,21,23,-1,25,-1,27,29,-1,31,33,-1,35,-1,37,-1,-1,-1,-1,-1,-1,-1,-1,-1,-1,-1,-1],"loss_changes":[1.8826953E2,1.3155394E2,3.8130493E1,7.71374E1,8.140167E0,4.3126667E1,0E0,0E0,9.680873E1,7.027725E0,0E0,6.145096E-2,1.739664E1,3.572527E1,9.026779E0,0E0,7.323288E0,0E0,4.6487606E-1,4.14464E0,0E0,1.8431595E1,3.6404522E1,0E0,1.1909333E1,0E0,2.2163696E0,0E0,0E0,0E0,0E0,0E0,0E0,0E0,0E0,0E0,0E0,0E0,0E0],"parents":[2147483647,0,0,1,1,2,2,3,3,4,4,5,5,8,8,9,9,11,11,12,12,13,13,14,14,16,16,18,18,19,19,21,21,22,22,24,24,26,26],"right_children":[2,4,6,8,10,12,-1,-1,14,16,-1,18,20,22,24,-1,26,-1,28,30,-1,32,34,-1,36,-1,38,-1,-1,-1,-1,-1,-1,-1,-1,-1,-1,-1,-1],"split_conditions":[5.1367598E0,2.5178135E1,3.164446E1,-2.289799E0,4.24359E1,2.0549355E1,-8.594645E-2,-8.750403E-2,4.5780597E0,3.2055314E0,-3.152663E-2,2.047415E1,6.2292733E0,-5.672117E-1,3.1380181E0,-1.892533E-2,3.931401E1,-8.404901E-2,-9.1404505E-2,3.05632E1,-6.473309E-2,2.6573946E0,3.90911E1,-8.53071E-2,5.627548E0,-1.892533E-2,3.4754173E1,-6.5056696E-3,-5.1122315E-2,-1.1305374E-2,7.642932E-2,-5.0044216E-2,6.097166E-2,-4.173698E-2,3.0817688E-2,1.6431352E-2,-7.4046E-2,8.304896E-2,8.355804E-3],"split_indices":[7,2,6,5,0,2,0,0,1,1,0,2,7,5,7,0,3,0,5,6,0,1,3,0,1,0,6,0,0,0,0,0,0,0,0,0,0,0,0],"split_type":[0,0,0,0,0,0,0,0,0,0,0,0,0,0,0,0,0,0,0,0,0,0,0,0,0,0,0,0,0,0,0,0,0,0,0,0,0,0,0],"sum_hessian":[3.5699124E2,2.704182E2,8.657303E1,1.9348543E2,7.6932785E1,2.7078499E1,5.949453E1,2.2056568E1,1.7142885E2,7.5684135E1,1.2486502E0,1.2661424E1,1.4417075E1,1.3788808E2,3.354077E1,1.4986769E0,7.4185455E1,1.0178792E1,2.4826322E0,1.2177465E1,2.2396095E0,6.572881E1,7.215926E1,2.0586111E1,1.2954661E1,1.4986769E0,7.268678E1,1.2413161E0,1.2413161E0,1.2491002E0,1.0928366E1,3.24515E0,6.2483665E1,2.6459238E1,4.5700027E1,6.7360606E0,6.2186007E0,7.143988E1,1.2468996E0],"tree_param":{"num_deleted":"0","num_feature":"8","num_nodes":"39","size_leaf_vector":"1"}},{"base_weights":[-3.2332614E-3,2.7645388E-1,-8.6648725E-2,-8.519631E-2,4.869158E-1,1.3606887E-1,1.3441232E0,4.7246248E-1,-7.851276E-1,1.493208E0,-6.205525E-2,-8.200504E-2,6.714673E-1,2.6163977E-1,-1.3855845E0,-1.8362636E-2,1.5351089E0,4.2669296E-2,-5.2084114E-2,-5.7881046E-2,6.540752E-2,-9.241431E-2,-4.281108E-2,-1.8362636E-2,7.893557E-2],"categories":[],"categories_nodes":[],"categories_segments":[],"categories_sizes":[],"default_left":[0,0,0,0,0,0,0,0,0,0,0,0,0,0,0,0,0,0,0,0,0,0,0,0,0],"id":3,"left_children":[1,3,-1,-1,5,7,9,11,13,15,-1,-1,17,19,21,-1,23,-1,-1,-1,-1,-1,-1,-1,-1],"loss_changes":[1.7256805E2,1.2881247E2,0E0,0E0,8.352875E1,6.1919983E1,3.2966064E1,6.252941E1,3.399217E1,6.5489655E0,0E0,0E0,4.2726982E1,3.1732143E1,6.7843857E0,0E0,6.8240204E0,0E0,0E0,0E0,0E0,0E0,0E0,0E0,0E0],"parents":[2147483647,0,0,1,1,4,4,5,5,6,6,7,7,8,8,9,9,12,12,13,13,14,14,16,16],"right_children":[2,4,-1,-1,6,8,10,12,14,16,-1,-1,18,20,22,-1,24,-1,-1,-1,-1,-1,-1,-1,-1],"split_conditions":[6.2292733E0,-2.289799E0,-8.6648725E-2,-8.519631E-2,2.5178135E1,3.2587807E1,4.24359E1,2.028301E1,3.5502534E0,3.2055314E0,-6.205525E-2,-8.200504E-2,4.2272896E1,3.902731E1,4.3322754E1,-1.8362636E-2,3.931401E1,4.2669296E-2,-5.2084114E-2,-5.7881046E-2,6.540752E-2,-9.241431E-2,-4.281108E-2,-1.8362636E-2,7.893557E-2],"split_indices":[7,5,0,0,2,6,0,2,1,1,0,0,3,3,3,0,3,0,0,0,0,0,0,0,0],"split_type":[0,0,0,0,0,0,0,0,0,0,0,0,0,0,0,0,0,0,0,0,0,0,0,0,0],"sum_hessian":[3.5471274E2,3.0606442E2,4.8648315E1,2.8720213E1,2.773442E2,1.9761925E2,7.972496E1,1.4511476E2,5.2504486E1,7.577744E1,3.947519E0,1.1869621E1,1.3324513E2,1.9344967E1,3.315952E1,1.4980308E0,7.427941E1,1.20907845E2,1.2337295E1,8.1652355E0,1.1179731E1,1.6364353E1,1.6795166E1,1.4980308E0,7.278138E1],"tree_param":{"num_deleted":"0","num_feature":"8","num_nodes":"25","size_leaf_vector":"1"}},{"base_weights":[-4.296735E-3,2.6326346E-1,-8.350136E-2,-8.214812E-2,4.643883E-1,1.285951E-1,1.2907437E0,2.978303E-1,-1.5427988E0,1.4349557E0,-5.99505E-2,7.109935E-1,-3.1064683E-1,-6.8189907E-3,-8.183525E-2,-1.7818488E-2,1.4757631E0,-7.8275576E-2,4.9026906E-2,2.4560465E-2,-3.77474E-2,-1.7818488E-2,7.591226E-2],"categories":[],"categories_nodes":[],"categories_segments":[],"categories_sizes":[],"default_left":[0,0,0,0,0,0,0,0,0,0,0,0,0,0,0,0,0,0,0,0,0,0,0],"id":4,"left_children":[1,3,-1,-1,5,7,9,11,13,15,-1,17,19,-1,-1,-1,21,-1,-1,-1,-1,-1,-1],"loss_changes":[1.5783449E2,1.1775143E2,0E0,0E0,7.664162E1,5.6446075E1,3.0397446E1,4.5616436E1,2.2016792E0,6.0778503E0,0E0,6.77139E1,2.6635048E1,0E0,0E0,0E0,6.336014E0,0E0,0E0,0E0,0E0,0E0,0E0],"parents":[2147483647,0,0,1,1,4,4,5,5,6,6,7,7,8,8,9,9,11,11,12,12,16,16],"right_children":[2,4,-1,-1,6,8,10,12,14,16,-1,18,20,-1,-1,-1,22,-1,-1,-1,-1,-1,-1],"split_conditions":[6.2292733E0,-2.289799E0,-8.350136E-2,-8.214812E-2,2.5178135E1,4.476934E1,4.24359E1,3.217363E1,-9.1461426E-1,3.2055314E0,-5.99505E-2,2.0268076E1,-6.1522615E-1,-6.8189907E-3,-8.183525E-2,-1.7818488E-2,3.931401E1,-7.8275576E-2,4.9026906E-2,2.4560465E-2,-3.77474E-2,-1.7818488E-2,7.591226E-2],"split_indices":[7,5,0,0,2,3,0,6,5,1,0,2,5,0,0,0,3,0,0,0,0,0,0],"split_type":[0,0,0,0,0,0,0,0,0,0,0,0,0,0,0,0,0,0,0,0,0,0,0],"sum_hessian":[3.5215402E2,3.0414264E2,4.8011368E1,2.834308E1,2.7579956E2,1.9693127E2,7.886829E1,1.7957083E2,1.7360447E1,7.4950645E1,3.9176526E0,1.0684996E2,7.272087E1,1.2400906E0,1.6120356E1,1.4971484E0,7.34535E1,1.0802957E1,9.6047005E1,2.5890038E1,4.6830833E1,1.4971484E0,7.1956345E1],"tree_param":{"num_deleted":"0","num_feature":"8","num_nodes":"23","size_leaf_vector":"1"}},{"base_weights":[-5.0748144E-3,2.5129297E-1,-8.070939E-2,-7.943487E-2,4.4373757E-1,7.869707E-1,-3.0652606E-1,2.8231734E-1,1.2633847E0,-8.325442E-2,4.8277065E-2,1.060446E0,-2.547457E-1,1.3615828E0,-6.359028E-2,1.2057205E0,-6.053651E-1,-7.280775E-2,6.676531E-2,5.211597E-3,-5.4887086E-2,5.7202647E-3,7.3219605E-2,6.9620304E-2,-5.57047E-2,-6.8890944E-2,3.925123E-2],"categories":[],"categories_nodes":[],"categories_segments":[],"categories_sizes":[],"default_left":[0,0,0,0,0,0,0,0,0,0,0,0,0,0,0,0,0,0,0,0,0,0,0,0,0,0,0],"id":5,"left_children":[1,3,-1,-1,5,7,9,11,13,-1,15,17,19,21,-1,23,25,-1,-1,-1,-1,-1,-1,-1,-1,-1,-1],"loss_changes":[1.44814E2,1.0793146E2,0E0,0E0,7.103896E1,4.5062088E1,4.2023617E1,3.9145473E1,2.585167E1,0E0,5.3664394E1,2.8354427E1,1.7013727E1,1.185408E1,0E0,1.2632164E1,4.9821785E1,0E0,0E0,0E0,0E0,0E0,0E0,0E0,0E0,0E0,0E0],"parents":[2147483647,0,0,1,1,4,4,5,5,6,6,7,7,8,8,10,10,11,11,12,12,13,13,15,15,16,16],"right_children":[2,4,-1,-1,6,8,10,12,14,-1,16,18,20,22,-1,24,26,-1,-1,-1,-1,-1,-1,-1,-1,-1,-1],"split_conditions":[6.2292733E0,-2.289799E0,-8.070939E-2,-7.943487E-2,4.1599016E0,3.9540306E1,2.0546791E1,3.4528725E1,4.8828387E0,-8.325442E-2,3.164446E1,2.4863214E0,3.25641E0,2.4784363E1,-6.359028E-2,4.420294E1,2.5165104E1,-7.280775E-2,6.676531E-2,5.211597E-3,-5.4887086E-2,5.7202647E-3,7.3219605E-2,6.9620304E-2,-5.57047E-2,-6.8890944E-2,3.925123E-2],"split_indices":[7,5,0,0,1,3,2,3,7,0,6,1,7,2,0,3,2,0,0,0,0,0,0,0,0,0,0],"split_type":[0,0,0,0,0,0,0,0,0,0,0,0,0,0,0,0,0,0,0,0,0,0,0,0,0,0,0],"sum_hessian":[3.4905988E2,3.018174E2,4.7242455E1,2.7891111E1,2.739263E2,1.8791115E2,8.601515E1,9.202451E1,9.588664E1,1.7047243E1,6.89679E1,3.7180573E1,5.4843937E1,9.275673E1,3.1299121E0,2.4586496E1,4.438141E1,3.2377894E0,3.3942783E1,3.907905E1,1.5764891E1,7.22486E0,8.553187E1,2.3125282E1,1.4612148E0,2.853652E1,1.5844889E1],"tree_param":{"num_deleted":"0","num_feature":"8","num_nodes":"27","size_leaf_vector":"1"}},{"base_weights":[-5.790875E-3,2.4030796E-1,-7.821748E-2,-7.7005275E-2,4.2475912E-1,1.1506878E-1,1.1979744E0,4.1354614E-1,-7.024268E-1,1.3377856E0,-5.8220543E-2,-1.4812505E0,5.8931106E-1,3.6235672E-1,-1.2052509E0,-1.878364E-2,1.3784183E0,-2.3656378E-2,-7.729652E-2,3.554438E-2,-7.120847E-2,-5.089885E-2,7.1945645E-2,-7.855753E-2,-3.624992E-2,-1.7445916E-2,7.098767E-2],"categories":[],"categories_nodes":[],"categories_segments":[],"categories_sizes":[],"default_left":[0,0,0,0,0,0,0,0,0,0,0,0,0,0,0,0,0,0,0,0,0,0,0,0,0,0,0],"id":6,"left_children":[1,3,-1,-1,5,7,9,11,13,15,-1,17,19,21,23,-1,25,-1,-1,-1,-1,-1,-1,-1,-1,-1,-1],"loss_changes":[1.332208E2,9.9168526E1,0E0,0E0,6.513974E1,4.8054844E1,2.727195E1,4.8839172E1,2.8666367E1,5.66774E0,0E0,8.4337234E-2,3.3451134E1,2.7739311E1,5.194912E0,0E0,5.6697083E0,0E0,0E0,0E0,0E0,0E0,0E0,0E0,0E0,0E0,0E0],"parents":[2147483647,0,0,1,1,4,4,5,5,6,6,7,7,8,8,9,9,11,11,12,12,13,13,14,14,16,16],"right_children":[2,4,-1,-1,6,8,10,12,14,16,-1,18,20,22,24,-1,26,-1,-1,-1,-1,-1,-1,-1,-1,-1,-1],"split_conditions":[6.2292733E0,-2.289799E0,-7.821748E-2,-7.7005275E-2,2.5178135E1,3.2587807E1,4.24359E1,2.028301E1,3.4326744E0,3.2055314E0,-5.8220543E-2,1.5341358E0,4.476934E1,3.902731E1,4.3322754E1,-1.878364E-2,3.931401E1,-2.3656378E-2,-7.729652E-2,3.554438E-2,-7.120847E-2,-5.089885E-2,7.1945645E-2,-7.855753E-2,-3.624992E-2,-1.7445916E-2,7.098767E-2],"split_indices":[7,5,0,0,2,6,0,2,1,1,0,7,3,3,3,0,3,0,0,0,0,0,0,0,0,0,0],"split_type":[0,0,0,0,0,0,0,0,0,0,0,0,0,0,0,0,0,0,0,0,0,0,0,0,0,0,0],"sum_hessian":[3.4534753E2,2.989834E2,4.636413E1,2.7377045E1,2.7160635E2,1.9475241E2,7.685396E1,1.4302603E2,5.172638E1,7.296919E1,3.8847635E0,1.15106325E1,1.315154E2,1.6681303E1,3.504508E1,1.4992929E0,7.14699E1,1.1952926E0,1.031534E1,1.2463661E2,6.878783E0,7.33323E0,9.348073E0,1.8601366E1,1.644371E1,1.4963971E0,6.99735E1],"tree_param":{"num_deleted":"0","num_feature":"8","num_nodes":"27","size_leaf_vector":"1"}},{"base_weights":[-6.8306937E-3,2.2948565E-1,-7.598115E-2,-7.4817896E-2,4.0626377E-1,7.270979E-1,-2.9669982E-1,2.4967168E-1,1.1854302E0,-7.925587E-2,3.8038056E-2,9.898227E-1,-2.5687668E-1,1.2775062E0,-5.983701E-2,1.1322544E0,-5.8224887E-1,-7.091397E-2,6.279575E-2,4.0633357E-3,-5.258734E-2,7.588087E-2,3.659001E-2,6.549996E-2,-5.3415995E-2,-6.4885676E-2,3.5566304E-2],"categories":[],"categories_nodes":[],"categories_segments":[],"categories_sizes":[],"default_left":[0,0,0,0,0,0,0,0,0,0,0,0,0,0,0,0,0,0,0,0,0,0,0,0,0,0,0],"id":7,"left_children":[1,3,-1,-1,5,7,9,11,13,-1,15,17,19,21,-1,23,25,-1,-1,-1,-1,-1,-1,-1,-1,-1,-1],"loss_changes":[1.2276764E2,9.123125E1,0E0,0E0,6.1160767E1,4.036786E1,3.6888443E1,3.4854736E1,2.226648E1,0E0,4.7327682E1,2.5940697E1,1.5025267E1,1.0880051E1,0E0,1.1262375E1,4.2147953E1,0E0,0E0,0E0,0E0,0E0,0E0,0E0,0E0,0E0,0E0],"parents":[2147483647,0,0,1,1,4,4,5,5,6,6,7,7,8,8,10,10,11,11,12,12,13,13,15,15,16,16],"right_children":[2,4,-1,-1,6,8,10,12,14,-1,16,18,20,22,-1,24,26,-1,-1,-1,-1,-1,-1,-1,-1,-1,-1],"split_conditions":[6.2292733E0,-2.289799E0,-7.598115E-2,-7.4817896E-2,4.1599016E0,3.9540306E1,2.0546791E1,3.4528725E1,4.8828387E0,-7.925587E-2,3.164446E1,2.4863214E0,3.25641E0,2.4358728E0,-5.983701E-2,4.420294E1,2.5165104E1,-7.091397E-2,6.279575E-2,4.0633357E-3,-5.258734E-2,7.588087E-2,3.659001E-2,6.549996E-2,-5.3415995E-2,-6.4885676E-2,3.5566304E-2],"split_indices":[7,5,0,0,1,3,2,3,7,0,6,1,7,7,0,3,2,0,0,0,0,0,0,0,0,0,0],"split_type":[0,0,0,0,0,0,0,0,0,0,0,0,0,0,0,0,0,0,0,0,0,0,0,0,0,0,0],"sum_hessian":[3.414329E2,2.960367E2,4.539619E1,2.681207E1,2.6922464E2,1.8483238E2,8.439224E1,9.128706E1,9.354532E1,1.663359E1,6.775866E1,3.6703346E1,5.4583717E1,9.051061E1,3.0347104E0,2.4215668E1,4.3542988E1,3.2212658E0,3.348208E1,3.8923252E1,1.5660465E1,6.1617733E1,2.889288E1,2.2780354E1,1.4353148E0,2.8034279E1,1.5508709E1],"tree_param":{"num_deleted":"0","num_feature":"8","num_nodes":"27","size_leaf_vector":"1"}},{"base_weights":[-7.383899E-3,2.1999583E-1,-7.396421E-2,-7.2838925E-2,3.8975373E-1,1.00750685E-1,1.1227627E0,5.0670713E-1,-4.3637246E-1,1.2475317E0,-6.779036E-2,-1.4035381E0,7.3603815E-1,-5.519334E-3,-1.2591311E0,1.2847595E0,-2.545887E-2,-2.1938166E-2,-7.331626E-2,-7.101912E-2,4.170629E-2,1.8765539E-2,-7.136997E-2,-7.3688194E-2,-6.9970177E-3,-1.8990366E-2,6.6300854E-2],"categories":[],"categories_nodes":[],"categories_segments":[],"categories_sizes":[],"default_left":[0,0,0,0,0,0,0,0,0,0,0,0,0,0,0,0,0,0,0,0,0,0,0,0,0,0,0],"id":8,"left_children":[1,3,-1,-1,5,7,9,11,13,15,-1,17,19,21,23,25,-1,-1,-1,-1,-1,-1,-1,-1,-1,-1,-1],"loss_changes":[1.1344467E2,8.414999E1,0E0,0E0,5.653973E1,4.22838E1,2.5047356E1,4.9366333E1,2.9619354E1,5.3907394E0,0E0,9.382057E-2,2.2159027E1,3.0781166E1,6.6925964E0,5.3938217E0,0E0,0E0,0E0,0E0,0E0,0E0,0E0,0E0,0E0,0E0,0E0],"parents":[2147483647,0,0,1,1,4,4,5,5,6,6,7,7,8,8,9,9,11,11,12,12,13,13,14,14,15,15],"right_children":[2,4,-1,-1,6,8,10,12,14,16,-1,18,20,22,24,26,-1,-1,-1,-1,-1,-1,-1,-1,-1,-1,-1],"split_conditions":[6.2292733E0,-2.289799E0,-7.396421E-2,-7.2838925E-2,2.5178135E1,3.217363E1,3.4796246E1,2.028301E1,4.1070123E0,4.24359E1,-6.779036E-2,1.5341358E0,2.8517273E1,3.25641E0,3.379601E1,3.2055314E0,-2.545887E-2,-2.1938166E-2,-7.331626E-2,-7.101912E-2,4.170629E-2,1.8765539E-2,-7.136997E-2,-7.3688194E-2,-6.9970177E-3,-1.8990366E-2,6.6300854E-2],"split_indices":[7,5,0,0,2,6,6,2,1,0,0,7,6,7,6,1,0,0,0,0,0,0,0,0,0,0,0],"split_type":[0,0,0,0,0,0,0,0,0,0,0,0,0,0,0,0,0,0,0,0,0,0,0,0,0,0,0],"sum_hessian":[3.3699194E2,2.9263596E2,4.435598E1,2.6206015E1,2.6642996E2,1.9190509E2,7.4524864E1,1.0933019E2,8.257489E1,7.142602E1,3.0988464E0,1.1169779E1,9.8160416E1,5.4855484E1,2.7719406E1,7.0206856E1,1.2191586E0,1.170605E0,9.999174E0,3.6841896E0,9.447623E1,4.3847584E1,1.10079E1,2.2993093E1,4.7263117E0,1.4995725E0,6.870728E1],"tree_param":{"num_deleted":"0","num_feature":"8","num_nodes":"27","size_leaf_vector":"1"}},{"base_weights":[-8.56005E-3,2.1015356E-1,-7.213696E-2,-7.1040384E-2,3.7306216E-1,6.727585E-1,-2.8652367E-1,2.170882E-1,1.1183089E0,-7.6398365E-2,3.6150254E-2,9.210556E-1,-2.5849032E-1,1.204919E0,-5.658558E-2,1.0603856E0,-5.480777E-1,-6.9069944E-2,5.8991957E-2,2.7475848E-3,-4.992573E-2,7.209039E-2,3.3638302E-2,-4.7970828E-2,6.2479604E-2,-6.050088E-2,3.2352667E-2],"categories":[],"categories_nodes":[],"categories_segments":[],"categories_sizes":[],"default_left":[0,0,0,0,0,0,0,0,0,0,0,0,0,0,0,0,0,0,0,0,0,0,0,0,0,0,0],"id":9,"left_children":[1,3,-1,-1,5,7,9,11,13,-1,15,17,19,21,-1,23,25,-1,-1,-1,-1,-1,-1,-1,-1,-1,-1],"loss_changes":[1.04918945E2,7.765096E1,0E0,0E0,5.2515633E1,3.6767593E1,3.346184E1,3.0826366E1,1.9278488E1,0E0,4.077357E1,2.3709435E1,1.2883974E1,1.0250336E1,0E0,1.0652578E1,3.514091E1,0E0,0E0,0E0,0E0,0E0,0E0,0E0,0E0,0E0,0E0],"parents":[2147483647,0,0,1,1,4,4,5,5,6,6,7,7,8,8,10,10,11,11,12,12,13,13,15,15,16,16],"right_children":[2,4,-1,-1,6,8,10,12,14,-1,16,18,20,22,-1,24,26,-1,-1,-1,-1,-1,-1,-1,-1,-1,-1],"split_conditions":[6.2292733E0,-2.289799E0,-7.213696E-2,-7.1040384E-2,4.1599016E0,3.9540306E1,2.0546791E1,3.4528725E1,4.8828387E0,-7.6398365E-2,3.164446E1,2.4863214E0,3.25641E0,2.4358728E0,-5.658558E-2,1.9402574E0,2.5165104E1,-6.9069944E-2,5.8991957E-2,2.7475848E-3,-4.992573E-2,7.209039E-2,3.3638302E-2,-4.7970828E-2,6.2479604E-2,-6.050088E-2,3.2352667E-2],"split_indices":[7,5,0,0,1,3,2,3,7,0,6,1,7,7,0,7,2,0,0,0,0,0,0,0,0,0,0],"split_type":[0,0,0,0,0,0,0,0,0,0,0,0,0,0,0,0,0,0,0,0,0,0,0,0,0,0,0],"sum_hessian":[3.325169E2,2.8925824E2,4.325868E1,2.556749E1,2.6369073E2,1.8129546E2,8.239529E1,9.03651E1,9.093036E1,1.6227371E1,6.6167915E1,3.6056435E1,5.4308662E1,8.800719E1,2.9231777E0,2.3737556E1,4.243036E1,3.2047768E0,3.2851658E1,3.8800293E1,1.5508369E1,5.971539E1,2.8291796E1,1.6845069E0,2.205305E1,2.7298338E1,1.5132019E1],"tree_param":{"num_deleted":"0","num_feature":"8","num_nodes":"27","size_leaf_vector":"1"}},{"base_weights":[-9.057779E-3,2.0178775E-1,-7.047474E-2,-6.939908E-2,3.584822E-1,8.8401824E-2,1.0548841E0,4.681241E-1,-4.1304788E-1,1.1781465E0,-6.630778E-2,-1.3378545E0,6.812023E-1,3.7015584E-1,-7.957649E-1,1.2160388E0,-2.6093913E-2,-2.0350946E-2,-6.9985375E-2,3.9154697E-2,-6.203056E-2,-3.6993776E-2,4.200219E-2,-5.4438353E-2,-1.2519344E-2,-1.9120775E-2,6.286986E-2],"categories":[],"categories_nodes":[],"categories_segments":[],"categories_sizes":[],"default_left":[0,0,0,0,0,0,0,0,0,0,0,0,0,0,0,0,0,0,0,0,0,0,0,0,0,0,0],"id":10,"left_children":[1,3,-1,-1,5,7,9,11,13,15,-1,17,19,21,23,25,-1,-1,-1,-1,-1,-1,-1,-1,-1,-1,-1],"loss_changes":[9.729652E1,7.184955E1,0E0,0E0,4.9095695E1,3.628297E1,2.2984749E1,4.2597363E1,2.4935787E1,5.1392517E0,0E0,1.079216E-1,2.0074993E1,1.5052516E1,8.602497E0,5.0228043E0,0E0,0E0,0E0,0E0,0E0,0E0,0E0,0E0,0E0,0E0,0E0],"parents":[2147483647,0,0,1,1,4,4,5,5,6,6,7,7,8,8,9,9,11,11,12,12,13,13,14,14,15,15],"right_children":[2,4,-1,-1,6,8,10,12,14,16,-1,18,20,22,24,26,-1,-1,-1,-1,-1,-1,-1,-1,-1,-1,-1],"split_conditions":[6.2292733E0,-2.289799E0,-7.047474E-2,-6.939908E-2,2.5178135E1,3.217363E1,3.4796246E1,2.028301E1,-6.1522615E-1,4.24359E1,-6.630778E-2,1.5341358E0,4.2272896E1,3.1099665E1,2.4979486E1,3.2055314E0,-2.6093913E-2,-2.0350946E-2,-6.9985375E-2,3.9154697E-2,-6.203056E-2,-3.6993776E-2,4.200219E-2,-5.4438353E-2,-1.2519344E-2,-1.9120775E-2,6.286986E-2],"split_indices":[7,5,0,0,2,6,6,2,5,0,0,7,3,0,2,1,0,0,0,0,0,0,0,0,0,0,0],"split_type":[0,0,0,0,0,0,0,0,0,0,0,0,0,0,0,0,0,0,0,0,0,0,0,0,0,0,0],"sum_hessian":[3.2754736E2,2.854298E2,4.2117542E1,2.490403E1,2.605258E2,1.8853471E2,7.199108E1,1.07327515E2,8.120719E1,6.892799E1,3.0630867E0,1.076957E1,9.6557945E1,2.6667282E1,5.4539913E1,6.770362E1,1.2243757E0,1.143361E0,9.62621E0,9.225903E1,4.2989106E0,7.7603E0,1.8906982E1,3.4830833E1,1.9709078E1,1.4995934E0,6.6204025E1],"tree_param":{"num_deleted":"0","num_feature":"8","num_nodes":"27","size_leaf_vector":"1"}},{"base_weights":[-9.928936E-3,1.9316426E-1,-6.895688E-2,-6.7895435E-2,3.436965E-1,6.267159E-1,-2.820474E-1,1.9220178E-1,1.0603074E0,-7.364832E-2,2.5317956E-2,8.637976E-1,-2.5411016E-1,1.3796226E0,4.3261257E-1,1.0209469E0,-5.187198E-1,-6.611809E-2,5.5616986E-2,2.3352448E-3,-4.8322525E-2,-6.1764307E-3,7.1269564E-2,-1.6457723E-2,5.5993307E-2,-5.8307987E-2,5.957703E-2,-5.510213E-2,2.7009279E-2],"categories":[],"categories_nodes":[],"categories_segments":[],"categories_sizes":[],"default_left":[0,0,0,0,0,0,0,0,0,0,0,0,0,0,0,0,0,0,0,0,0,0,0,0,0,0,0,0,0],"id":11,"left_children":[1,3,-1,-1,5,7,9,11,13,-1,15,17,19,21,23,25,27,-1,-1,-1,-1,-1,-1,-1,-1,-1,-1,-1,-1],"loss_changes":[9.029968E1,6.6502975E1,0E0,0E0,4.597505E1,3.3402695E1,2.977051E1,2.7290648E1,1.7254044E1,0E0,3.6033997E1,2.1186234E1,1.1837222E1,4.2058563E0,1.6852856E1,1.0156773E1,2.7186281E1,0E0,0E0,0E0,0E0,0E0,0E0,0E0,0E0,0E0,0E0,0E0,0E0],"parents":[2147483647,0,0,1,1,4,4,5,5,6,6,7,7,8,8,10,10,11,11,12,12,13,13,14,14,15,15,16,16],"right_children":[2,4,-1,-1,6,8,10,12,14,-1,16,18,20,22,24,26,28,-1,-1,-1,-1,-1,-1,-1,-1,-1,-1,-1,-1],"split_conditions":[6.2292733E0,-2.289799E0,-6.895688E-2,-6.7895435E-2,4.1599016E0,3.9540306E1,2.0546791E1,3.4528725E1,2.4358728E0,-7.364832E-2,3.1389877E1,2.4863214E0,3.25641E0,2.8567238E1,4.7852684E1,1.8320715E0,2.5165104E1,-6.611809E-2,5.5616986E-2,2.3352448E-3,-4.8322525E-2,-6.1764307E-3,7.1269564E-2,-1.6457723E-2,5.5993307E-2,-5.8307987E-2,5.957703E-2,-5.510213E-2,2.7009279E-2],"split_indices":[7,5,0,0,1,3,2,3,7,0,6,1,7,6,3,7,2,0,0,0,0,0,0,0,0,0,0,0,0],"split_type":[0,0,0,0,0,0,0,0,0,0,0,0,0,0,0,0,0,0,0,0,0,0,0,0,0,0,0,0,0],"sum_hessian":[3.227711E2,2.8182693E2,4.094415E1,2.4222227E1,2.576047E2,1.7737688E2,8.022781E1,8.931506E1,8.806182E1,1.5680369E1,6.454745E1,3.528457E1,5.4030495E1,5.757492E1,3.04869E1,2.2497948E1,4.20495E1,3.1609132E0,3.2123653E1,3.8645344E1,1.5385152E1,1.6510642E0,5.592386E1,1.4706714E1,1.5780188E1,1.2056006E0,2.1292347E1,2.7087164E1,1.4962336E1],"tree_param":{"num_deleted":"0","num_feature":"8","num_nodes":"29","size_leaf_vector":"1"}},{"base_weights":[-1.0223403E-2,1.858509E-1,-6.7566E-2,-6.6512935E-2,3.3081996E-1,7.95058E-2,9.916278E-1,2.0753095E-1,-1.2590573E0,1.1154807E0,-6.5516785E-2,5.2832395E-1,-2.5515231E-1,2.7997408E-3,-6.8183005E-2,1.1544673E0,-2.6915584E-2,-6.3627504E-2,3.6468044E-2,1.9639134E-2,-3.0635258E-2,-1.8248176E-2,5.977271E-2],"categories":[],"categories_nodes":[],"categories_segments":[],"categories_sizes":[],"default_left":[0,0,0,0,0,0,0,0,0,0,0,0,0,0,0,0,0,0,0,0,0,0,0],"id":12,"left_children":[1,3,-1,-1,5,7,9,11,13,15,-1,17,19,-1,-1,21,-1,-1,-1,-1,-1,-1,-1],"loss_changes":[8.4004845E1,6.1708797E1,0E0,0E0,4.2307926E1,3.2135574E1,2.1486443E1,2.5459038E1,2.3292904E0,4.9536514E0,0E0,3.7525215E1,1.6581348E1,0E0,0E0,4.544159E0,0E0,0E0,0E0,0E0,0E0,0E0,0E0],"parents":[2147483647,0,0,1,1,4,4,5,5,6,6,7,7,8,8,9,9,11,11,12,12,15,15],"right_children":[2,4,-1,-1,6,8,10,12,14,16,-1,18,20,-1,-1,22,-1,-1,-1,-1,-1,-1,-1],"split_conditions":[6.2292733E0,-2.289799E0,-6.7566E-2,-6.6512935E-2,2.5178135E1,4.476934E1,3.4796246E1,3.217363E1,3.159982E1,4.24359E1,-6.5516785E-2,2.0268076E1,-6.1522615E-1,2.7997408E-3,-6.8183005E-2,3.2055314E0,-2.6915584E-2,-6.3627504E-2,3.6468044E-2,1.9639134E-2,-3.0635258E-2,-1.8248176E-2,5.977271E-2],"split_indices":[7,5,0,0,2,3,6,6,0,0,0,2,5,0,0,1,0,0,0,0,0,0,0],"split_type":[0,0,0,0,0,0,0,0,0,0,0,0,0,0,0,0,0,0,0,0,0,0,0],"sum_hessian":[3.1751013E2,2.7776157E2,3.9748566E1,2.3527811E1,2.5423376E2,1.8499715E2,6.923661E1,1.6961911E2,1.5378041E1,6.619076E1,3.0458474E0,1.0008508E2,6.953403E1,1.1673218E0,1.421072E1,6.496128E1,1.2294769E0,9.51555E0,9.056953E1,2.4691359E1,4.484267E1,1.4986941E0,6.346259E1],"tree_param":{"num_deleted":"0","num_feature":"8","num_nodes":"23","size_leaf_vector":"1"}},{"base_weights":[-1.0878754E-2,1.7821097E-1,-6.628727E-2,-6.523749E-2,3.1761527E-1,5.8408314E-1,-2.7544925E-1,1.6676013E-1,1.0095671E0,-7.125871E-2,1.8582737E-2,4.8058894E-1,-6.9225675E-1,1.3274002E0,3.9496434E-1,9.628096E-1,-4.9910492E-1,3.2761972E-2,-7.012668E-2,-5.4638814E-2,4.337412E-2,-7.1489546E-3,6.870349E-2,-1.610502E-2,5.3156197E-2,-5.737657E-2,5.6599904E-2,-5.2134175E-2,2.435905E-2],"categories":[],"categories_nodes":[],"categories_segments":[],"categories_sizes":[],"default_left":[0,0,0,0,0,0,0,0,0,0,0,0,0,0,0,0,0,0,0,0,0,0,0,0,0,0,0,0,0],"id":13,"left_children":[1,3,-1,-1,5,7,9,11,13,-1,15,17,19,21,23,25,27,-1,-1,-1,-1,-1,-1,-1,-1,-1,-1,-1,-1],"loss_changes":[7.8191444E1,5.726592E1,0E0,0E0,4.0012985E1,3.0784378E1,2.6684887E1,2.437989E1,1.6297974E1,0E0,3.1659626E1,2.2600298E1,1.6114634E1,4.0625916E0,1.5088509E1,9.485605E0,2.2948162E1,0E0,0E0,0E0,0E0,0E0,0E0,0E0,0E0,0E0,0E0,0E0,0E0],"parents":[2147483647,0,0,1,1,4,4,5,5,6,6,7,7,8,8,10,10,11,11,12,12,13,13,14,14,15,15,16,16],"right_children":[2,4,-1,-1,6,8,10,12,14,-1,16,18,20,22,24,26,28,-1,-1,-1,-1,-1,-1,-1,-1,-1,-1,-1,-1],"split_conditions":[6.2292733E0,-2.289799E0,-6.628727E-2,-6.523749E-2,4.1599016E0,3.9540306E1,2.0546791E1,3.444137E0,2.4358728E0,-7.125871E-2,3.1389877E1,4.2129617E0,4.357314E0,2.8567238E1,4.7852684E1,1.8320715E0,2.5165104E1,3.2761972E-2,-7.012668E-2,-5.4638814E-2,4.337412E-2,-7.1489546E-3,6.870349E-2,-1.610502E-2,5.3156197E-2,-5.737657E-2,5.6599904E-2,-5.2134175E-2,2.435905E-2],"split_indices":[7,5,0,0,1,3,2,1,7,0,6,7,7,6,3,7,2,0,0,0,0,0,0,0,0,0,0,0,0],"split_type":[0,0,0,0,0,0,0,0,0,0,0,0,0,0,0,0,0,0,0,0,0,0,0,0,0,0,0,0,0],"sum_hessian":[3.1254172E2,2.740022E2,3.853953E1,2.2825771E1,2.511764E2,1.7331844E2,7.785798E1,8.820106E1,8.511737E1,1.5072893E1,6.2785088E1,6.492297E1,2.3278088E1,5.5339554E1,2.977782E1,2.192874E1,4.0856346E1,6.0009434E1,4.9135394E0,1.876013E1,4.517958E0,1.6389443E0,5.3700607E1,1.4613082E1,1.5164739E1,1.1983823E0,2.0730356E1,2.630275E1,1.4553598E1],"tree_param":{"num_deleted":"0","num_feature":"8","num_nodes":"29","size_leaf_vector":"1"}},{"base_weights":[-1.1159016E-2,1.7150667E-1,-6.510805E-2,-6.405703E-2,3.0580726E-1,5.623063E-1,-2.673992E-1,1.5872668E-1,9.7968704E-1,-7.4517034E-2,2.3318236E-3,7.844952E-1,-2.4741785E-1,1.063075E0,-5.3654887E-2,-6.8083465E-2,3.043042E-1,-4.5853734E-2,5.4772567E-2,-6.088544E-2,-1.4938986E-3,6.473685E-2,2.8264632E-2,5.5986673E-2,-1.0496547E-2],"categories":[],"categories_nodes":[],"categories_segments":[],"categories_sizes":[],"default_left":[0,0,0,0,0,0,0,0,0,0,0,0,0,0,0,0,0,0,0,0,0,0,0,0,0],"id":14,"left_children":[1,3,-1,-1,5,7,9,11,13,-1,15,17,19,21,-1,-1,23,-1,-1,-1,-1,-1,-1,-1,-1],"loss_changes":[7.291477E1,5.324648E1,0E0,0E0,3.6731003E1,2.8852425E1,2.5598923E1,2.2748909E1,1.5599022E1,0E0,2.7010408E1,1.9612728E1,1.148351E1,8.685913E0,0E0,0E0,2.2745962E1,0E0,0E0,0E0,0E0,0E0,0E0,0E0,0E0],"parents":[2147483647,0,0,1,1,4,4,5,5,6,6,7,7,8,8,10,10,11,11,12,12,13,13,16,16],"right_children":[2,4,-1,-1,6,8,10,12,14,-1,16,18,20,22,-1,-1,24,-1,-1,-1,-1,-1,-1,-1,-1],"split_conditions":[6.2292733E0,-2.289799E0,-6.510805E-2,-6.405703E-2,4.1599016E0,3.9540306E1,1.9852085E0,3.4528725E1,4.8828387E0,-7.4517034E-2,2.052079E1,2.766055E0,3.5426685E1,2.4358728E0,-5.3654887E-2,-6.8083465E-2,3.1389877E1,-4.5853734E-2,5.4772567E-2,-6.088544E-2,-1.4938986E-3,6.473685E-2,2.8264632E-2,5.5986673E-2,-1.0496547E-2],"split_indices":[7,5,0,0,1,3,7,3,7,0,2,1,3,7,0,0,6,0,0,0,0,0,0,0,0],"split_type":[0,0,0,0,0,0,0,0,0,0,0,0,0,0,0,0,0,0,0,0,0,0,0,0,0],"sum_hessian":[3.0724738E2,2.699228E2,3.73246E1,2.2120419E1,2.4780235E2,1.7120871E2,7.659364E1,8.77452E1,8.346352E1,1.3022997E1,6.3570644E1,3.4168465E1,5.357674E1,8.066873E1,2.7947795E0,1.0886657E1,5.2683987E1,4.97821E0,2.9190254E1,8.970056E0,4.4606686E1,5.395684E1,2.6711893E1,1.9919659E1,3.276433E1],"tree_param":{"num_deleted":"0","num_feature":"8","num_nodes":"25","size_leaf_vector":"1"}},{"base_weights":[-1.1607908E-2,1.6471009E-1,-6.401744E-2,-1.1994251E0,2.9989934E-1,-4.4466496E-1,-6.608422E-2,6.905271E-2,9.163572E-1,-4.8226845E-2,3.3253446E-2,4.2479146E-1,-3.9541453E-1,1.0554647E0,-5.5112083E-2,-1.202022E0,6.074463E-1,-6.1778735E-2,-1.0506132E0,1.1241854E0,3.3365265E-2,-1.4790264E-2,-6.35069E-2,-6.833928E-2,3.5158288E-2,-5.5354267E-2,2.211373E-2,-6.400385E-2,3.7152846E-3,-1.6003074E-3,5.827421E-2,-2.971434E-2,4.2156335E-2],"categories":[],"categories_nodes":[],"categories_segments":[],"categories_sizes":[],"default_left":[0,0,0,0,0,0,0,0,0,0,0,0,0,0,0,0,0,0,0,0,0,0,0,0,0,0,0,0,0,0,0,0,0],"id":15,"left_children":[1,3,-1,5,7,9,-1,11,13,-1,-1,15,17,19,-1,21,23,25,27,29,31,-1,-1,-1,-1,-1,-1,-1,-1,-1,-1,-1,-1],"loss_changes":[6.80401E1,4.9617752E1,0E0,1.6531143E0,3.4633858E1,3.4639182E0,0E0,2.965673E1,1.9793613E1,0E0,0E0,3.0904522E1,1.6969233E1,4.3580627E0,0E0,2.7775574E-1,1.83392E1,2.8254158E1,6.865698E0,2.8357391E0,3.0286102E0,0E0,0E0,0E0,0E0,0E0,0E0,0E0,0E0,0E0,0E0,0E0,0E0],"parents":[2147483647,0,0,1,1,3,3,4,4,5,5,7,7,8,8,11,11,12,12,13,13,15,15,16,16,17,17,18,18,19,19,20,20],"right_children":[2,4,-1,6,8,10,-1,12,14,-1,-1,16,18,20,-1,22,24,26,28,30,32,-1,-1,-1,-1,-1,-1,-1,-1,-1,-1,-1,-1],"split_conditions":[6.2292733E0,-2.2245746E0,-6.401744E-2,2.958049E0,2.5178135E1,2.7374685E0,-6.608422E-2,3.217363E1,4.24359E1,-4.8226845E-2,3.3253446E-2,2.028301E1,4.1070123E0,3.5735886E1,-5.5112083E-2,1.5341358E0,2.8517273E1,3.9138348E1,3.379601E1,3.931401E1,3.3096979E0,-1.4790264E-2,-6.35069E-2,-6.833928E-2,3.5158288E-2,-5.5354267E-2,2.211373E-2,-6.400385E-2,3.7152846E-3,-1.6003074E-3,5.827421E-2,-2.971434E-2,4.2156335E-2],"split_indices":[7,5,0,1,2,1,0,6,0,0,0,2,1,2,0,7,6,3,6,3,1,0,0,0,0,0,0,0,0,0,0,0,0],"split_type":[0,0,0,0,0,0,0,0,0,0,0,0,0,0,0,0,0,0,0,0,0,0,0,0,0,0,0,0,0,0,0,0,0],"sum_hessian":[3.0221255E2,2.6610226E2,3.6110283E1,2.3283773E1,2.428185E2,3.89225E0,1.9391523E1,1.7747208E2,6.534643E1,2.7396555E0,1.1525946E0,1.0054748E2,7.69246E1,6.1579906E1,3.766522E0,9.586306E0,9.096117E1,5.1695072E1,2.5229527E1,5.7606846E1,3.9730623E0,1.043691E0,8.542615E0,3.5922031E0,8.7368965E1,1.6428745E1,3.5266327E1,2.0840498E1,4.389028E0,1.9944909E0,5.5612354E1,2.388114E0,1.5849483E0],"tree_param":{"num_deleted":"0","num_feature":"8","num_nodes":"33","size_leaf_vector":"1"}},{"base_weights":[-1.2447058E-2,1.577808E-1,-6.300598E-2,-1.1771961E0,2.8801817E-1,-4.321134E-1,-6.496669E-2,5.3538835E-1,-2.6029748E-1,-4.7354378E-2,3.239951E-2,1.5560119E-1,9.2883945E-1,-7.2006375E-2,-2.4484084E-3,8.162995E-1,-2.657125E-1,1.2477119E0,3.3507222E-1,-6.665317E-2,2.902137E-1,-4.3674752E-2,5.683912E-2,9.6863223E-4,-4.6233416E-2,-8.209451E-3,6.4793825E-2,-1.7255567E-2,4.9929075E-2,5.343048E-2,-9.779165E-3],"categories":[],"categories_nodes":[],"categories_segments":[],"categories_sizes":[],"default_left":[0,0,0,0,0,0,0,0,0,0,0,0,0,0,0,0,0,0,0,0,0,0,0,0,0,0,0,0,0,0,0],"id":16,"left_children":[1,3,-1,5,7,9,-1,11,13,-1,-1,15,17,-1,19,21,23,25,27,-1,29,-1,-1,-1,-1,-1,-1,-1,-1,-1,-1],"loss_changes":[6.3515602E1,4.6102722E1,0E0,1.5855446E0,3.277668E1,3.2952871E0,0E0,2.46818E1,2.2958809E1,0E0,0E0,2.4083755E1,1.4994293E1,0E0,2.4898636E1,1.9205975E1,9.994957E0,3.7893143E0,1.3797543E1,0E0,2.0030144E1,0E0,0E0,0E0,0E0,0E0,0E0,0E0,0E0,0E0,0E0],"parents":[2147483647,0,0,1,1,3,3,4,4,5,5,7,7,8,8,11,11,12,12,14,14,15,15,16,16,17,17,18,18,20,20],"right_children":[2,4,-1,6,8,10,-1,12,14,-1,-1,16,18,-1,20,22,24,26,28,-1,30,-1,-1,-1,-1,-1,-1,-1,-1,-1,-1],"split_conditions":[6.2292733E0,-2.2245746E0,-6.300598E-2,2.958049E0,4.1599016E0,2.7374685E0,-6.496669E-2,3.9540306E1,1.9852085E0,-4.7354378E-2,3.239951E-2,3.4528725E1,2.4358728E0,-7.2006375E-2,2.052079E1,2.766055E0,3.25641E0,2.8567238E1,4.7852684E1,-6.665317E-2,3.1389877E1,-4.3674752E-2,5.683912E-2,9.6863223E-4,-4.6233416E-2,-8.209451E-3,6.4793825E-2,-1.7255567E-2,4.9929075E-2,5.343048E-2,-9.779165E-3],"split_indices":[7,5,0,1,1,1,0,3,7,0,0,3,7,0,2,1,7,6,3,0,6,0,0,0,0,0,0,0,0,0,0],"split_type":[0,0,0,0,0,0,0,0,0,0,0,0,0,0,0,0,0,0,0,0,0,0,0,0,0,0,0,0,0,0,0],"sum_hessian":[2.971176E2,2.6221542E2,3.4902172E1,2.25928E1,2.3962263E2,3.821039E0,1.877176E1,1.6514278E2,7.447986E1,2.6708002E0,1.1502386E0,8.474058E1,8.04022E1,1.253568E1,6.194418E1,3.263123E1,5.210935E1,5.159347E1,2.880873E1,1.0527046E1,5.1417133E1,4.9270506E0,2.7704178E1,3.7050663E1,1.5058689E1,1.6225026E0,4.997097E1,1.4462573E1,1.4346155E1,1.9297274E1,3.211986E1],"tree_param":{"num_deleted":"0","num_feature":"8","num_nodes":"31","size_leaf_vector":"1"}},{"base_weights":[-1.2657197E-2,1.5188642E-1,-6.206545E-2,-6.09949E-2,2.7179748E-1,5.3468175E-2,8.7268245E-1,5.617657E-1,-2.2712508E-1,9.991515E-1,-6.430563E-2,7.515013E-1,-6.789304E-1,-1.3116305E0,-9.857474E-3,1.0415951E0,-2.8728355E-2,-2.9681403E-2,4.6478003E-2,-7.0425555E-2,1.5291172E-2,-3.4774892E-2,-7.0940204E-2,4.0127587E-2,-3.414135E-2,5.5678394E-2,5.3389795E-4],"categories":[],"categories_nodes":[],"categories_segments":[],"categories_sizes":[],"default_left":[0,0,0,0,0,0,0,0,0,0,0,0,0,0,0,0,0,0,0,0,0,0,0,0,0,0,0],"id":17,"left_children":[1,3,-1,-1,5,7,9,11,13,15,-1,17,19,21,23,25,-1,-1,-1,-1,-1,-1,-1,-1,-1,-1,-1],"loss_changes":[5.940833E1,4.2971283E1,0E0,0E0,3.133425E1,2.5303204E1,1.8672142E1,1.5357487E1,2.6953497E1,4.654396E0,0E0,1.3768101E1,6.8187723E0,2.7402115E-1,5.322595E1,4.4016495E0,0E0,0E0,0E0,0E0,0E0,0E0,0E0,0E0,0E0,0E0,0E0],"parents":[2147483647,0,0,1,1,4,4,5,5,6,6,7,7,8,8,9,9,11,11,12,12,13,13,14,14,15,15],"right_children":[2,4,-1,-1,6,8,10,12,14,16,-1,18,20,22,24,26,-1,-1,-1,-1,-1,-1,-1,-1,-1,-1,-1],"split_conditions":[6.2292733E0,-2.289799E0,-6.206545E-2,-6.09949E-2,2.5178135E1,-6.1522615E-1,3.4796246E1,3.8760157E0,2.052079E1,4.24359E1,-6.430563E-2,2.766055E0,3.1547976E1,-3.2277232E-1,3.2138752E1,3.5735886E1,-2.8728355E-2,-2.9681403E-2,4.6478003E-2,-7.0425555E-2,1.5291172E-2,-3.4774892E-2,-7.0940204E-2,4.0127587E-2,-3.414135E-2,5.5678394E-2,5.3389795E-4],"split_indices":[7,5,0,0,2,5,6,1,2,0,0,1,0,5,6,2,0,0,0,0,0,0,0,0,0,0,0],"split_type":[0,0,0,0,0,0,0,0,0,0,0,0,0,0,0,0,0,0,0,0,0,0,0,0,0,0,0],"sum_hessian":[2.919254E2,2.582204E2,3.3705036E1,2.0019835E1,2.3820055E2,1.7551633E2,6.2684223E1,6.2071365E1,1.1344496E2,5.9722652E1,2.9615722E0,5.4180073E1,7.8912945E0,1.8093441E1,9.535152E1,5.8483467E1,1.2391822E0,6.0607524E0,4.811932E1,4.285759E0,3.605535E0,3.7906625E0,1.4302778E1,4.3112965E1,5.2238552E1,5.4592E1,3.891468E0],"tree_param":{"num_deleted":"0","num_feature":"8","num_nodes":"27","size_leaf_vector":"1"}},{"base_weights":[-1.33335E-2,1.4579682E-1,-6.1188657E-2,-1.1428689E0,2.675028E-1,-4.029153E-1,-6.333088E-2,5.020261E-1,-2.5385335E-1,-4.545928E-2,3.102078E-2,1.3686863E-1,8.891305E-1,-7.0252456E-2,-3.3612133E-3,7.721968E-1,-2.5895458E-1,1.1909041E0,2.740937E-1,-6.401541E-2,2.7014932E-1,-6.1297685E-2,5.092869E-2,-5.7460546E-2,-2.6895457E-3,-9.27156E-3,6.1914988E-2,-2.4992315E-2,4.7762778E-2,5.086791E-2,-9.41293E-3],"categories":[],"categories_nodes":[],"categories_segments":[],"categories_sizes":[],"default_left":[0,0,0,0,0,0,0,0,0,0,0,0,0,0,0,0,0,0,0,0,0,0,0,0,0,0,0,0,0,0,0],"id":18,"left_children":[1,3,-1,5,7,9,-1,11,13,-1,-1,15,17,-1,19,21,23,25,27,-1,29,-1,-1,-1,-1,-1,-1,-1,-1,-1,-1],"loss_changes":[5.5575607E1,4.031187E1,0E0,1.5225983E0,2.8723684E1,2.971827E0,0E0,2.2728085E1,2.1111786E1,0E0,0E0,2.1415775E1,1.4203373E1,0E0,2.170102E1,1.7315264E1,9.569014E0,3.6359024E0,1.4746535E1,0E0,1.7723324E1,0E0,0E0,0E0,0E0,0E0,0E0,0E0,0E0,0E0,0E0],"parents":[2147483647,0,0,1,1,3,3,4,4,5,5,7,7,8,8,11,11,12,12,14,14,15,15,16,16,17,17,18,18,20,20],"right_children":[2,4,-1,6,8,10,-1,12,14,-1,-1,16,18,-1,20,22,24,26,28,-1,30,-1,-1,-1,-1,-1,-1,-1,-1,-1,-1],"split_conditions":[6.2292733E0,-2.2245746E0,-6.1188657E-2,2.958049E0,4.1599016E0,2.7374685E0,-6.333088E-2,3.9540306E1,1.9852085E0,-4.545928E-2,3.102078E-2,3.4528725E1,2.4731357E0,-7.0252456E-2,2.052079E1,2.4863214E0,3.5426685E1,2.8567238E1,4.7852684E1,-6.401541E-2,3.1389877E1,-6.1297685E-2,5.092869E-2,-5.7460546E-2,-2.6895457E-3,-9.27156E-3,6.1914988E-2,-2.4992315E-2,4.7762778E-2,5.086791E-2,-9.41293E-3],"split_indices":[7,5,0,1,1,1,0,3,7,0,0,3,7,0,2,1,3,6,3,0,6,0,0,0,0,0,0,0,0,0,0],"split_type":[0,0,0,0,0,0,0,0,0,0,0,0,0,0,0,0,0,0,0,0,0,0,0,0,0,0,0,0,0,0,0],"sum_hessian":[2.866018E2,2.540789E2,3.2522907E1,2.1201336E1,2.3287758E2,3.6474385E0,1.7553898E1,1.6064929E2,7.222829E1,2.5148265E0,1.132612E0,8.336461E1,7.7284676E1,1.2084046E1,6.014424E1,3.1635777E1,5.1728836E1,5.1217834E1,2.606684E1,9.960469E0,5.018377E1,3.0361629E0,2.8599613E1,8.826596E0,4.290224E1,1.6080741E0,4.960976E1,1.2327008E1,1.3739831E1,1.8617596E1,3.1566174E1],"tree_param":{"num_deleted":"0","num_feature":"8","num_nodes":"31","size_leaf_vector":"1"}},{"base_weights":[-1.3710466E-2,2.1396053E-1,-8.2130486E-1,-3.611089E-2,9.1945904E-1,-1.0204823E-1,-1.1680465E0,1.3404195E-1,-8.574144E-1,9.62759E-1,-2.9278874E-2,-9.2982084E-1,8.3445257E-1,-6.286608E-2,-7.7054864E-1,-1.0804023E0,2.9174328E-1,-1.0807198E0,7.0904784E-2,1.0333407E0,-9.772898E-3,-5.648145E-2,-2.1523995E-2,-3.3450413E-2,1.0868334E0,3.402744E-2,-1.0712998E0,-3.9202613E-1,-6.2391657E-2,6.9983286E-1,-5.448259E-2,-1.1454562E0,-4.946352E-3,6.76748E-2,-5.23566E-2,-3.3467498E-3,1.0777264E0,-5.9743595E-1,3.946187E-2,-5.6031602E-3,3.975337E-3,5.833611E-2,1.0560996E-2,-1.4214289E-2,-5.6905564E-2,-4.4688318E-2,3.0249948E-2,-2.786012E-2,4.3124776E-2,-3.9021593E-2,1.9120554E-2,-6.2002797E-2,-2.6231287E-2,5.5479854E-2,-1.0956712E-2,1.23769585E-2,-5.694055E-2],"categories":[],"categories_nodes":[],"categories_segments":[],"categories_sizes":[],"default_left":[0,0,0,0,0,0,0,0,0,0,0,0,0,0,0,0,0,0,0,0,0,0,0,0,0,0,0,0,0,0,0,0,0,0,0,0,0,0,0,0,0,0,0,0,0,0,0,0,0,0,0,0,0,0,0,0,0],"id":19,"left_children":[1,3,5,7,9,11,13,15,17,19,-1,21,23,-1,25,27,29,31,33,35,37,-1,39,-1,41,-1,43,45,-1,47,49,51,-1,-1,-1,-1,53,55,-1,-1,-1,-1,-1,-1,-1,-1,-1,-1,-1,-1,-1,-1,-1,-1,-1,-1,-1],"loss_changes":[5.211291E1,3.904895E1,1.54249115E1,2.306628E1,4.3377457E0,1.7341406E1,5.201149E-1,2.6536861E1,5.9475403E0,3.9001045E0,0E0,2.1201086E0,4.731418E0,0E0,5.2146397E0,1.3489323E0,1.7270794E1,1.3415833E0,1.0637826E1,2.652897E0,2.7371786E0,0E0,3.7723813E-2,0E0,4.1231823E-1,0E0,1.4453697E-1,2.8309588E0,0E0,1.194203E1,2.1520424E1,6.051178E-1,0E0,0E0,0E0,0E0,2.3450623E0,1.8141063E0,0E0,0E0,0E0,0E0,0E0,0E0,0E0,0E0,0E0,0E0,0E0,0E0,0E0,0E0,0E0,0E0,0E0,0E0,0E0],"parents":[2147483647,0,0,1,1,2,2,3,3,4,4,5,5,6,6,7,7,8,8,9,9,11,11,12,12,14,14,15,15,16,16,17,17,18,18,19,19,20,20,22,22,24,24,26,26,27,27,29,29,30,30,31,31,36,36,37,37],"right_children":[2,4,6,8,10,12,14,16,18,20,-1,22,24,-1,26,28,30,32,34,36,38,-1,40,-1,42,-1,44,46,-1,48,50,52,-1,-1,-1,-1,54,56,-1,-1,-1,-1,-1,-1,-1,-1,-1,-1,-1,-1,-1,-1,-1,-1,-1,-1,-1],"split_conditions":[5.1367598E0,2.5178135E1,3.164446E1,4.5780597E0,4.24359E1,3.0687832E1,1.23E2,-2.2245746E0,3.9352734E0,3.5735886E1,-2.9278874E-2,2.0631363E1,2.0449623E1,-6.286608E-2,1.33E2,2.958049E0,-5.672117E-1,3.335629E1,4.4038784E1,3.931401E1,3.3096979E0,-5.648145E-2,4.214951E1,-3.3450413E-2,3.0751263E1,3.402744E-2,3.259666E1,2.7374685E0,-6.2391657E-2,2.766055E0,3.90911E1,1.6E2,-4.946352E-3,6.76748E-2,-5.23566E-2,-3.3467498E-3,3.4754173E1,3.2816635E1,3.946187E-2,-5.6031602E-3,3.975337E-3,5.833611E-2,1.0560996E-2,-1.4214289E-2,-5.6905564E-2,-4.4688318E-2,3.0249948E-2,-2.786012E-2,4.3124776E-2,-3.9021593E-2,1.9120554E-2,-6.2002797E-2,-2.6231287E-2,5.5479854E-2,-1.0956712E-2,1.23769585E-2,-5.694055E-2],"split_indices":[7,2,6,1,0,6,4,5,7,2,0,2,2,0,4,1,5,6,3,3,1,0,3,0,6,0,6,1,0,1,3,4,0,0,0,0,6,6,0,0,0,0,0,0,0,0,0,0,0,0,0,0,0,0,0,0,0],"split_type":[0,0,0,0,0,0,0,0,0,0,0,0,0,0,0,0,0,0,0,0,0,0,0,0,0,0,0,0,0,0,0,0,0,0,0,0,0,0,0,0,0,0,0,0,0,0,0,0,0,0,0,0,0,0,0,0,0],"sum_hessian":[2.814733E2,2.2014635E2,6.1326954E1,1.6323485E2,5.69115E1,2.0369076E1,4.095788E1,1.3591382E2,2.7321032E1,5.5670177E1,1.241324E0,1.0815974E1,9.553102E0,3.167976E1,9.278117E0,1.4948188E1,1.2096563E2,2.189102E1,5.430013E0,5.1844994E1,3.8251846E0,8.665951E0,2.1500232E0,1.1358609E0,8.41724E0,1.3760363E0,7.902081E0,3.5781953E0,1.1369992E1,5.5053654E1,6.591197E1,2.0380495E1,1.5105232E0,2.4308202E0,2.9991927E0,1.990653E0,4.985434E1,2.349462E0,1.4757227E0,1.076296E0,1.0737274E0,7.4088154E0,1.0084251E0,1.0295392E0,6.872542E0,2.4492223E0,1.1289731E0,6.029899E0,4.9023754E1,2.4468468E1,4.144351E1,1.6820099E1,3.5603967E0,4.8799473E1,1.0548668E0,1.1294233E0,1.2200388E0],"tree_param":{"num_deleted":"0","num_feature":"8","num_nodes":"57","size_leaf_vector":"1"}},{"base_weights":[-1.4322381E-2,1.3519283E-1,-5.9668045E-2,-1.1064835E0,2.4877027E-1,-3.815747E-1,-6.1549425E-2,4.869652E-2,8.105002E-1,-4.394293E-2,2.9503746E-2,3.7601426E-1,-3.6858407E-1,9.359688E-1,-6.1849933E-2,-1.1024635E0,5.3195167E-1,2.5250387E-1,-6.5737116E-1,9.798726E-1,-2.8506935E-2,-1.3523425E-2,-5.8952283E-2,-6.394501E-2,3.1146366E-2,-4.1979935E-2,3.602468E-2,-4.7321495E-2,-6.6720047E-3,5.2632432E-2,-5.1458896E-4],"categories":[],"categories_nodes":[],"categories_segments":[],"categories_sizes":[],"default_left":[0,0,0,0,0,0,0,0,0,0,0,0,0,0,0,0,0,0,0,0,0,0,0,0,0,0,0,0,0,0,0],"id":20,"left_children":[1,3,-1,5,7,9,-1,11,13,-1,-1,15,17,19,-1,21,23,25,27,29,-1,-1,-1,-1,-1,-1,-1,-1,-1,-1,-1],"loss_changes":[4.904027E1,3.51042E1,0E0,1.4148712E0,2.5482216E1,2.6976974E0,0E0,2.3154316E1,1.6462746E1,0E0,0E0,2.2472569E1,1.3542902E1,4.3082504E0,0E0,2.789278E-1,1.5054779E1,1.3072382E1,7.6257763E0,4.0078125E0,0E0,0E0,0E0,0E0,0E0,0E0,0E0,0E0,0E0,0E0,0E0],"parents":[2147483647,0,0,1,1,3,3,4,4,5,5,7,7,8,8,11,11,12,12,13,13,15,15,16,16,17,17,18,18,19,19],"right_children":[2,4,-1,6,8,10,-1,12,14,-1,-1,16,18,20,-1,22,24,26,28,30,-1,-1,-1,-1,-1,-1,-1,-1,-1,-1,-1],"split_conditions":[6.2292733E0,-2.2245746E0,-5.9668045E-2,2.958049E0,2.5178135E1,2.7374685E0,-6.1549425E-2,3.217363E1,3.4796246E1,-4.394293E-2,2.9503746E-2,2.028301E1,-6.1522615E-1,4.24359E1,-6.1849933E-2,1.6204484E0,2.8517273E1,3.1099665E1,2.4979486E1,3.5735886E1,-2.8506935E-2,-1.3523425E-2,-5.8952283E-2,-6.394501E-2,3.1146366E-2,-4.1979935E-2,3.602468E-2,-4.7321495E-2,-6.6720047E-3,5.2632432E-2,-5.1458896E-4],"split_indices":[7,5,0,1,2,1,0,6,6,0,0,2,5,0,0,7,6,0,2,2,0,0,0,0,0,0,0,0,0,0,0],"split_type":[0,0,0,0,0,0,0,0,0,0,0,0,0,0,0,0,0,0,0,0,0,0,0,0,0,0,0,0,0,0,0],"sum_hessian":[2.7627353E2,2.4596744E2,3.0306072E1,1.9880741E1,2.260867E2,3.5098712E0,1.637087E1,1.6751047E2,5.8576233E1,2.3848295E0,1.1250416E0,9.3930016E1,7.358045E1,5.570553E1,2.8707058E0,8.382617E0,8.55474E1,2.3393728E1,5.0186726E1,5.4467182E1,1.2383446E0,1.0885266E0,7.2940903E0,3.4676163E0,8.207979E1,6.779351E0,1.6614376E1,3.182314E1,1.8363586E1,5.0679207E1,3.7879736E0],"tree_param":{"num_deleted":"0","num_feature":"8","num_nodes":"31","size_leaf_vector":"1"}},{"base_weights":[-1.5164106E-2,1.2924507E-1,-5.8943428E-2,-1.0894612E0,2.3869729E-1,-3.71536E-1,-6.0726173E-2,4.5834473E-1,-2.5153112E-1,-4.32212E-2,2.8780947E-2,1.1339959E-1,8.373595E-1,-6.84162E-2,-1.0788228E-2,7.281541E-1,-2.5826004E-1,1.1615529E0,2.6191226E-1,-6.2051356E-2,2.4900907E-1,-3.9463263E-2,5.157244E-2,5.4202636E-4,-4.420952E-2,-8.914794E-3,6.0655482E-2,-1.5987819E-2,4.6286106E-2,4.810042E-2,-9.198908E-3],"categories":[],"categories_nodes":[],"categories_segments":[],"categories_sizes":[],"default_left":[0,0,0,0,0,0,0,0,0,0,0,0,0,0,0,0,0,0,0,0,0,0,0,0,0,0,0,0,0,0,0],"id":21,"left_children":[1,3,-1,5,7,9,-1,11,13,-1,-1,15,17,-1,19,21,23,25,27,-1,29,-1,-1,-1,-1,-1,-1,-1,-1,-1,-1],"loss_changes":[4.595192E1,3.2720608E1,0E0,1.3654785E0,2.424758E1,2.571556E0,0E0,2.0186043E1,1.8803032E1,0E0,0E0,1.900779E1,1.3455406E1,0E0,1.9034157E1,1.5217688E1,8.780604E0,3.4551163E0,1.1057E1,0E0,1.5367477E1,0E0,0E0,0E0,0E0,0E0,0E0,0E0,0E0,0E0,0E0],"parents":[2147483647,0,0,1,1,3,3,4,4,5,5,7,7,8,8,11,11,12,12,14,14,15,15,16,16,17,17,18,18,20,20],"right_children":[2,4,-1,6,8,10,-1,12,14,-1,-1,16,18,-1,20,22,24,26,28,-1,30,-1,-1,-1,-1,-1,-1,-1,-1,-1,-1],"split_conditions":[6.2292733E0,-2.2245746E0,-5.8943428E-2,2.958049E0,4.1599016E0,2.7374685E0,-6.0726173E-2,3.9540306E1,1.9852085E0,-4.32212E-2,2.8780947E-2,3.4528725E1,2.4358728E0,-6.84162E-2,2.052079E1,2.766055E0,3.25641E0,2.8567238E1,4.8290134E1,-6.2051356E-2,3.1389877E1,-3.9463263E-2,5.157244E-2,5.4202636E-4,-4.420952E-2,-8.914794E-3,6.0655482E-2,-1.5987819E-2,4.6286106E-2,4.810042E-2,-9.198908E-3],"split_indices":[7,5,0,1,1,1,0,3,7,0,0,3,7,0,2,1,7,6,3,0,6,0,0,0,0,0,0,0,0,0,0],"split_type":[0,0,0,0,0,0,0,0,0,0,0,0,0,0,0,0,0,0,0,0,0,0,0,0,0,0,0,0,0,0,0],"sum_hessian":[2.7153595E2,2.4235056E2,2.9185406E1,1.9233997E1,2.2311655E2,3.4425738E0,1.5791424E1,1.5412549E2,6.8991066E1,2.3217235E0,1.1208503E0,8.136949E1,7.275599E1,1.1404141E1,5.758693E1,3.029687E1,5.1072624E1,4.5886242E1,2.686975E1,9.38212E0,4.8204807E1,4.7799416E0,2.5516928E1,3.6404324E1,1.4668301E1,1.6091657E0,4.4277073E1,1.4597167E1,1.2272582E1,1.7751556E1,3.045325E1],"tree_param":{"num_deleted":"0","num_feature":"8","num_nodes":"31","size_leaf_vector":"1"}},{"base_weights":[-1.5331159E-2,1.2444496E-1,-5.82616E-2,-5.707884E-2,2.2460426E-1,3.5386242E-2,7.729572E-1,1.3598533E-1,-1.086805E0,8.9850235E-1,-6.0665485E-2,4.035279E-1,-2.2965313E-1,6.9494033E-3,-6.0244143E-2,9.4402695E-1,-2.9002992E-2,-2.9265562E-2,3.1323925E-2,-4.405174E-2,2.9115472E-4,5.0915796E-2,-1.575776E-3],"categories":[],"categories_nodes":[],"categories_segments":[],"categories_sizes":[],"default_left":[0,0,0,0,0,0,0,0,0,0,0,0,0,0,0,0,0,0,0,0,0,0,0],"id":22,"left_children":[1,3,-1,-1,5,7,9,11,13,15,-1,17,19,-1,-1,21,-1,-1,-1,-1,-1,-1,-1],"loss_changes":[4.31425E1,3.0616535E1,0E0,0E0,2.3080482E1,1.8958017E1,1.5325504E1,1.5138279E1,2.1676464E0,4.2003555E0,0E0,2.0027119E1,1.0070987E1,0E0,0E0,3.8750305E0,0E0,0E0,0E0,0E0,0E0,0E0,0E0],"parents":[2147483647,0,0,1,1,4,4,5,5,6,6,7,7,8,8,9,9,11,11,12,12,15,15],"right_children":[2,4,-1,-1,6,8,10,12,14,16,-1,18,20,-1,-1,22,-1,-1,-1,-1,-1,-1,-1],"split_conditions":[6.2292733E0,-2.289799E0,-5.82616E-2,-5.707884E-2,2.5178135E1,4.476934E1,3.4796246E1,3.217363E1,-9.1461426E-1,4.24359E1,-6.0665485E-2,2.036549E1,3.9138348E1,6.9494033E-3,-6.0244143E-2,3.5735886E1,-2.9002992E-2,-2.9265562E-2,3.1323925E-2,-4.405174E-2,2.9115472E-4,5.0915796E-2,-1.575776E-3],"split_indices":[7,5,0,0,2,3,6,6,5,0,0,2,3,0,0,2,0,0,0,0,0,0,0],"split_type":[0,0,0,0,0,0,0,0,0,0,0,0,0,0,0,0,0,0,0,0,0,0,0],"sum_hessian":[2.6651602E2,2.3842595E2,2.8090073E1,1.6717522E1,2.2170842E2,1.6562231E2,5.6086117E1,1.5280307E2,1.2819243E1,5.3266937E1,2.8191774E0,8.817824E1,6.4624825E1,1.1107905E0,1.1708453E1,5.2026573E1,1.2403634E0,1.5924404E1,7.225384E1,1.64311E1,4.819372E1,4.830429E1,3.7222853E0],"tree_param":{"num_deleted":"0","num_feature":"8","num_nodes":"23","size_leaf_vector":"1"}},{"base_weights":[-1.5834605E-2,1.1910664E-1,-5.761857E-2,-5.640806E-2,2.1548802E-1,3.3284113E-2,7.524341E-1,4.7945192E-1,-2.1278414E-1,8.761544E-1,-5.920718E-2,6.586839E-1,-6.6949326E-1,-1.2322754E0,-1.8201409E-2,9.215688E-1,-2.8240586E-2,3.8298007E-2,-5.4838866E-2,-6.728861E-2,1.3086735E-2,-6.5622695E-2,-2.5474802E-2,3.471942E-2,-3.0872205E-2,4.9804974E-2,-1.5130057E-3],"categories":[],"categories_nodes":[],"categories_segments":[],"categories_sizes":[],"default_left":[0,0,0,0,0,0,0,0,0,0,0,0,0,0,0,0,0,0,0,0,0,0,0,0,0,0,0],"id":23,"left_children":[1,3,-1,-1,5,7,9,11,13,15,-1,17,19,21,23,25,-1,-1,-1,-1,-1,-1,-1,-1,-1,-1,-1],"loss_changes":[4.049541E1,2.8628872E1,0E0,0E0,2.1501305E1,1.8253176E1,1.4383017E1,1.2606549E1,2.125386E1,3.9843178E0,0E0,1.0559008E1,5.685193E0,3.2660675E-1,3.932035E1,3.6972847E0,0E0,0E0,0E0,0E0,0E0,0E0,0E0,0E0,0E0,0E0,0E0],"parents":[2147483647,0,0,1,1,4,4,5,5,6,6,7,7,8,8,9,9,11,11,12,12,13,13,14,14,15,15],"right_children":[2,4,-1,-1,6,8,10,12,14,16,-1,18,20,22,24,26,-1,-1,-1,-1,-1,-1,-1,-1,-1,-1,-1],"split_conditions":[6.2292733E0,-2.289799E0,-5.761857E-2,-5.640806E-2,2.5178135E1,-6.1522615E-1,3.4796246E1,3.8760157E0,2.052079E1,4.24359E1,-5.920718E-2,2.508497E1,3.1547976E1,2.0455296E1,3.217363E1,3.5735886E1,-2.8240586E-2,3.8298007E-2,-5.4838866E-2,-6.728861E-2,1.3086735E-2,-6.5622695E-2,-2.5474802E-2,3.471942E-2,-3.0872205E-2,4.9804974E-2,-1.5130057E-3],"split_indices":[7,5,0,0,2,5,6,1,2,0,0,2,0,2,6,2,0,0,0,0,0,0,0,0,0,0,0],"split_type":[0,0,0,0,0,0,0,0,0,0,0,0,0,0,0,0,0,0,0,0,0,0,0,0,0,0,0],"sum_hessian":[2.621498E2,2.3512819E2,2.7021618E1,1.60981E1,2.1903009E2,1.6432953E2,5.4700565E1,5.807686E1,1.0625267E2,5.1930504E1,2.7700603E0,5.060875E1,7.468107E0,1.6174667E1,9.0078E1,5.069327E1,1.2372315E0,4.822537E1,2.3833816E0,4.068391E0,3.3997164E0,1.3825185E1,2.349482E0,4.1074944E1,4.9003063E1,4.696897E1,3.7243004E0],"tree_param":{"num_deleted":"0","num_feature":"8","num_nodes":"27","size_leaf_vector":"1"}},{"base_weights":[-1.6593533E-2,1.1401015E-1,-5.701076E-2,-1.0492966E0,2.1290505E-1,-3.1384882E-1,-5.9200007E-2,4.2023283E-1,-2.534483E-1,-4.0726375E-2,2.8652657E-2,9.31293E-2,7.9213554E-1,-6.742018E-2,-1.7808605E-2,3.7854022E-1,-6.346922E-1,1.0436243E0,4.055783E-2,-5.9652623E-2,2.2345169E-1,2.7137283E-2,-6.463241E-2,-4.9863603E-2,3.9434575E-2,-1.0345633E-2,5.4350466E-2,-7.1313284E-2,3.2969546E-2,4.700694E-2,-8.279156E-3],"categories":[],"categories_nodes":[],"categories_segments":[],"categories_sizes":[],"default_left":[0,0,0,0,0,0,0,0,0,0,0,0,0,0,0,0,0,0,0,0,0,0,0,0,0,0,0,0,0,0,0],"id":24,"left_children":[1,3,-1,5,7,9,-1,11,13,-1,-1,15,17,-1,19,21,23,25,27,-1,29,-1,-1,-1,-1,-1,-1,-1,-1,-1,-1],"loss_changes":[3.8025867E1,2.694315E1,0E0,1.4478798E0,2.0883644E1,2.3334932E0,0E0,1.8068233E1,1.7200151E1,0E0,0E0,1.6957834E1,1.312318E1,0E0,1.6129988E1,1.6737251E1,1.2678788E1,3.0542755E0,1.7736935E1,0E0,1.3332778E1,0E0,0E0,0E0,0E0,0E0,0E0,0E0,0E0,0E0,0E0],"parents":[2147483647,0,0,1,1,3,3,4,4,5,5,7,7,8,8,11,11,12,12,14,14,15,15,16,16,17,17,18,18,20,20],"right_children":[2,4,-1,6,8,10,-1,12,14,-1,-1,16,18,-1,20,22,24,26,28,-1,30,-1,-1,-1,-1,-1,-1,-1,-1,-1,-1],"split_conditions":[6.2292733E0,-2.2245746E0,-5.701076E-2,2.958049E0,4.1599016E0,2.7374685E0,-5.9200007E-2,3.9540306E1,1.9852085E0,-4.0726375E-2,2.8652657E-2,3.444137E0,3.0431032E0,-6.742018E-2,2.052079E1,4.2129617E0,4.357314E0,2.8567238E1,3.4434265E1,-5.9652623E-2,3.0751263E1,2.7137283E-2,-6.463241E-2,-4.9863603E-2,3.9434575E-2,-1.0345633E-2,5.4350466E-2,-7.1313284E-2,3.2969546E-2,4.700694E-2,-8.279156E-3],"split_indices":[7,5,0,1,1,1,0,3,7,0,0,1,7,0,2,7,7,6,0,0,6,0,0,0,0,0,0,0,0,0,0],"split_type":[0,0,0,0,0,0,0,0,0,0,0,0,0,0,0,0,0,0,0,0,0,0,0,0,0,0,0,0,0,0,0],"sum_hessian":[2.5723575E2,2.3125452E2,2.5981237E1,1.7366076E1,2.1388844E2,3.203837E0,1.4162238E1,1.4813197E2,6.575648E1,2.09996E0,1.103877E0,7.9478134E1,6.865383E1,1.0808755E1,5.4947723E1,5.7435165E1,2.2042965E1,5.1149796E1,1.750404E1,8.686817E0,4.6260906E1,5.2911495E1,4.523673E0,1.780647E1,4.2364936E0,1.5886621E0,4.9561134E1,4.8064704E0,1.2697569E1,1.5777926E1,3.0482979E1],"tree_param":{"num_deleted":"0","num_feature":"8","num_nodes":"31","size_leaf_vector":"1"}},{"base_weights":[-1.7141722E-2,1.09221675E-1,-5.643496E-2,-1.0347395E0,2.047283E-1,-3.057303E-1,-5.851962E-2,4.0505293E-1,-2.4567032E-1,-4.0095534E-2,2.7964473E-2,8.846405E-2,7.7125806E-1,-6.599399E-2,-1.7491091E-2,6.6120946E-1,-2.4626273E-1,1.1038259E0,2.0505822E-1,-5.8661807E-2,2.149563E-1,-7.09516E-2,4.3713722E-2,-5.4274607E-2,-2.6685665E-3,-1.0009209E-2,5.7967503E-2,-1.6885644E-2,4.3068532E-2,4.5781013E-2,-7.883144E-3],"categories":[],"categories_nodes":[],"categories_segments":[],"categories_sizes":[],"default_left":[0,0,0,0,0,0,0,0,0,0,0,0,0,0,0,0,0,0,0,0,0,0,0,0,0,0,0,0,0,0,0],"id":25,"left_children":[1,3,-1,5,7,9,-1,11,13,-1,-1,15,17,-1,19,21,23,25,27,-1,29,-1,-1,-1,-1,-1,-1,-1,-1,-1,-1],"loss_changes":[3.5736885E1,2.5185507E1,0E0,1.4003105E0,1.9209484E1,2.2265868E0,0E0,1.6971655E1,1.6111515E1,0E0,0E0,1.5491779E1,1.2581493E1,0E0,1.5110182E1,1.4432938E1,8.229265E0,3.318058E0,9.694138E0,0E0,1.2386568E1,0E0,0E0,0E0,0E0,0E0,0E0,0E0,0E0,0E0,0E0],"parents":[2147483647,0,0,1,1,3,3,4,4,5,5,7,7,8,8,11,11,12,12,14,14,15,15,16,16,17,17,18,18,20,20],"right_children":[2,4,-1,6,8,10,-1,12,14,-1,-1,16,18,-1,20,22,24,26,28,-1,30,-1,-1,-1,-1,-1,-1,-1,-1,-1,-1],"split_conditions":[6.2292733E0,-2.2245746E0,-5.643496E-2,2.958049E0,4.1599016E0,2.7374685E0,-5.851962E-2,3.9540306E1,1.9852085E0,-4.0095534E-2,2.7964473E-2,3.4528725E1,2.4358728E0,-6.599399E-2,2.052079E1,3.1471272E1,3.5426685E1,2.8567238E1,4.8290134E1,-5.8661807E-2,3.0751263E1,-7.09516E-2,4.3713722E-2,-5.4274607E-2,-2.6685665E-3,-1.0009209E-2,5.7967503E-2,-1.6885644E-2,4.3068532E-2,4.5781013E-2,-7.883144E-3],"split_indices":[7,5,0,1,1,1,0,3,7,0,0,3,7,0,2,3,3,6,3,0,6,0,0,0,0,0,0,0,0,0,0],"split_type":[0,0,0,0,0,0,0,0,0,0,0,0,0,0,0,0,0,0,0,0,0,0,0,0,0,0,0,0,0,0,0],"sum_hessian":[2.5254947E2,2.2757964E2,2.496983E1,1.6778273E1,2.1080136E2,3.142736E0,1.3635537E1,1.4597603E2,6.482534E1,2.0435185E0,1.0992174E0,7.8957695E1,6.7018326E1,1.0519207E1,5.4306133E1,2.8764267E1,5.0193428E1,4.162159E1,2.5396738E1,8.415643E0,4.589049E1,2.1465468E0,2.661772E1,8.515747E0,4.167768E1,1.5934429E0,4.0028145E1,1.4166482E1,1.1230257E1,1.5426196E1,3.0464296E1],"tree_param":{"num_deleted":"0","num_feature":"8","num_nodes":"31","size_leaf_vector":"1"}},{"base_weights":[-1.7483195E-2,1.0478097E-1,-5.5888243E-2,-1.0206684E0,1.9702326E-1,-2.9792255E-1,-5.786658E-2,1.8701741E-2,6.76586E-1,-3.9480586E-2,2.7296765E-2,4.9231905E-1,-2.4151933E-1,8.050917E-1,-4.981701E-2,6.779927E-1,-6.440349E-1,-1.1730938E0,-6.265093E-2,-3.9229926E-1,8.8365436E-1,-2.6524855E-2,4.3235756E-2,-6.41095E-2,1.213693E-2,-2.7689597E-2,-6.467992E-2,3.2149184E-2,-3.2513786E-2,-6.831076E-2,4.9117118E-2,-3.1519607E-2,4.6826508E-2],"categories":[],"categories_nodes":[],"categories_segments":[],"categories_sizes":[],"default_left":[0,0,0,0,0,0,0,0,0,0,0,0,0,0,0,0,0,0,0,0,0,0,0,0,0,0,0,0,0,0,0,0,0],"id":26,"left_children":[1,3,-1,5,7,9,-1,11,13,-1,-1,15,17,19,-1,21,23,25,27,29,31,-1,-1,-1,-1,-1,-1,-1,-1,-1,-1,-1,-1],"loss_changes":[3.361436E1,2.3560886E1,0E0,1.3548012E0,1.7843899E1,2.1251523E0,0E0,1.9004856E1,1.2963547E1,0E0,0E0,1.197111E1,1.6517914E1,5.3406067E0,0E0,1.1172077E1,4.946377E0,4.763527E-1,3.549261E1,6.6453295E0,4.603298E0,0E0,0E0,0E0,0E0,0E0,0E0,0E0,0E0,0E0,0E0,0E0,0E0],"parents":[2147483647,0,0,1,1,3,3,4,4,5,5,7,7,8,8,11,11,12,12,13,13,15,15,16,16,17,17,18,18,19,19,20,20],"right_children":[2,4,-1,6,8,10,-1,12,14,-1,-1,16,18,20,-1,22,24,26,28,30,32,-1,-1,-1,-1,-1,-1,-1,-1,-1,-1,-1,-1],"split_conditions":[6.2292733E0,-2.2245746E0,-5.5888243E-2,2.958049E0,2.5122898E1,2.7374685E0,-5.786658E-2,-6.1522615E-1,4.24359E1,-3.9480586E-2,2.7296765E-2,3.8760157E0,2.052079E1,3.931401E1,-4.981701E-2,2.766055E0,3.1547976E1,-3.2277232E-1,3.2138752E1,1.5750517E0,3.221848E0,-2.6524855E-2,4.3235756E-2,-6.41095E-2,1.213693E-2,-2.7689597E-2,-6.467992E-2,3.2149184E-2,-3.2513786E-2,-6.831076E-2,4.9117118E-2,-3.1519607E-2,4.6826508E-2],"split_indices":[7,5,0,1,2,1,0,5,0,0,0,1,2,3,0,1,0,5,6,5,1,0,0,0,0,0,0,0,0,0,0,0,0],"split_type":[0,0,0,0,0,0,0,0,0,0,0,0,0,0,0,0,0,0,0,0,0,0,0,0,0,0,0,0,0,0,0,0,0],"sum_hessian":[2.480038E2,2.2401576E2,2.3988039E1,1.6207142E1,2.0780861E2,3.0829391E0,1.3124202E1,1.5223883E2,5.5569782E1,1.988555E0,1.0943842E0,5.3668022E1,9.857081E1,5.208744E1,3.4823403E0,4.647727E1,7.1907544E0,1.4982291E1,8.358852E1,2.9612317E0,4.912621E1,5.9736958E0,4.050357E1,3.922252E0,3.2685025E0,3.3518653E0,1.1630426E1,3.7937733E1,4.5650787E1,1.7368358E0,1.2243959E0,1.2891941E0,4.7837017E1],"tree_param":{"num_deleted":"0","num_feature":"8","num_nodes":"33","size_leaf_vector":"1"}},{"base_weights":[-1.8241838E-2,1.0021293E-1,-5.5367976E-2,-5.407635E-2,1.839818E-1,2.0347763E-2,6.8381685E-1,1.1007538E-1,-1.0229523E0,8.0926E-1,-5.812317E-2,3.511244E-1,-2.0781122E-1,7.040766E-3,-5.7380635E-2,9.2503136E-1,8.2786836E-2,-6.0645796E-2,2.293017E-2,-4.1933086E-2,1.1664598E-3,2.3073101E-2,5.854659E-2,-2.0374991E-2,3.6761917E-2],"categories":[],"categories_nodes":[],"categories_segments":[],"categories_sizes":[],"default_left":[0,0,0,0,0,0,0,0,0,0,0,0,0,0,0,0,0,0,0,0,0,0,0,0,0],"id":27,"left_children":[1,3,-1,-1,5,7,9,11,13,15,-1,17,19,-1,-1,21,23,-1,-1,-1,-1,-1,-1,-1,-1],"loss_changes":[3.161406E1,2.209154E1,0E0,0E0,1.694674E1,1.4833671E1,1.2778761E1,1.1237737E1,1.9823875E0,3.9983883E0,0E0,1.4548845E1,9.273753E0,0E0,0E0,4.212311E0,2.7813568E0,0E0,0E0,0E0,0E0,0E0,0E0,0E0,0E0],"parents":[2147483647,0,0,1,1,4,4,5,5,6,6,7,7,8,8,9,9,11,11,12,12,15,15,16,16],"right_children":[2,4,-1,-1,6,8,10,12,14,16,-1,18,20,-1,-1,22,24,-1,-1,-1,-1,-1,-1,-1,-1],"split_conditions":[6.2292733E0,-2.289799E0,-5.5367976E-2,-5.407635E-2,2.5178135E1,4.476934E1,3.4796246E1,3.217363E1,-9.1461426E-1,4.2372654E1,-5.812317E-2,2.8517273E1,3.9138348E1,7.040766E-3,-5.7380635E-2,4.540995E1,3.3707493E1,-6.0645796E-2,2.293017E-2,-4.1933086E-2,1.1664598E-3,2.3073101E-2,5.854659E-2,-2.0374991E-2,3.6761917E-2],"split_indices":[7,5,0,0,2,3,6,6,5,0,0,6,3,0,0,3,6,0,0,0,0,0,0,0,0],"split_type":[0,0,0,0,0,0,0,0,0,0,0,0,0,0,0,0,0,0,0,0,0,0,0,0,0],"sum_hessian":[2.4318881E2,2.2015254E2,2.3036274E1,1.3784314E1,2.0636823E2,1.5625484E2,5.0113388E1,1.4470424E2,1.1550599E1,4.7451065E1,2.662321E0,8.223899E1,6.246525E1,1.1050262E0,1.0445573E1,4.0692894E1,6.75817E0,4.626644E0,7.761234E1,1.6045092E1,4.6420155E1,1.5101088E1,2.5591808E1,4.0729628E0,2.6852074E0],"tree_param":{"num_deleted":"0","num_feature":"8","num_nodes":"25","size_leaf_vector":"1"}},{"base_weights":[-1.8513562E-2,9.580374E-2,-5.4871757E-2,-5.3539522E-2,1.7640205E-1,3.6124E-1,-2.4800071E-1,5.9128918E-2,7.3167145E-1,-6.505593E-2,-2.4906093E-2,3.2293788E-1,-6.126302E-1,9.992516E-1,1.2540796E-2,-5.6945205E-2,1.9354564E-1,2.3757406E-2,-6.297424E-2,-4.7415618E-2,3.6514647E-2,-9.925361E-3,5.228709E-2,-4.8979796E-2,3.946325E-2,4.3489248E-2,-8.048572E-3],"categories":[],"categories_nodes":[],"categories_segments":[],"categories_sizes":[],"default_left":[0,0,0,0,0,0,0,0,0,0,0,0,0,0,0,0,0,0,0,0,0,0,0,0,0,0,0],"id":28,"left_children":[1,3,-1,-1,5,7,9,11,13,-1,15,17,19,21,23,-1,25,-1,-1,-1,-1,-1,-1,-1,-1,-1,-1],"loss_changes":[2.9759956E1,2.0716343E1,0E0,0E0,1.6176292E1,1.5989094E1,1.4724165E1,1.437408E1,1.2353714E1,0E0,1.3081385E1,1.459063E1,1.1016521E1,2.8149757E0,1.4983646E1,0E0,1.0937572E1,0E0,0E0,0E0,0E0,0E0,0E0,0E0,0E0,0E0,0E0],"parents":[2147483647,0,0,1,1,4,4,5,5,6,6,7,7,8,8,10,10,11,11,12,12,13,13,14,14,16,16],"right_children":[2,4,-1,-1,6,8,10,12,14,-1,16,18,20,22,24,-1,26,-1,-1,-1,-1,-1,-1,-1,-1,-1,-1],"split_conditions":[6.2292733E0,-2.289799E0,-5.4871757E-2,-5.3539522E-2,4.1599016E0,3.9540306E1,1.9852085E0,3.444137E0,2.8329844E0,-6.505593E-2,2.052079E1,4.2129617E0,4.357314E0,2.8567238E1,4.8290134E1,-5.6945205E-2,3.0751263E1,2.3757406E-2,-6.297424E-2,-4.7415618E-2,3.6514647E-2,-9.925361E-3,5.228709E-2,-4.8979796E-2,3.946325E-2,4.3489248E-2,-8.048572E-3],"split_indices":[7,5,0,0,1,3,7,1,7,0,2,7,7,6,3,0,6,0,0,0,0,0,0,0,0,0,0],"split_type":[0,0,0,0,0,0,0,0,0,0,0,0,0,0,0,0,0,0,0,0,0,0,0,0,0,0,0],"sum_hessian":[2.3943266E2,2.1731792E2,2.211475E1,1.3249971E1,2.0406795E2,1.4225931E2,6.180864E1,7.899409E1,6.326522E1,9.960059E0,5.184858E1,5.709239E1,2.1901695E1,4.5824814E1,1.7440409E1,7.8096457E0,4.4038933E1,5.2720993E1,4.3713984E0,1.7756947E1,4.1447487E0,1.590023E0,4.423479E1,7.5435643E0,9.896844E0,1.4646804E1,2.939213E1],"tree_param":{"num_deleted":"0","num_feature":"8","num_nodes":"27","size_leaf_vector":"1"}},{"base_weights":[-1.8857352E-2,9.180017E-2,-5.4397393E-2,-9.848878E-1,1.7517756E-1,-2.4288863E-1,-5.6670215E-2,3.5863164E-1,-2.4051537E-1,-3.7269875E-2,2.7417112E-2,-6.739898E-2,4.1734856E-1,-6.376988E-2,-2.4349155E-2,5.3268886E-1,-4.51031E-1,-5.6085534E-2,1.8626226E-1,-4.0869582E-2,2.9662294E-2,3.1745158E-2,-4.3020032E-2,4.2375095E-2,-7.664205E-3],"categories":[],"categories_nodes":[],"categories_segments":[],"categories_sizes":[],"default_left":[0,0,0,0,0,0,0,0,0,0,0,0,0,0,0,0,0,0,0,0,0,0,0,0,0],"id":29,"left_children":[1,3,-1,5,7,9,-1,11,13,-1,-1,-1,15,-1,17,19,21,-1,23,-1,-1,-1,-1,-1,-1],"loss_changes":[2.8031292E1,1.946238E1,0E0,1.4432526E0,1.5359911E1,1.9488786E0,0E0,1.4527323E1,1.3821635E1,0E0,0E0,0E0,1.3810553E1,0E0,1.228324E1,1.030064E1,7.8489914E0,0E0,1.0163465E1,0E0,0E0,0E0,0E0,0E0,0E0],"parents":[2147483647,0,0,1,1,3,3,4,4,5,5,7,7,8,8,12,12,14,14,15,15,16,16,18,18],"right_children":[2,4,-1,6,8,10,-1,12,14,-1,-1,-1,16,-1,18,20,22,-1,24,-1,-1,-1,-1,-1,-1],"split_conditions":[6.2292733E0,-2.2245746E0,-5.4397393E-2,2.958049E0,4.1599016E0,2.7374685E0,-5.6670215E-2,2.586178E0,1.9852085E0,-3.7269875E-2,2.7417112E-2,-6.739898E-2,4.2839622E0,-6.376988E-2,2.052079E1,2.6457323E1,2.0552797E1,-5.6085534E-2,3.0751263E1,-4.0869582E-2,2.9662294E-2,3.1745158E-2,-4.3020032E-2,4.2375095E-2,-7.664205E-3],"split_indices":[7,5,0,1,1,1,0,1,7,0,0,0,7,0,2,0,2,0,6,0,0,0,0,0,0],"split_type":[0,0,0,0,0,0,0,0,0,0,0,0,0,0,0,0,0,0,0,0,0,0,0,0,0],"sum_hessian":[2.3510088E2,2.1387737E2,2.1223507E1,1.4594892E1,1.9928249E2,2.8736005E0,1.1721291E1,1.38359E2,6.092348E1,1.7928759E0,1.0807247E0,3.8716624E0,1.3448734E2,9.680174E0,5.124331E1,1.1906006E2,1.5427277E1,7.5546875E0,4.368862E1,4.574586E0,1.1448547E2,4.072701E0,1.1354575E1,1.43151045E1,2.9373514E1],"tree_param":{"num_deleted":"0","num_feature":"8","num_nodes":"25","size_leaf_vector":"1"}},{"base_weights":[-1.9584779E-2,8.712901E-2,-5.394289E-2,-5.254466E-2,1.619853E-1,-2.5145283E-3,6.2242955E-1,4.2008924E-1,-2.4356756E-1,7.505693E-1,-4.852308E-2,5.851032E-1,-6.161705E-1,-6.144474E-2,-8.966007E-2,-4.0403187E-1,8.325515E-1,-2.5672784E-2,3.774747E-2,-6.128645E-2,1.17527405E-2,2.6342852E-2,-3.1074176E-2,-6.625231E-2,4.629324E-2,-3.0752912E-2,4.4344142E-2],"categories":[],"categories_nodes":[],"categories_segments":[],"categories_sizes":[],"default_left":[0,0,0,0,0,0,0,0,0,0,0,0,0,0,0,0,0,0,0,0,0,0,0,0,0,0,0],"id":30,"left_children":[1,3,-1,-1,5,7,9,11,13,15,-1,17,19,-1,21,23,25,-1,-1,-1,-1,-1,-1,-1,-1,-1,-1],"loss_changes":[2.6386417E1,1.825E1,0E0,0E0,1.5150267E1,1.5214958E1,1.1474731E1,9.637376E0,1.4311791E1,5.002283E0,0E0,9.215403E0,4.4076242E0,0E0,2.7650085E1,6.054277E0,4.1910706E0,0E0,0E0,0E0,0E0,0E0,0E0,0E0,0E0,0E0,0E0],"parents":[2147483647,0,0,1,1,4,4,5,5,6,6,7,7,8,8,9,9,11,11,12,12,14,14,15,15,16,16],"right_children":[2,4,-1,-1,6,8,10,12,14,16,-1,18,20,-1,22,24,26,-1,-1,-1,-1,-1,-1,-1,-1,-1,-1],"split_conditions":[6.2292733E0,-2.289799E0,-5.394289E-2,-5.254466E-2,2.5122898E1,-6.1522615E-1,4.24359E1,3.8760157E0,2.0455296E1,3.931401E1,-4.852308E-2,2.766055E0,3.1547976E1,-6.144474E-2,3.2138752E1,1.5750517E0,3.221848E0,-2.5672784E-2,3.774747E-2,-6.128645E-2,1.17527405E-2,2.6342852E-2,-3.1074176E-2,-6.625231E-2,4.629324E-2,-3.0752912E-2,4.4344142E-2],"split_indices":[7,5,0,0,2,5,0,1,2,3,0,1,0,0,6,5,1,0,0,0,0,0,0,0,0,0,0],"split_type":[0,0,0,0,0,0,0,0,0,0,0,0,0,0,0,0,0,0,0,0,0,0,0,0,0,0,0],"sum_hessian":[2.3159593E2,2.1123349E2,2.036244E1,1.2232155E1,1.9900134E2,1.4735231E2,5.164903E1,5.3251446E1,9.410087E1,4.8292915E1,3.3561115E0,4.6312084E1,6.9393644E0,1.1769164E1,8.23317E1,2.941257E0,4.535166E1,5.9305334E0,4.038155E1,3.7873225E0,3.1520417E0,3.8134068E1,4.419763E1,1.7399257E0,1.2013311E0,1.2672206E0,4.408444E1],"tree_param":{"num_deleted":"0","num_feature":"8","num_nodes":"27","size_leaf_vector":"1"}},{"base_weights":[-2.0167254E-2,8.3190724E-2,-5.35064E-2,-9.668834E-1,1.6128913E-1,-2.2428852E-1,-5.5973735E-2,2.6023476E-3,6.047588E-1,-3.5949714E-2,2.6399357E-2,4.3482348E-1,-2.3470613E-1,7.17525E-1,-5.6284506E-2,6.0631895E-1,-5.979549E-1,-6.0206242E-2,-8.595449E-2,-3.896334E-1,7.966553E-1,-9.636987E-3,4.3600302E-2,-5.987795E-2,1.1309846E-2,2.5275487E-2,-2.9796971E-2,-6.409135E-2,4.525623E-2,4.610676E-2,1.0768076E-3],"categories":[],"categories_nodes":[],"categories_segments":[],"categories_sizes":[],"default_left":[0,0,0,0,0,0,0,0,0,0,0,0,0,0,0,0,0,0,0,0,0,0,0,0,0,0,0,0,0,0,0],"id":31,"left_children":[1,3,-1,5,7,9,-1,11,13,-1,-1,15,17,19,-1,21,23,-1,25,27,29,-1,-1,-1,-1,-1,-1,-1,-1,-1,-1],"loss_changes":[2.4863865E1,1.7276361E1,0E0,1.4026842E0,1.3732916E1,1.7708541E0,0E0,1.49479265E1,1.0843243E1,0E0,0E0,9.510999E0,1.34641285E1,4.593889E0,0E0,9.6776085E0,4.1545334E0,0E0,2.5230888E1,5.7033997E0,4.450283E0,0E0,0E0,0E0,0E0,0E0,0E0,0E0,0E0,0E0,0E0],"parents":[2147483647,0,0,1,1,3,3,4,4,5,5,7,7,8,8,11,11,12,12,13,13,15,15,16,16,18,18,19,19,20,20],"right_children":[2,4,-1,6,8,10,-1,12,14,-1,-1,16,18,20,-1,22,24,-1,26,28,30,-1,-1,-1,-1,-1,-1,-1,-1,-1,-1],"split_conditions":[6.2292733E0,-2.2245746E0,-5.35064E-2,2.958049E0,2.5122898E1,2.7374685E0,-5.5973735E-2,-6.1522615E-1,3.4796246E1,-3.5949714E-2,2.6399357E-2,3.8760157E0,2.0455296E1,3.931401E1,-5.6284506E-2,3.0843818E0,3.1547976E1,-6.0206242E-2,3.2138752E1,1.5750517E0,4.2372654E1,-9.636987E-3,4.3600302E-2,-5.987795E-2,1.1309846E-2,2.5275487E-2,-2.9796971E-2,-6.409135E-2,4.525623E-2,4.610676E-2,1.0768076E-3],"split_indices":[7,5,0,1,2,1,0,5,6,0,0,1,2,3,0,1,0,0,6,5,0,0,0,0,0,0,0,0,0,0,0],"split_type":[0,0,0,0,0,0,0,0,0,0,0,0,0,0,0,0,0,0,0,0,0,0,0,0,0,0,0,0,0,0,0],"sum_hessian":[2.2729364E2,2.0776231E2,1.9531324E1,1.3594659E1,1.9416766E2,2.738319E0,1.085634E1,1.4373929E2,5.042837E1,1.6786554E0,1.0596635E0,5.0652035E1,9.308725E1,4.7892754E1,2.5356195E0,4.3793015E1,6.8590183E0,1.1439678E1,8.1647575E1,2.9329002E0,4.4959854E1,1.0996227E1,3.2796787E1,3.7081256E0,3.1508927E0,3.7807926E1,4.383965E1,1.7423007E0,1.1905996E0,3.8532383E1,6.4274693E0],"tree_param":{"num_deleted":"0","num_feature":"8","num_nodes":"31","size_leaf_vector":"1"}},{"base_weights":[-2.056397E-2,7.9553746E-2,-5.3086247E-2,-9.5474464E-1,1.5511736E-1,-2.187438E-1,-5.5432912E-2,3.2679418E-1,-2.3860802E-1,-3.5426654E-2,2.5789618E-2,4.0513236E-2,6.838804E-1,-6.337547E-2,-2.4285967E-2,2.971487E-1,-5.902641E-1,1.0331403E0,1.2270718E-1,-5.4190185E-2,1.7204927E-1,-6.497971E-2,2.20952E-2,-4.520001E-2,3.2804318E-2,-1.2396141E-2,5.484605E-2,-1.9442264E-2,3.757556E-2,4.0215656E-2,-7.417032E-3],"categories":[],"categories_nodes":[],"categories_segments":[],"categories_sizes":[],"default_left":[0,0,0,0,0,0,0,0,0,0,0,0,0,0,0,0,0,0,0,0,0,0,0,0,0,0,0,0,0,0,0],"id":32,"left_children":[1,3,-1,5,7,9,-1,11,13,-1,-1,15,17,-1,19,21,23,25,27,-1,29,-1,-1,-1,-1,-1,-1,-1,-1,-1,-1],"loss_changes":[2.3445684E1,1.6199877E1,0E0,1.3573513E0,1.3073505E1,1.6924331E0,0E0,1.3701872E1,1.29697895E1,0E0,0E0,1.2414453E1,1.1573963E1,0E0,1.0548244E1,1.3149563E1,9.273735E0,3.2675323E0,8.0239525E0,0E0,8.806971E0,0E0,0E0,0E0,0E0,0E0,0E0,0E0,0E0,0E0,0E0],"parents":[2147483647,0,0,1,1,3,3,4,4,5,5,7,7,8,8,11,11,12,12,14,14,15,15,16,16,17,17,18,18,20,20],"right_children":[2,4,-1,6,8,10,-1,12,14,-1,-1,16,18,-1,20,22,24,26,28,-1,30,-1,-1,-1,-1,-1,-1,-1,-1,-1,-1],"split_conditions":[6.2292733E0,-2.2245746E0,-5.3086247E-2,2.958049E0,4.1599016E0,2.7374685E0,-5.5432912E-2,3.9540306E1,1.9852085E0,-3.5426654E-2,2.5789618E-2,3.444137E0,2.4358728E0,-6.337547E-2,2.052079E1,2.586178E0,4.357314E0,2.8567238E1,4.7852684E1,-5.4190185E-2,3.0751263E1,-6.497971E-2,2.20952E-2,-4.520001E-2,3.2804318E-2,-1.2396141E-2,5.484605E-2,-1.9442264E-2,3.757556E-2,4.0215656E-2,-7.417032E-3],"split_indices":[7,5,0,1,1,1,0,3,7,0,0,1,7,0,2,1,7,6,3,0,6,0,0,0,0,0,0,0,0,0,0],"split_type":[0,0,0,0,0,0,0,0,0,0,0,0,0,0,0,0,0,0,0,0,0,0,0,0,0,0,0,0,0,0,0],"sum_hessian":[2.2311285E2,2.0438304E2,1.8729818E1,1.312302E1,1.9126001E2,2.6884255E0,1.0434594E1,1.3330486E2,5.7955166E1,1.6341643E0,1.0542612E0,7.4605804E1,5.8699043E1,9.143877E0,4.8811287E1,5.3406128E1,2.119968E1,3.5662544E1,2.3036499E1,6.924304E0,4.1886986E1,3.776048E0,4.963008E1,1.715583E1,4.043849E0,1.5544074E0,3.410814E1,1.2912982E1,1.0123518E1,1.3579166E1,2.8307817E1],"tree_param":{"num_deleted":"0","num_feature":"8","num_nodes":"31","size_leaf_vector":"1"}},{"base_weights":[-2.0800157E-2,1.6676421E-1,-5.6779003E-1,-7.505367E-3,7.527207E-1,-3.1344134E-1,-5.9557267E-2,1.3486744E-1,-9.019186E-1,8.845326E-1,4.0436447E-2,-1.0049914E0,2.2287804E-1,-6.200379E-2,2.0956215E-1,-5.372816E-2,-3.9696386E-1,4.2778844E-1,5.5095118E-2,-3.4718756E-2,5.0965554E-1,-3.4536587E-3,-5.8627572E-2,-3.6936226E-1,8.611971E-1,-8.460117E-1,3.0162233E-1,2.2987943E-2,-6.655087E-1,-8.1079505E-2,9.7428954E-1,-1.2980129E-2,4.2836007E-2,-3.4168974E-2,4.09675E-2,5.687569E-1,-1.1681522E0,1.18735E0,1.9089255E-1,1.1119453E-2,-5.4560006E-2,3.2773282E-2,7.872411E-4,-4.3791924E-2,3.8349652E-3,5.3292613E-2,9.015671E-3,-3.5583608E-2,5.080214E-2,-7.005205E-2,5.1775593E-3,7.1381755E-2,2.4258914E-4,3.9716296E-2,-3.4246814E-2],"categories":[],"categories_nodes":[],"categories_segments":[],"categories_sizes":[],"default_left":[0,0,0,0,0,0,0,0,0,0,0,0,0,0,0,0,0,0,0,0,0,0,0,0,0,0,0,0,0,0,0,0,0,0,0,0,0,0,0,0,0,0,0,0,0,0,0,0,0,0,0,0,0,0,0],"id":33,"left_children":[1,3,5,7,9,11,-1,13,15,17,19,21,23,-1,25,-1,27,29,-1,-1,31,33,-1,35,37,39,41,-1,43,-1,45,-1,-1,-1,-1,47,49,51,53,-1,-1,-1,-1,-1,-1,-1,-1,-1,-1,-1,-1,-1,-1,-1,-1],"loss_changes":[2.2691124E1,1.6832186E1,8.579298E0,1.6420912E1,3.5116158E0,1.560111E1,0E0,1.16895685E1,1.1170874E0,2.6893044E0,2.7494943E0,3.0654526E0,9.454958E0,0E0,1.0595903E1,0E0,1.7087841E0,1.4907702E1,0E0,0E0,1.5084754E0,2.587612E0,0E0,1.0583621E1,2.3819866E0,2.5476298E0,9.964971E0,0E0,8.556495E-1,0E0,5.3620815E-1,0E0,0E0,0E0,0E0,4.594719E0,2.359458E0,2.2193089E0,3.2379203E0,0E0,0E0,0E0,0E0,0E0,0E0,0E0,0E0,0E0,0E0,0E0,0E0,0E0,0E0,0E0,0E0],"parents":[2147483647,0,0,1,1,2,2,3,3,4,4,5,5,7,7,8,8,9,9,10,10,11,11,12,12,14,14,16,16,17,17,20,20,21,21,23,23,24,24,25,25,26,26,28,28,30,30,35,35,36,36,37,37,38,38],"right_children":[2,4,6,8,10,12,-1,14,16,18,20,22,24,-1,26,-1,28,30,-1,-1,32,34,-1,36,38,40,42,-1,44,-1,46,-1,-1,-1,-1,48,50,52,54,-1,-1,-1,-1,-1,-1,-1,-1,-1,-1,-1,-1,-1,-1,-1,-1],"split_conditions":[4.24554E0,2.5178135E1,1.868577E0,4.5780597E0,4.2372654E1,-1.19458206E-1,-5.9557267E-2,2.6207945E0,3.1380181E0,4.420294E1,4.7852684E1,3.050424E1,4.1673523E1,-6.200379E-2,-2.2245746E0,-5.372816E-2,3.25641E0,1.868577E0,5.5095118E-2,-3.4718756E-2,3.5432117E1,-1.4057448E0,-5.8627572E-2,2.0552797E1,4.9983854E0,2.958049E0,-5.672117E-1,2.2987943E-2,1.6E2,-8.1079505E-2,7.2254786E0,-1.2980129E-2,4.2836007E-2,-3.4168974E-2,4.09675E-2,2.7870043E1,1.46E2,3.466018E1,3.0751263E1,1.1119453E-2,-5.4560006E-2,3.2773282E-2,7.872411E-4,-4.3791924E-2,3.8349652E-3,5.3292613E-2,9.015671E-3,-3.5583608E-2,5.080214E-2,-7.005205E-2,5.1775593E-3,7.1381755E-2,2.4258914E-4,3.9716296E-2,-3.4246814E-2],"split_indices":[7,2,5,1,0,5,0,1,7,3,3,6,3,0,5,0,7,5,0,0,2,5,0,2,1,1,5,0,4,0,5,0,0,0,0,0,4,6,6,0,0,0,0,0,0,0,0,0,0,0,0,0,0,0,0],"split_type":[0,0,0,0,0,0,0,0,0,0,0,0,0,0,0,0,0,0,0,0,0,0,0,0,0,0,0,0,0,0,0,0,0,0,0,0,0,0,0,0,0,0,0,0,0,0,0,0,0,0,0,0,0,0,0],"sum_hessian":[2.1924718E2,1.6378125E2,5.5465935E1,1.2699793E2,3.678332E1,4.045986E1,1.5006073E1,1.10291E2,1.6706926E1,3.083527E1,5.948053E0,1.729071E1,2.316915E1,4.878992E0,1.0541201E2,1.1609565E1,5.097361E0,1.0899959E1,1.993531E1,2.1309955E0,3.8170571E0,2.6244552E0,1.4666256E1,1.2236928E1,1.0932221E1,7.798913E0,9.76131E1,1.0465565E0,4.0508046E0,1.8805765E0,9.019382E0,1.2650708E0,2.5519865E0,1.5297734E0,1.0946819E0,5.760099E0,6.4768295E0,6.8350863E0,4.097135E0,1.4730654E0,6.3258476E0,4.3043465E1,5.4569633E1,3.0160582E0,1.0347464E0,7.7797804E0,1.2396021E0,1.3381982E0,4.4219007E0,5.3883495E0,1.0884798E0,5.508457E0,1.3266293E0,2.4808934E0,1.6162416E0],"tree_param":{"num_deleted":"0","num_feature":"8","num_nodes":"55","size_leaf_vector":"1"}},{"base_weights":[-2.1073416E-2,1.8585603E-1,-4.925458E-1,3.0647138E-2,7.237072E-1,-2.7499643E-1,-5.7394225E-2,2.0807076E-1,-8.1999683E-1,8.2885325E-1,-5.161657E-1,-7.4554604E-1,5.29373E-1,-6.0699094E-2,2.931003E-1,-1.0803537E0,1.1578289E-1,1.009368E0,1.55982E-1,7.0848963E-3,-4.4593133E-2,-2.3391362E-1,-1.2196133E0,8.0373377E-1,-5.0306886E-2,-7.8664523E-1,3.8075426E-1,-1.2099559E0,-3.9200187E-1,-3.7290644E-2,5.327262E-1,1.0702773E0,6.566759E-3,-4.7158692E-2,8.1782454E-1,-6.923431E-1,8.638641E-1,-6.824771E-2,-3.0383798E-3,-3.3184256E-2,9.583027E-1,1.0783047E-2,-5.368171E-2,-5.608204E-2,2.1372056E-2,-6.3197464E-2,-1.6405512E-2,-3.9137296E-2,1.6056005E-2,4.4572923E-2,-7.4034574E-4,9.9399565E-3,5.5127032E-2,6.142802E-3,4.855147E-2,3.6419803E-4,-4.6767518E-2,1.3329386E-2,4.8562594E-2,6.003896E-2,1.9348426E-2],"categories":[],"categories_nodes":[],"categories_segments":[],"categories_sizes":[],"default_left":[0,0,0,0,0,0,0,0,0,0,0,0,0,0,0,0,0,0,0,0,0,0,0,0,0,0,0,0,0,0,0,0,0,0,0,0,0,0,0,0,0,0,0,0,0,0,0,0,0,0,0,0,0,0,0,0,0,0,0,0,0],"id":34,"left_children":[1,3,5,7,9,11,-1,13,15,17,19,21,23,-1,25,27,29,31,33,-1,-1,35,37,39,-1,41,43,45,47,-1,49,51,-1,-1,53,55,57,-1,-1,-1,59,-1,-1,-1,-1,-1,-1,-1,-1,-1,-1,-1,-1,-1,-1,-1,-1,-1,-1,-1,-1],"loss_changes":[2.118905E1,1.2584293E1,9.127371E0,1.8015673E1,4.830963E0,1.9713991E1,0E0,1.228187E1,5.145936E0,3.6708584E0,9.312583E-1,7.626343E0,8.991515E0,0E0,9.183866E0,9.7263527E-1,2.3331785E0,1.1787148E0,6.481796E0,0E0,0E0,9.11573E0,2.7287216E0,4.499861E0,0E0,2.35281E0,6.6166477E0,2.1235847E-1,1.3796332E0,0E0,8.4106433E-1,4.254856E-1,0E0,0E0,4.593966E-1,2.1310449E0,8.940363E-2,0E0,0E0,0E0,1.7270813E0,0E0,0E0,0E0,0E0,0E0,0E0,0E0,0E0,0E0,0E0,0E0,0E0,0E0,0E0,0E0,0E0,0E0,0E0,0E0,0E0],"parents":[2147483647,0,0,1,1,2,2,3,3,4,4,5,5,7,7,8,8,9,9,10,10,11,11,12,12,14,14,15,15,16,16,17,17,18,18,21,21,22,22,23,23,25,25,26,26,27,27,28,28,30,30,31,31,34,34,35,35,36,36,40,40],"right_children":[2,4,6,8,10,12,-1,14,16,18,20,22,24,-1,26,28,30,32,34,-1,-1,36,38,40,-1,42,44,46,48,-1,50,52,-1,-1,54,56,58,-1,-1,-1,60,-1,-1,-1,-1,-1,-1,-1,-1,-1,-1,-1,-1,-1,-1,-1,-1,-1,-1,-1,-1],"split_conditions":[3.7428224E0,2.8122168E0,1.9073496E0,4.150906E0,1.0570892E1,4.1673523E1,-5.7394225E-2,2.6207945E0,3.1380181E0,4.5780597E0,2.5837114E0,2.060111E1,3.4796246E1,-6.0699094E-2,-2.2245746E0,4.619519E1,4.1175068E1,3.3426037E1,3.2750877E1,7.0848963E-3,-4.4593133E-2,2.0549355E1,4.754645E0,-1.073622E0,-5.0306886E-2,2.958049E0,2.8517273E1,2.2223809E0,2.4966799E1,-3.7290644E-2,5.627548E0,1.7287091E0,6.566759E-3,-4.7158692E-2,1.1322543E1,3.4528725E1,3.860235E0,-6.824771E-2,-3.0383798E-3,-3.3184256E-2,4.9983854E0,1.0783047E-2,-5.368171E-2,-5.608204E-2,2.1372056E-2,-6.3197464E-2,-1.6405512E-2,-3.9137296E-2,1.6056005E-2,4.4572923E-2,-7.4034574E-4,9.9399565E-3,5.5127032E-2,6.142802E-3,4.855147E-2,3.6419803E-4,-4.6767518E-2,1.3329386E-2,4.8562594E-2,6.003896E-2,1.9348426E-2],"split_indices":[7,5,5,1,5,3,0,1,7,1,7,2,6,0,5,3,3,6,6,0,0,2,1,5,0,1,6,5,2,0,1,7,0,0,1,3,1,0,0,0,1,0,0,0,0,0,0,0,0,0,0,0,0,0,0,0,0,0,0,0,0],"split_type":[0,0,0,0,0,0,0,0,0,0,0,0,0,0,0,0,0,0,0,0,0,0,0,0,0,0,0,0,0,0,0,0,0,0,0,0,0,0,0,0,0,0,0,0,0,0,0,0,0,0,0,0,0,0,0,0,0,0,0,0,0],"sum_hessian":[2.1524825E2,1.5001318E2,6.5235054E1,1.1723842E2,3.2774765E1,5.004237E1,1.5192683E1,9.763048E1,1.9607943E1,3.0518206E1,2.2565615E0,3.1618774E1,1.8423597E1,4.759212E0,9.287126E1,1.5219115E1,4.388828E0,2.3668451E1,6.849753E0,1.0466561E0,1.2099054E0,1.5925141E1,1.5693633E1,1.6035067E1,2.3885322E0,6.3744593E0,8.64968E1,1.2170003E1,3.0491126E0,1.1740143E0,3.2148137E0,2.192833E1,1.7401227E0,2.4146113E0,4.4351416E0,1.149442E1,4.430721E0,1.3786671E1,1.9069624E0,1.214193E0,1.4820872E1,1.4742374E0,4.900222E0,1.9129468E0,8.4583855E1,1.1059551E1,1.1104513E0,1.9067217E0,1.1423908E0,1.5627782E0,1.6520355E0,1.0385075E0,2.0889822E1,1.1265931E0,3.3085487E0,3.213283E0,8.281137E0,1.205937E0,3.2247837E0,9.631511E0,5.1893625E0],"tree_param":{"num_deleted":"0","num_feature":"8","num_nodes":"61","size_leaf_vector":"1"}},{"base_weights":[-2.1938827E-2,6.930323E-2,-5.1947422E-2,-5.0337415E-2,1.3244998E-1,-8.746247E-3,5.4763335E-1,3.653911E-1,-2.2095092E-1,6.7221063E-1,-4.557881E-2,-5.1544946E-2,7.0985717E-1,-5.844149E-2,-8.196947E-2,-3.883047E-1,7.5591546E-1,-4.4652473E-2,2.5892196E-2,4.5804165E-2,-3.6596093E-2,2.4053982E-2,-2.8202891E-2,-6.0536034E-2,4.2088877E-2,-2.991426E-2,4.064758E-2],"categories":[],"categories_nodes":[],"categories_segments":[],"categories_sizes":[],"default_left":[0,0,0,0,0,0,0,0,0,0,0,0,0,0,0,0,0,0,0,0,0,0,0,0,0,0,0],"id":35,"left_children":[1,3,-1,-1,5,7,9,11,13,15,-1,17,19,-1,21,23,25,-1,-1,-1,-1,-1,-1,-1,-1,-1,-1],"loss_changes":[1.9784464E1,1.344325E1,0E0,0E0,1.09030485E1,1.1172974E1,9.191981E0,7.352658E0,1.1730474E1,4.204544E0,0E0,1.1951468E1,8.984543E0,0E0,2.181482E1,4.948021E0,3.6665993E0,0E0,0E0,0E0,0E0,0E0,0E0,0E0,0E0,0E0,0E0],"parents":[2147483647,0,0,1,1,4,4,5,5,6,6,7,7,8,8,9,9,11,11,12,12,14,14,15,15,16,16],"right_children":[2,4,-1,-1,6,8,10,12,14,16,-1,18,20,-1,22,24,26,-1,-1,-1,-1,-1,-1,-1,-1,-1,-1],"split_conditions":[6.2292733E0,-2.289799E0,-5.1947422E-2,-5.0337415E-2,2.5122898E1,-6.1522615E-1,4.24359E1,-1.3401546E0,2.0455296E1,3.931401E1,-4.557881E-2,3.0192425E1,6.6E1,-5.844149E-2,3.2138752E1,1.5750517E0,3.221848E0,-4.4652473E-2,2.5892196E-2,4.5804165E-2,-3.6596093E-2,2.4053982E-2,-2.8202891E-2,-6.0536034E-2,4.2088877E-2,-2.991426E-2,4.064758E-2],"split_indices":[7,5,0,0,2,5,0,5,2,3,0,0,4,0,6,5,1,0,0,0,0,0,0,0,0,0,0],"split_type":[0,0,0,0,0,0,0,0,0,0,0,0,0,0,0,0,0,0,0,0,0,0,0,0,0,0,0],"sum_hessian":[2.1143242E2,1.9488037E2,1.6552036E1,9.974087E0,1.849063E2,1.3871187E2,4.6194424E1,4.994034E1,8.877153E1,4.3057777E1,3.1366458E0,2.2978231E1,2.6962107E1,1.0404048E1,7.836748E1,2.8836613E0,4.0174118E1,9.043836E0,1.3934396E1,2.3907145E1,3.0549622E0,3.614937E1,4.221811E1,1.7376397E0,1.1460216E0,1.2401378E0,3.893398E1],"tree_param":{"num_deleted":"0","num_feature":"8","num_nodes":"27","size_leaf_vector":"1"}},{"base_weights":[-2.2319939E-2,1.5045205E-1,-5.425196E-1,-8.874146E-2,5.29984E-1,-2.9591292E-1,-5.799008E-2,2.1621285E-1,-5.3103703E-1,-1.6085237E-1,6.958166E-1,-9.714245E-1,2.0996106E-1,-1.9457331E-1,8.799923E-1,5.789514E-2,-9.1348433E-1,5.94207E-1,-7.157282E-2,9.548938E-1,2.0077454E-1,2.4990587E-2,-5.7270594E-2,-3.5764349E-1,8.165346E-1,5.0425714E-1,-6.601038E-2,-5.4789584E-2,1.0937026E0,-9.5249236E-1,7.1561086E-1,-1.278486E0,-3.6188972E-1,9.2131937E-1,-2.4190877E-2,-1.1854273E-2,1.0232877E0,-7.773978E-1,6.484222E-1,-3.2626953E-2,4.0174127E-2,5.519694E-1,-1.1216058E0,1.138522E0,1.6648033E-1,-4.2079315E-2,4.0625587E-2,-1.692613E-2,6.1213154E-2,-6.654131E-2,1.3824058E-2,4.6626236E-2,-1.1136375E-2,-7.102599E-2,-2.9258197E-2,1.7913088E-2,-5.3333372E-2,1.42305E-2,5.10619E-2,5.4026183E-2,-9.122848E-3,1.7559513E-2,-5.710706E-2,-1.5759539E-2,4.3862212E-2,-3.407788E-2,4.8931845E-2,-6.771557E-2,6.2231394E-3,7.539525E-2,1.1562404E-2,3.8331013E-2,-3.378967E-2],"categories":[],"categories_nodes":[],"categories_segments":[],"categories_sizes":[],"default_left":[0,0,0,0,0,0,0,0,0,0,0,0,0,0,0,0,0,0,0,0,0,0,0,0,0,0,0,0,0,0,0,0,0,0,0,0,0,0,0,0,0,0,0,0,0,0,0,0,0,0,0,0,0,0,0,0,0,0,0,0,0,0,0,0,0,0,0,0,0,0,0,0,0],"id":36,"left_children":[1,3,5,7,9,11,-1,13,15,17,19,21,23,25,27,29,31,33,-1,35,37,39,-1,41,43,45,-1,-1,47,49,51,53,55,57,-1,-1,59,61,63,-1,-1,65,67,69,71,-1,-1,-1,-1,-1,-1,-1,-1,-1,-1,-1,-1,-1,-1,-1,-1,-1,-1,-1,-1,-1,-1,-1,-1,-1,-1,-1,-1],"loss_changes":[1.884294E1,1.4343758E1,7.612423E0,1.32601185E1,7.103216E0,1.3423796E1,0E0,1.6094305E1,9.076427E0,1.2963229E1,6.1440525E0,2.9312696E0,8.191034E0,2.9685667E1,1.0701094E1,1.1788669E1,4.439581E0,3.4875927E0,0E0,2.8646278E0,8.489912E0,2.3533E0,0E0,9.33843E0,2.1955776E0,1.042664E1,0E0,0E0,4.305525E0,3.6315346E0,2.3844767E0,5.728283E-1,6.01131E0,1.5227652E-1,0E0,0E0,2.3092804E0,2.9453301E0,3.1555157E0,0E0,0E0,4.034251E0,2.2416897E0,2.147789E0,3.0181453E0,0E0,0E0,0E0,0E0,0E0,0E0,0E0,0E0,0E0,0E0,0E0,0E0,0E0,0E0,0E0,0E0,0E0,0E0,0E0,0E0,0E0,0E0,0E0,0E0,0E0,0E0,0E0,0E0],"parents":[2147483647,0,0,1,1,2,2,3,3,4,4,5,5,7,7,8,8,9,9,10,10,11,11,12,12,13,13,14,14,15,15,16,16,17,17,19,19,20,20,21,21,23,23,24,24,25,25,28,28,29,29,30,30,31,31,32,32,33,33,36,36,37,37,38,38,41,41,42,42,43,43,44,44],"right_children":[2,4,6,8,10,12,-1,14,16,18,20,22,24,26,28,30,32,34,-1,36,38,40,-1,42,44,46,-1,-1,48,50,52,54,56,58,-1,-1,60,62,64,-1,-1,66,68,70,72,-1,-1,-1,-1,-1,-1,-1,-1,-1,-1,-1,-1,-1,-1,-1,-1,-1,-1,-1,-1,-1,-1,-1,-1,-1,-1,-1,-1],"split_conditions":[4.24554E0,2.4983355E1,1.868577E0,3.2138752E1,1.7979126E0,-1.19458206E-1,-5.799008E-2,2.1297424E1,-8.002105E-1,3.249243E1,3.0802321E0,3.050424E1,4.1673523E1,3.446121E1,2.586178E0,3.1099665E1,3.2834972E1,1.7287091E0,-7.157282E-2,2.8567238E1,3.1754103E0,-1.4057448E0,-5.7270594E-2,2.0552797E1,4.9983854E0,-1.5041552E0,-6.601038E-2,-5.4789584E-2,2.8640085E1,2.4578328E0,3.9925554E0,2.4955051E1,3.3423523E1,2.5032486E1,-2.4190877E-2,-1.1854273E-2,1.0570892E1,3.327948E1,3.3209183E1,-3.2626953E-2,4.0174127E-2,2.7870043E1,1.46E2,3.459262E1,3.0751263E1,-4.2079315E-2,4.0625587E-2,-1.692613E-2,6.1213154E-2,-6.654131E-2,1.3824058E-2,4.6626236E-2,-1.1136375E-2,-7.102599E-2,-2.9258197E-2,1.7913088E-2,-5.3333372E-2,1.42305E-2,5.10619E-2,5.4026183E-2,-9.122848E-3,1.7559513E-2,-5.710706E-2,-1.5759539E-2,4.3862212E-2,-3.407788E-2,4.8931845E-2,-6.771557E-2,6.2231394E-3,7.539525E-2,1.1562404E-2,3.8331013E-2,-3.378967E-2],"split_indices":[7,2,5,6,7,5,0,2,5,6,7,6,3,3,1,0,0,7,0,6,7,5,0,2,1,5,0,0,6,7,1,2,0,2,0,0,5,6,6,0,0,0,4,6,6,0,0,0,0,0,0,0,0,0,0,0,0,0,0,0,0,0,0,0,0,0,0,0,0,0,0,0,0],"split_type":[0,0,0,0,0,0,0,0,0,0,0,0,0,0,0,0,0,0,0,0,0,0,0,0,0,0,0,0,0,0,0,0,0,0,0,0,0,0,0,0,0,0,0,0,0,0,0,0,0,0,0,0,0,0,0,0,0,0,0,0,0,0,0,0,0,0,0,0,0,0,0,0,0],"sum_hessian":[2.0774686E2,1.564849E2,5.1261963E1,9.6459274E1,6.002562E1,3.7685734E1,1.3576228E1,5.7396587E1,3.9062687E1,1.1625477E1,4.8400143E1,1.5743109E1,2.1942625E1,3.58916E1,2.1504984E1,1.5713705E1,2.334898E1,7.6260324E0,3.9994445E0,3.1162516E1,1.7237627E1,2.4676113E0,1.3275497E1,1.1547436E1,1.0395189E1,2.2484509E1,1.3407094E1,1.6961699E0,1.9808815E1,6.0190363E0,9.694668E0,1.3258052E1,1.0090928E1,5.962234E0,1.6637983E0,1.5571837E0,2.9605331E1,5.180621E0,1.2057007E1,1.405864E0,1.0617473E0,5.397904E0,6.149532E0,6.4492803E0,3.945909E0,3.8677404E0,1.8616768E1,1.521826E0,1.828699E1,4.5388856E0,1.4801509E0,7.879399E0,1.8152695E0,1.0133289E1,3.1247623E0,5.234209E0,4.8567195E0,1.3307487E0,4.6314855E0,2.836282E1,1.2425116E0,1.2744324E0,3.9061887E0,2.2412457E0,9.815761E0,1.2337228E0,4.164181E0,5.10862E0,1.0409117E0,4.1127987E0,2.3364818E0,2.356598E0,1.5893112E0],"tree_param":{"num_deleted":"0","num_feature":"8","num_nodes":"73","size_leaf_vector":"1"}},{"base_weights":[-2.3155047E-2,6.277738E-2,-5.122118E-2,-4.9613606E-2,1.22969866E-1,8.127293E-3,5.8014995E-1,9.157528E-2,-7.7625126E-1,7.4088687E-1,-4.399929E-2,-1.1362072E0,1.376718E-1,-5.995524E-2,2.0268215E-1,8.899118E-1,-4.343741E-2,-6.489692E-2,-1.3530663E-2,-5.7638813E-2,9.03784E-3,8.506195E-2,-4.9156677E-2,4.446804E-3,5.021999E-2,-3.499437E-2,2.312815E-2],"categories":[],"categories_nodes":[],"categories_segments":[],"categories_sizes":[],"default_left":[0,0,0,0,0,0,0,0,0,0,0,0,0,0,0,0,0,0,0,0,0,0,0,0,0,0,0],"id":37,"left_children":[1,3,-1,-1,5,7,9,11,13,15,-1,17,19,-1,21,23,25,-1,-1,-1,-1,-1,-1,-1,-1,-1,-1],"loss_changes":[1.762985E1,1.2122005E1,0E0,0E0,9.427546E0,9.535596E0,9.113582E0,7.603764E0,6.0422115E0,3.89826E0,0E0,3.3048058E-1,7.3093014E0,0E0,1.0702302E1,2.4595394E0,2.3917263E0,0E0,0E0,0E0,0E0,0E0,0E0,0E0,0E0,0E0,0E0],"parents":[2147483647,0,0,1,1,4,4,5,5,6,6,7,7,8,8,9,9,11,11,12,12,14,14,15,15,16,16],"right_children":[2,4,-1,-1,6,8,10,12,14,16,-1,18,20,-1,22,24,26,-1,-1,-1,-1,-1,-1,-1,-1,-1,-1],"split_conditions":[6.2292733E0,-2.289799E0,-5.122118E-2,-4.9613606E-2,2.5249342E1,3.3426037E1,4.24359E1,2.8517273E1,6.6E1,3.5703156E1,-4.399929E-2,2.1432781E0,2.586178E0,-5.995524E-2,1.27E2,1.4708954E0,4.7852684E1,-6.489692E-2,-1.3530663E-2,-5.7638813E-2,9.03784E-3,8.506195E-2,-4.9156677E-2,4.446804E-3,5.021999E-2,-3.499437E-2,2.312815E-2],"split_indices":[7,5,0,0,2,6,0,6,4,2,0,7,1,0,4,7,3,0,0,0,0,0,0,0,0,0,0],"split_type":[0,0,0,0,0,0,0,0,0,0,0,0,0,0,0,0,0,0,0,0,0,0,0,0,0,0,0],"sum_hessian":[2.0315208E2,1.8795815E2,1.5193934E1,9.308822E0,1.7864932E2,1.435961E2,3.505323E1,1.3058658E2,1.3009514E1,3.202085E1,3.0323792E0,3.8696582E0,1.2671693E2,8.928087E0,4.0814266E0,2.6795057E1,5.2257943E0,2.8396156E0,1.0300425E0,3.2619426E0,1.2345498E2,1.6109523E0,2.4704742E0,3.5732036E0,2.3221853E1,2.1079326E0,3.1178615E0],"tree_param":{"num_deleted":"0","num_feature":"8","num_nodes":"27","size_leaf_vector":"1"}},{"base_weights":[-2.362712E-2,1.6319457E-1,-4.6576902E-1,3.0624458E-1,-3.3822587E-1,-2.5707853E-1,-5.5496443E-2,-1.5156631E-2,6.775616E-1,-8.3805424E-1,3.5756513E-1,-7.0637333E-1,4.9893904E-1,-5.0047225E-1,6.535847E-1,9.0027684E-1,-4.762287E-1,-1.0557874E0,1.7163401E-2,5.61999E-1,-3.695742E-2,-2.000505E-1,-1.1854402E0,7.5798887E-1,-4.86692E-2,3.9887796E-3,-1.1567718E0,8.340661E-1,-4.6564132E-2,-1.0571078E-2,9.467776E-1,-9.6559197E-1,3.155188E-2,-1.1767918E0,-4.0185386E-1,-3.5416506E-2,4.2514798E-1,-3.0623055E-1,8.096542E-1,-7.153358E-1,6.96048E-1,-6.697227E-2,-8.409056E-4,-3.1022642E-2,9.014205E-1,-3.2823376E-2,3.843276E-2,-1.5524394E-2,-6.899383E-2,-3.997248E-2,4.8230737E-2,4.9258452E-2,-8.563536E-3,-1.5224436E-2,-5.994284E-2,-6.148977E-2,-1.6310625E-2,1.3796828E-2,-3.79495E-2,3.919169E-2,-1.614415E-3,7.1178437E-3,-3.4264944E-2,9.947929E-3,4.313978E-2,3.0761603E-3,-5.082195E-2,5.841767E-4,4.883632E-2,5.6861687E-2,1.77051E-2],"categories":[],"categories_nodes":[],"categories_segments":[],"categories_sizes":[],"default_left":[0,0,0,0,0,0,0,0,0,0,0,0,0,0,0,0,0,0,0,0,0,0,0,0,0,0,0,0,0,0,0,0,0,0,0,0,0,0,0,0,0,0,0,0,0,0,0,0,0,0,0,0,0,0,0,0,0,0,0,0,0,0,0,0,0,0,0,0,0,0,0],"id":38,"left_children":[1,3,5,7,9,11,-1,13,15,17,19,21,23,25,27,29,31,33,35,37,-1,39,41,43,-1,45,47,49,-1,-1,51,53,-1,55,57,-1,59,61,63,65,67,-1,-1,-1,69,-1,-1,-1,-1,-1,-1,-1,-1,-1,-1,-1,-1,-1,-1,-1,-1,-1,-1,-1,-1,-1,-1,-1,-1,-1,-1],"loss_changes":[1.6728205E1,1.0321725E1,7.799259E0,1.3300271E1,1.146173E1,1.62238E1,0E0,2.0017843E1,1.3711378E1,3.5518303E0,3.58084E0,6.972234E0,7.6044116E0,1.1831776E1,8.198765E0,2.4578247E0,5.4954343E0,7.2527504E-1,1.7322607E0,2.9288893E0,0E0,7.7255487E0,2.6894817E0,3.6973639E0,0E0,1.1208504E1,2.5035152E0,5.851349E0,0E0,0E0,1.9758873E0,6.602864E-1,0E0,1.5151405E-1,1.149354E0,0E0,6.356072E-1,6.914799E-1,1.520791E-1,2.502564E0,1.183666E0,0E0,0E0,0E0,1.5053673E0,0E0,0E0,0E0,0E0,0E0,0E0,0E0,0E0,0E0,0E0,0E0,0E0,0E0,0E0,0E0,0E0,0E0,0E0,0E0,0E0,0E0,0E0,0E0,0E0,0E0,0E0],"parents":[2147483647,0,0,1,1,2,2,3,3,4,4,5,5,7,7,8,8,9,9,10,10,11,11,12,12,13,13,14,14,15,15,16,16,17,17,18,18,19,19,21,21,22,22,23,23,25,25,26,26,27,27,30,30,31,31,33,33,34,34,36,36,37,37,38,38,39,39,40,40,44,44],"right_children":[2,4,6,8,10,12,-1,14,16,18,20,22,24,26,28,30,32,34,36,38,-1,40,42,44,-1,46,48,50,-1,-1,52,54,-1,56,58,-1,60,62,64,66,68,-1,-1,-1,70,-1,-1,-1,-1,-1,-1,-1,-1,-1,-1,-1,-1,-1,-1,-1,-1,-1,-1,-1,-1,-1,-1,-1,-1,-1,-1],"split_conditions":[3.7428224E0,4.1599016E0,1.9073496E0,3.931401E1,2.538963E0,4.1673523E1,-5.5496443E-2,2.4731357E0,3.0431032E0,3.1380181E0,5.919475E0,2.060111E1,3.4796246E1,3.2048637E1,3.4206119E0,2.8567238E1,2.7570539E0,4.619519E1,4.1175068E1,3.3973965E1,-3.695742E-2,2.052079E1,4.754645E0,-1.073622E0,-4.86692E-2,2.8726826E1,3.6813107E1,2.5153315E0,-4.6564132E-2,-1.0571078E-2,1.0570892E1,3.5829616E0,3.155188E-2,2.2223809E0,4.757923E1,-3.5416506E-2,5.627548E0,3.050424E1,2.1119053E0,3.4528725E1,3.7414887E0,-6.697227E-2,-8.409056E-4,-3.1022642E-2,4.9983854E0,-3.2823376E-2,3.843276E-2,-1.5524394E-2,-6.899383E-2,-3.997248E-2,4.8230737E-2,4.9258452E-2,-8.563536E-3,-1.5224436E-2,-5.994284E-2,-6.148977E-2,-1.6310625E-2,1.3796828E-2,-3.79495E-2,3.919169E-2,-1.614415E-3,7.1178437E-3,-3.4264944E-2,9.947929E-3,4.313978E-2,3.0761603E-3,-5.082195E-2,5.841767E-4,4.883632E-2,5.6861687E-2,1.77051E-2],"split_indices":[7,1,5,3,5,3,0,7,7,7,5,2,6,6,1,6,5,3,3,0,0,2,1,5,0,0,3,1,0,0,5,1,0,5,3,0,1,6,7,3,1,0,0,0,1,0,0,0,0,0,0,0,0,0,0,0,0,0,0,0,0,0,0,0,0,0,0,0,0,0,0],"split_type":[0,0,0,0,0,0,0,0,0,0,0,0,0,0,0,0,0,0,0,0,0,0,0,0,0,0,0,0,0,0,0,0,0,0,0,0,0,0,0,0,0,0,0,0,0,0,0,0,0,0,0,0,0,0,0,0,0,0,0,0,0,0,0,0,0,0,0,0,0,0,0],"sum_hessian":[2.0059628E2,1.4145647E2,5.9139812E1,1.103609E2,3.1095564E1,4.5725174E1,1.3414637E1,5.9670784E1,5.0690117E1,1.7977083E1,1.311848E1,2.8721748E1,1.7003426E1,3.4723236E1,2.4947552E1,4.267275E1,8.017366E0,1.4142074E1,3.8350103E0,1.1468285E1,1.6501955E0,1.4652838E1,1.4068911E1,1.4871938E1,2.1314878E0,2.0194649E1,1.4528585E1,2.2822325E1,2.125227E0,1.5708824E0,4.1101868E1,5.648795E0,2.3685706E0,1.1259119E1,2.8829541E0,1.1153984E0,2.719612E0,2.492734E0,8.975551E0,9.431275E0,5.2215624E0,1.2301589E1,1.7673221E0,1.0881883E0,1.378375E1,1.0911599E1,9.28305E0,3.5300448E0,1.0998541E1,1.3097724E0,2.1512552E1,3.9852276E1,1.2495928E0,2.0745585E0,3.5742369E0,1.0178987E1,1.0801332E0,1.0733191E0,1.8096352E0,1.124405E0,1.595207E0,1.4276804E0,1.0650535E0,1.0982722E0,7.877278E0,2.856656E0,6.574619E0,1.8216201E0,3.3999422E0,8.879969E0,4.903781E0],"tree_param":{"num_deleted":"0","num_feature":"8","num_nodes":"71","size_leaf_vector":"1"}},{"base_weights":[-2.4783108E-2,5.6031413E-2,-5.0573826E-2,-4.888999E-2,1.1283808E-1,2.5675675E-1,-2.2810864E-1,5.928037E-3,6.0320896E-1,-5.936963E-2,-2.4751782E-2,-4.015353E-1,3.3216804E-1,9.6724325E-1,4.5122694E-2,-5.0709452E-2,1.4916807E-1,5.0217533E-3,-5.534801E-2,3.303732E-2,-2.65333E-2,-1.0228674E-2,5.1810738E-2,-2.008656E-2,3.2810703E-2,3.495105E-2,-7.946233E-3],"categories":[],"categories_nodes":[],"categories_segments":[],"categories_sizes":[],"default_left":[0,0,0,0,0,0,0,0,0,0,0,0,0,0,0,0,0,0,0,0,0,0,0,0,0,0,0],"id":39,"left_children":[1,3,-1,-1,5,7,9,11,13,-1,15,17,19,21,23,-1,25,-1,-1,-1,-1,-1,-1,-1,-1,-1,-1],"loss_changes":[1.5805293E1,1.0886871E1,0E0,0E0,8.63755E0,1.0720917E1,1.019749E1,9.783456E0,1.0483612E1,0E0,7.7705145E0,1.1701606E1,1.193561E1,2.7426586E0,6.136014E0,0E0,6.6381316E0,0E0,0E0,0E0,0E0,0E0,0E0,0E0,0E0,0E0,0E0],"parents":[2147483647,0,0,1,1,4,4,5,5,6,6,7,7,8,8,10,10,11,11,12,12,13,13,14,14,16,16],"right_children":[2,4,-1,-1,6,8,10,12,14,-1,16,18,20,22,24,-1,26,-1,-1,-1,-1,-1,-1,-1,-1,-1,-1],"split_conditions":[6.2292733E0,-2.289799E0,-5.0573826E-2,-4.888999E-2,4.1599016E0,3.9540306E1,1.9852085E0,2.4385784E0,2.4358728E0,-5.936963E-2,2.052079E1,3.2061012E1,3.7946482E0,2.8567238E1,4.7852684E1,-5.0709452E-2,3.1389877E1,5.0217533E-3,-5.534801E-2,3.303732E-2,-2.65333E-2,-1.0228674E-2,5.1810738E-2,-2.008656E-2,3.2810703E-2,3.495105E-2,-7.946233E-3],"split_indices":[7,5,0,0,1,3,7,7,7,0,2,6,7,6,3,0,6,0,0,0,0,0,0,0,0,0,0],"split_type":[0,0,0,0,0,0,0,0,0,0,0,0,0,0,0,0,0,0,0,0,0,0,0,0,0,0,0],"sum_hessian":[1.9650171E2,1.8249756E2,1.4004138E1,8.661065E0,1.738365E2,1.2241165E2,5.1424847E1,7.1594734E1,5.0816925E1,8.148312E0,4.3276535E1,3.173186E1,3.9862873E1,3.031173E1,2.0505194E1,5.7474866E0,3.752905E1,1.904052E1,1.26913395E1,2.9038754E1,1.0824119E1,1.5756459E0,2.8736084E1,1.2042123E1,8.46307E0,1.3021219E1,2.4507828E1],"tree_param":{"num_deleted":"0","num_feature":"8","num_nodes":"27","size_leaf_vector":"1"}},{"base_weights":[-2.4833236E-2,5.3418823E-2,-5.0234552E-2,-4.8488047E-2,1.0834724E-1,2.474377E-1,-2.2151999E-1,5.0705075E-3,5.874968E-1,-1.1655517E0,-2.4330162E-2,1.3615875E-1,-9.634474E-1,9.5098716E-1,4.3892343E-2,-6.2135424E-2,-2.0574594E-2,-5.0068498E-2,1.4362758E-1,-1.1849109E-2,2.4571039E-2,-6.400021E-2,3.565297E-2,-9.897869E-3,5.1051702E-2,-1.9132221E-2,3.191353E-2,3.5637002E-2,-6.7987028E-3],"categories":[],"categories_nodes":[],"categories_segments":[],"categories_sizes":[],"default_left":[0,0,0,0,0,0,0,0,0,0,0,0,0,0,0,0,0,0,0,0,0,0,0,0,0,0,0,0,0],"id":40,"left_children":[1,3,-1,-1,5,7,9,11,13,15,17,19,21,23,25,-1,-1,-1,27,-1,-1,-1,-1,-1,-1,-1,-1,-1,-1],"loss_changes":[1.4947213E1,1.0267724E1,0E0,0E0,7.969879E0,1.0037146E1,9.594598E0,9.289415E0,9.973124E0,7.068634E-3,7.3286624E0,8.654941E0,5.542203E0,2.6427116E0,5.6590915E0,0E0,0E0,0E0,6.181055E0,0E0,0E0,0E0,0E0,0E0,0E0,0E0,0E0,0E0,0E0],"parents":[2147483647,0,0,1,1,4,4,5,5,6,6,7,7,8,8,9,9,10,10,11,11,12,12,13,13,14,14,18,18],"right_children":[2,4,-1,-1,6,8,10,12,14,16,18,20,22,24,26,-1,-1,-1,28,-1,-1,-1,-1,-1,-1,-1,-1,-1,-1],"split_conditions":[6.2292733E0,-2.289799E0,-5.0234552E-2,-4.8488047E-2,4.1599016E0,3.9540306E1,1.9852085E0,3.7614975E0,2.4358728E0,1.9045129E0,2.052079E1,2.5249856E0,5.6302547E0,2.8567238E1,4.7852684E1,-6.2135424E-2,-2.0574594E-2,-5.0068498E-2,3.0751263E1,-1.1849109E-2,2.4571039E-2,-6.400021E-2,3.565297E-2,-9.897869E-3,5.1051702E-2,-1.9132221E-2,3.191353E-2,3.5637002E-2,-6.7987028E-3],"split_indices":[7,5,0,0,1,3,7,1,7,7,2,7,7,6,3,0,0,0,6,0,0,0,0,0,0,0,0,0,0],"split_type":[0,0,0,0,0,0,0,0,0,0,0,0,0,0,0,0,0,0,0,0,0,0,0,0,0,0,0,0,0],"sum_hessian":[1.9324026E2,1.7982483E2,1.34154415E1,8.313322E0,1.715115E2,1.2081784E2,5.0693665E1,7.113404E1,4.96838E1,7.910746E0,4.278292E1,6.3410843E1,7.7231994E0,2.9325438E1,2.0358362E1,6.588569E0,1.3221769E0,5.5478816E0,3.723504E1,3.1089582E1,3.232126E1,6.695471E0,1.0277284E0,1.580195E0,2.7745241E1,1.2060065E1,8.298297E0,1.175642E1,2.5478619E1],"tree_param":{"num_deleted":"0","num_feature":"8","num_nodes":"29","size_leaf_vector":"1"}},{"base_weights":[-2.4827585E-2,1.2918693E-1,-5.070876E-1,-9.27026E-2,4.8643252E-1,-2.6774344E-1,-5.6225896E-2,2.0893157E-1,-5.258762E-1,-1.6594808E-1,6.435956E-1,-9.207109E-1,1.9273366E-1,-1.397157E-1,9.4962716E-1,6.0638513E-2,-8.938203E-1,5.734955E-1,-6.541E-2,8.9598256E-1,1.7526752E-1,9.3987375E-2,-5.562374E-2,-3.4190896E-1,7.5305265E-1,4.5141143E-1,-1.08501E0,-4.0697128E-2,1.1753992E0,-8.8199294E-1,6.8262374E-1,-1.2344625E0,-3.6100003E-1,4.556037E-2,-2.3491872E-2,-9.578233E-3,9.6526605E-1,-7.2647166E-1,5.9597677E-1,-2.9887369E-2,3.961478E-2,5.461828E-1,-1.0734901E0,1.0673356E0,1.2611598E-1,-6.4173765E-2,3.4149356E-2,-6.466757E-2,-1.5231019E-3,1.9889873E-2,6.1188698E-2,-6.2093485E-2,1.3528156E-2,4.462259E-2,-9.347602E-3,-6.8270594E-2,-2.9526964E-2,2.1886379E-2,-4.6121765E-2,5.128776E-2,-9.92255E-3,1.5660712E-2,-5.3656902E-2,-1.5710458E-2,4.1219506E-2,-3.1840235E-2,4.6979595E-2,-6.5707E-2,6.2566698E-3,7.076629E-2,9.041992E-3,3.6220096E-2,-3.3241726E-2],"categories":[],"categories_nodes":[],"categories_segments":[],"categories_sizes":[],"default_left":[0,0,0,0,0,0,0,0,0,0,0,0,0,0,0,0,0,0,0,0,0,0,0,0,0,0,0,0,0,0,0,0,0,0,0,0,0,0,0,0,0,0,0,0,0,0,0,0,0,0,0,0,0,0,0,0,0,0,0,0,0,0,0,0,0,0,0,0,0,0,0,0,0],"id":41,"left_children":[1,3,5,7,9,11,-1,13,15,17,19,21,23,25,27,29,31,33,-1,35,37,39,-1,41,43,45,47,-1,49,51,53,55,57,-1,-1,-1,59,61,63,-1,-1,65,67,69,71,-1,-1,-1,-1,-1,-1,-1,-1,-1,-1,-1,-1,-1,-1,-1,-1,-1,-1,-1,-1,-1,-1,-1,-1,-1,-1,-1,-1],"loss_changes":[1.4273127E1,1.1600881E1,6.571286E0,1.1969279E1,5.8499126E0,1.0648753E1,0E0,1.4135159E1,8.156148E0,1.06066E1,5.202675E0,2.940731E0,6.623381E0,2.1578558E1,7.9175406E0,9.636584E0,3.753149E0,3.1690016E0,0E0,2.3867683E0,6.9286666E0,2.0381057E0,0E0,8.098251E0,1.9713397E0,1.0489081E1,3.2153358E0,0E0,1.1156273E-1,3.0577693E0,1.9636021E0,3.4874535E-1,5.0832815E0,0E0,0E0,0E0,2.1490307E0,2.4618235E0,2.8005023E0,0E0,0E0,3.3372674E0,2.090361E0,1.8989553E0,2.707078E0,0E0,0E0,0E0,0E0,0E0,0E0,0E0,0E0,0E0,0E0,0E0,0E0,0E0,0E0,0E0,0E0,0E0,0E0,0E0,0E0,0E0,0E0,0E0,0E0,0E0,0E0,0E0,0E0],"parents":[2147483647,0,0,1,1,2,2,3,3,4,4,5,5,7,7,8,8,9,9,10,10,11,11,12,12,13,13,14,14,15,15,16,16,17,17,19,19,20,20,21,21,23,23,24,24,25,25,26,26,28,28,29,29,30,30,31,31,32,32,36,36,37,37,38,38,41,41,42,42,43,43,44,44],"right_children":[2,4,6,8,10,12,-1,14,16,18,20,22,24,26,28,30,32,34,-1,36,38,40,-1,42,44,46,48,-1,50,52,54,56,58,-1,-1,-1,60,62,64,-1,-1,66,68,70,72,-1,-1,-1,-1,-1,-1,-1,-1,-1,-1,-1,-1,-1,-1,-1,-1,-1,-1,-1,-1,-1,-1,-1,-1,-1,-1,-1,-1],"split_conditions":[4.24554E0,2.4983355E1,1.868577E0,3.2138752E1,1.7979126E0,-1.19458206E-1,-5.6225896E-2,3.0055933E1,-8.002105E-1,3.249243E1,3.0802321E0,3.050424E1,4.1673523E1,3.446121E1,2.0734695E1,3.1099665E1,3.2834972E1,1.7287091E0,-6.541E-2,2.8567238E1,3.1754103E0,-1.4057448E0,-5.562374E-2,2.0552797E1,4.9983854E0,3.1471272E1,3.0089458E1,-4.0697128E-2,2.8676748E1,2.4578328E0,3.9925554E0,2.4955051E1,4.1070123E0,4.556037E-2,-2.3491872E-2,-9.578233E-3,1.0570892E1,3.327948E1,3.3209183E1,-2.9887369E-2,3.961478E-2,2.7870043E1,1.45E2,3.459262E1,3.0751263E1,-6.4173765E-2,3.4149356E-2,-6.466757E-2,-1.5231019E-3,1.9889873E-2,6.1188698E-2,-6.2093485E-2,1.3528156E-2,4.462259E-2,-9.347602E-3,-6.8270594E-2,-2.9526964E-2,2.1886379E-2,-4.6121765E-2,5.128776E-2,-9.92255E-3,1.5660712E-2,-5.3656902E-2,-1.5710458E-2,4.1219506E-2,-3.1840235E-2,4.6979595E-2,-6.5707E-2,6.2566698E-3,7.076629E-2,9.041992E-3,3.6220096E-2,-3.3241726E-2],"split_indices":[7,2,5,6,7,5,0,0,5,6,7,6,3,3,2,0,0,7,0,6,7,5,0,2,1,3,6,0,6,7,1,2,1,0,0,0,5,6,6,0,0,0,4,6,6,0,0,0,0,0,0,0,0,0,0,0,0,0,0,0,0,0,0,0,0,0,0,0,0,0,0,0,0],"split_type":[0,0,0,0,0,0,0,0,0,0,0,0,0,0,0,0,0,0,0,0,0,0,0,0,0,0,0,0,0,0,0,0,0,0,0,0,0,0,0,0,0,0,0,0,0,0,0,0,0,0,0,0,0,0,0,0,0,0,0,0,0,0,0,0,0,0,0,0,0,0,0,0,0],"sum_hessian":[1.9028387E2,1.447793E2,4.550458E1,8.976542E1,5.5013874E1,3.38258E1,1.1678782E1,5.3222427E1,3.654299E1,1.066942E1,4.434445E1,1.3575685E1,2.0250116E1,3.674013E1,1.6482298E1,